1077 100
네 0.15572105 -0.28828034 -0.20928036 0.14778748 0.036173064 0.11689571 -0.050183002 -0.10707081 0.11583958 0.20418319 -0.025655227 -0.2576817 0.103813976 0.16740634 -0.060716487 0.012760656 0.13361773 0.16173805 -0.021910561 0.0282115 0.090465166 0.1203909 0.32022572 -0.33372813 0.15523537 -0.1523651 -0.0055154543 -0.039171193 0.17403182 -0.11625968 -0.14825697 -0.056374382 0.073103756 -0.11379145 0.09963767 0.0018730432 0.1417468 0.040912803 0.02546555 0.08488156 -0.015863875 0.06739883 -0.12010211 -0.02693406 -0.08998026 0.012279165 0.1526441 -0.10673179 0.046667032 0.13813087 -0.06779182 0.03265445 0.018647548 0.04767131 -0.13302007 0.09014586 0.021403778 -0.07271729 -0.019564332 -0.15949008 -0.023296913 0.03238634 -0.099059194 0.10026992 0.09413327 -0.04773508 0.278072 -0.16417076 -0.15707676 0.17843491 0.4034933 -0.1073473 0.12886472 0.07937393 0.06423629 0.07948139 0.054008856 -0.061648212 -0.15741746 0.07124726 -0.016888086 0.059248067 0.076571874 0.03662979 0.15110727 -0.089966595 -0.08285803 -0.07706281 0.14788628 -0.22719328 0.081778266 -0.13573653 -0.11739689 0.13301134 0.055743672 0.022993594 -0.11847895 0.04733371 -0.18151258 0.0031389785
줄다 0.10207773 -0.31440425 -0.12826544 0.14993379 0.06245739 0.13432382 -0.054214094 -0.100249104 0.11827225 0.224833 0.01191135 -0.24515305 0.0819995 0.16682588 -0.07573349 0.03396983 0.14296862 0.14817902 -0.0068413536 0.029439176 0.044521425 0.07612143 0.35760117 -0.37087592 0.19250399 -0.17474616 -0.0743789 -0.05145955 0.20472874 -0.117279604 -0.1422777 -0.062456924 0.106094226 -0.14922135 0.0622296 -0.021456163 0.16829208 0.057066683 0.012905168 0.101310134 0.0026378538 0.075699404 -0.14523882 -0.03244223 -0.1026066 0.046736583 0.17261948 -0.10083229 0.058784608 0.18688713 -0.062444758 -0.014846425 -0.02019805 0.0016065774 -0.12772912 0.028985072 0.029792141 0.022032712 0.003836422 -0.1707204 -0.009431607 0.04131476 -0.048722774 0.08875925 0.07574227 -0.071408935 0.25531986 -0.13119212 -0.15742251 0.22988549 0.34724662 -0.09274143 0.19317357 0.054560117 0.065479785 0.102236345 0.013296165 -0.07539831 -0.1187808 0.03359032 -0.026512397 0.08280259 0.15566516 0.0507209 0.16857006 -0.03620701 -0.09304258 -0.026607519 0.15003334 -0.27645633 0.04051034 -0.22470436 -0.13872905 0.13584581 0.10255854 -0.008073485 -0.13107054 0.045541704 -0.2442862 -0.012378193
로 0.13950773 -0.37303042 -0.05716529 0.097633354 0.20410074 0.21790805 -0.11090742 -0.011712183 0.1523288 0.3397177 0.03754911 -0.2894614 0.10264249 0.13695264 -0.009387298 0.14376733 0.1156193 0.061815478 -0.09255766 0.06659016 0.11583696 0.047009144 0.32976475 -0.37403136 0.2230156 -0.2699738 -0.09345071 0.048688307 0.27282578 -0.14839126 -0.20677625 -0.030827967 0.15951566 -0.07816747 0.060303353 -0.05898028 0.17220323 0.0415747 -0.03776572 0.14607668 -0.027037982 0.11955433 -0.19233882 -0.16856973 -0.1236405 0.10186686 0.13968606 -0.13378368 0.14127436 0.21916465 -0.017156916 0.038750898 -0.07423412 -0.027322052 -0.0355133 -0.10300128 0.072710626 0.045917645 0.02398514 -0.16099335 0.044304788 -0.0072614844 0.027938422 0.05035847 0.070498005 -0.119608924 0.16947623 -0.07203211 -0.16026805 0.27106413 0.3312345 -0.121315464 0.14912319 -0.0075481785 0.14233924 0.13701266 -0.050153036 -0.082258835 -0.051768243 -0.0036042237 -0.0172849 0.052797392 0.20032802 0.02028795 0.09969853 0.03954938 -0.12126356 -0.03585566 0.19331138 -0.26047 -0.015920755 -0.31782377 -0.15316685 0.1466353 0.21839982 -0.0960579 -0.15177459 0.055314444 -0.22712417 0.0078089577
되다 0.1771433 -0.30052015 -0.22948132 0.14775734 0.024918457 0.10160539 -0.05953529 -0.121822305 0.11694154 0.20935908 -0.036574263 -0.26254782 0.10354904 0.16611193 -0.04892163 0.019045578 0.13531716 0.18051068 -0.012435597 0.021025775 0.09257223 0.13583778 0.35508695 -0.35094023 0.1547383 -0.1541404 0.018381365 -0.041867223 0.17549866 -0.11118759 -0.15588953 -0.06853909 0.07730543 -0.110551216 0.13318916 -0.008100909 0.14762843 0.036534294 0.04518613 0.07512339 -0.016787458 0.0591148 -0.10684007 -0.029449036 -0.077523895 0.017676085 0.15576789 -0.119771615 0.036688097 0.15069112 -0.07073727 0.045595795 0.029512215 0.040699486 -0.1365725 0.114949405 0.023568667 -0.10065488 -0.017931469 -0.15005754 -0.015523002 0.024713622 -0.10968 0.11010386 0.089482866 -0.054084975 0.27969277 -0.17158206 -0.17735179 0.1864064 0.44129315 -0.10056531 0.12662159 0.1039896 0.0414181 0.07671719 0.062932365 -0.060754716 -0.17865743 0.10154124 -0.012401493 0.066299066 0.065426685 0.039815765 0.17727461 -0.106318034 -0.07927983 -0.09335224 0.1609227 -0.23687467 0.10446499 -0.11931097 -0.1193391 0.14800227 0.0664608 0.033692513 -0.12335505 0.05769777 -0.19988139 0.0072594886
아메리카노 0.09289906 -0.29343408 -0.14769441 0.15100747 0.05082442 0.13604172 -0.032784652 -0.08806197 0.12477876 0.21306354 0.003977578 -0.23681428 0.08295591 0.18113573 -0.0876113 0.03804386 0.15731195 0.15642399 0.00047003498 0.03693764 0.033418853 0.07288008 0.35437864 -0.36500302 0.19008686 -0.15580676 -0.0581057 -0.05797436 0.18884125 -0.12464967 -0.13481416 -0.058454692 0.0943012 -0.16015917 0.06308398 -0.019369725 0.17582648 0.042802848 0.022550613 0.07078916 0.013440051 0.07312023 -0.13275953 -0.031753644 -0.10629927 0.039992273 0.17775062 -0.07520507 0.05472388 0.1729187 -0.06634679 -0.0126530295 -0.014431888 -0.021146549 -0.13339643 0.046788376 0.024051614 0.015314976 -0.02862268 -0.15460877 -0.0037348366 0.05360343 -0.06972554 0.08445601 0.07599477 -0.07867211 0.28249896 -0.118270434 -0.15473014 0.21693829 0.35050035 -0.08885752 0.18132697 0.06705498 0.059409577 0.10743035 0.028355213 -0.08375878 -0.1410814 0.04262039 -0.03555019 0.08409657 0.14876503 0.07398882 0.17750071 -0.03821251 -0.10775766 -0.035708312 0.14205894 -0.2824939 0.048621263 -0.2004552 -0.12250365 0.13937917 0.070438184 0.010959917 -0.12827119 0.0329357 -0.25183675 -0.023496807
원 0.15461881 -0.28912994 -0.20338503 0.13262093 0.013020564 0.10365487 -0.0482384 -0.12234344 0.101719856 0.19712856 -0.034321852 -0.25385043 0.09666344 0.14722542 -0.06928864 0.016462563 0.13510877 0.16397473 -0.0021922316 0.039964233 0.06896215 0.11620706 0.3489222 -0.34102646 0.17258136 -0.13749969 -0.005028355 -0.057441533 0.17490369 -0.1158705 -0.12431629 -0.052828237 0.08929409 -0.117869794 0.0929091 -0.017595895 0.14401102 0.038477186 0.04809801 0.063798614 -0.017669443 0.045347467 -0.1199418 -0.033842426 -0.08800908 0.0120818345 0.17158377 -0.08866882 0.038103126 0.13835452 -0.059043966 0.016930122 0.009979072 0.023450164 -0.14109543 0.08882503 0.03470851 -0.054944225 -0.027409336 -0.15513468 -0.0067418357 0.028626736 -0.08369243 0.089244224 0.09930092 -0.042108193 0.26557228 -0.14492887 -0.15936449 0.18986888 0.3949047 -0.09348292 0.12997505 0.09260484 0.05051535 0.060135018 0.047422495 -0.062165797 -0.15178998 0.07671557 -0.03412303 0.060634635 0.083469145 0.052196156 0.15982544 -0.07195118 -0.08079262 -0.06579011 0.15348531 -0.24114773 0.087887205 -0.12074491 -0.10240194 0.13661774 0.07353873 0.031765375 -0.118382186 0.053929515 -0.1870256 -0.0077801887
요 0.16539092 -0.30732894 -0.22754787 0.14612241 0.011610086 0.10975827 -0.045728564 -0.07044923 0.121741705 0.22742833 -0.022720056 -0.29025453 0.12423955 0.18336827 -0.075024724 0.0010315325 0.144386 0.16009633 -0.0066411844 0.0007948522 0.08994327 0.13565934 0.3662273 -0.35768127 0.16639532 -0.13543107 0.007234755 -0.08179635 0.1946188 -0.1003408 -0.1502924 -0.06052548 0.0769873 -0.11017764 0.100007966 -0.008419645 0.13802928 0.0381818 0.060375825 0.10661742 -0.004054888 0.075206056 -0.0955278 -0.018307775 -0.09440832 -0.003976184 0.16175257 -0.08456294 0.03950714 0.16084136 -0.058065727 0.033892304 0.015792634 0.021322122 -0.14850965 0.12224014 0.026354842 -0.07019734 -0.014525821 -0.14846139 -0.024895135 0.035009176 -0.11083617 0.07128838 0.08260148 -0.07606312 0.28946713 -0.12915051 -0.15577476 0.21389115 0.3869768 -0.103053585 0.11023711 0.09526156 0.06260229 0.08184552 0.04239799 -0.08226233 -0.1541451 0.08391768 -0.015902009 0.08808902 0.10742876 0.03278678 0.1484743 -0.098336 -0.08454298 -0.110625796 0.18403986 -0.21085154 0.10274136 -0.1524389 -0.10256665 0.11580629 0.079901114 0.027228732 -0.1790856 0.04032375 -0.16671304 0.014193409
드리다 0.15458295 -0.29121858 -0.18530689 0.14317517 0.03411033 0.122378826 -0.060210705 -0.11550469 0.114153005 0.20277792 -0.0120836 -0.24468361 0.08709847 0.15346697 -0.053029288 0.012995412 0.1280371 0.15817979 -0.021333495 0.019005526 0.088037014 0.11903816 0.32540408 -0.34217328 0.1649058 -0.1518875 -0.013956601 -0.04277582 0.17160174 -0.12122563 -0.13718912 -0.05399947 0.07792749 -0.117023125 0.089995205 -0.006948233 0.14176269 0.04690098 0.021441333 0.080498755 -0.016500806 0.054241583 -0.12258138 -0.032097872 -0.08819748 0.020329962 0.15202978 -0.11097528 0.047752235 0.14489022 -0.049843792 0.016079787 0.010467467 0.03686715 -0.1286151 0.083002605 0.02646974 -0.060106833 -0.02391029 -0.16306344 -0.019380558 0.028677227 -0.0884885 0.10410994 0.08080381 -0.05258719 0.27083695 -0.16102162 -0.16129722 0.1929474 0.39145535 -0.10230819 0.14577901 0.075728595 0.063765936 0.080235906 0.05344606 -0.05850923 -0.1370204 0.066476 -0.028036287 0.06668639 0.09054109 0.03287979 0.15289752 -0.0765981 -0.0933884 -0.07734095 0.14550057 -0.23438121 0.07556706 -0.14868952 -0.12260355 0.12634647 0.06864133 0.025848333 -0.11550657 0.04465559 -0.19913414 -0.005660312
따뜻하다 0.123115234 -0.36039203 -0.07956513 0.13748409 0.14092161 0.19959688 -0.07275202 -0.04986994 0.14799067 0.3389951 0.034314293 -0.283752 0.105416104 0.15691373 -0.044237897 0.093887605 0.12880042 0.10181136 -0.05790624 0.0372487 0.079882555 0.07706582 0.37518364 -0.38648993 0.20462821 -0.23092392 -0.088817365 0.007186123 0.25707862 -0.13107693 -0.18342386 -0.04787285 0.14115891 -0.099051766 0.05560491 -0.03498729 0.18097207 0.05453651 -0.012223091 0.12654787 -0.006717373 0.10005234 -0.18402626 -0.10483526 -0.118783705 0.077875644 0.1647653 -0.1259341 0.119210206 0.23495224 -0.020060036 0.017183587 -0.057094973 -0.017529944 -0.08494932 -0.051909517 0.042303525 0.051342234 0.021750098 -0.17661722 0.027381651 0.0048709624 0.003530959 0.06321655 0.058250412 -0.114588216 0.20348346 -0.08513701 -0.16694191 0.27151915 0.3483979 -0.106048256 0.18124221 0.0025310684 0.10392267 0.13293292 -0.031626146 -0.077963725 -0.077269696 0.017988214 -0.014040802 0.05998645 0.21278484 0.03865443 0.15436472 0.017123563 -0.11843698 -0.044385705 0.19144326 -0.28710628 0.006078674 -0.31041455 -0.14982927 0.15732478 0.18029046 -0.07847875 -0.1850044 0.047635958 -0.24977328 -0.0019954126
가능하다 0.16099156 -0.3000291 -0.21175297 0.14734523 0.0231032 0.12090206 -0.041936275 -0.115721665 0.11120785 0.21971332 -0.022248385 -0.26626104 0.09135026 0.16402249 -0.06762346 0.002279494 0.1363728 0.16076544 -0.006889668 0.01456166 0.08507998 0.13011174 0.35702276 -0.3530979 0.18190205 -0.14130361 -0.004322922 -0.057135087 0.18694726 -0.117402844 -0.13281076 -0.056918696 0.095330395 -0.12595478 0.09908303 -0.0061622537 0.1497799 0.036774967 0.04191549 0.07220901 -0.007304105 0.068079226 -0.11423833 -0.01818356 -0.091409795 0.01686843 0.16463861 -0.09883226 0.041327234 0.16259035 -0.0657327 0.021940736 0.0118486015 0.033457022 -0.14040294 0.100763634 0.022852667 -0.06535969 -0.01300661 -0.1551018 -0.011833665 0.03323887 -0.09255298 0.09739943 0.09911012 -0.054621853 0.28223193 -0.14696294 -0.15841526 0.20600936 0.39549375 -0.10509622 0.14487831 0.096685156 0.05291425 0.072058484 0.057090186 -0.07521842 -0.16886336 0.09006917 -0.023660274 0.073306754 0.10810623 0.046881344 0.17612556 -0.07556261 -0.08608646 -0.08320268 0.16695656 -0.23936735 0.089799784 -0.14627418 -0.1155062 0.14840429 0.06616226 0.016437856 -0.13067412 0.05373137 -0.21463093 4.485631e-05
잔 0.108673826 -0.2960569 -0.16074516 0.1688121 0.03310733 0.12983042 -0.03509461 -0.10554528 0.12296475 0.20560078 -0.011682928 -0.24554253 0.09880763 0.17387302 -0.0971913 0.021382382 0.15168047 0.18651134 0.008151504 0.035367336 0.041517682 0.10050682 0.34779206 -0.37661877 0.17932588 -0.15731734 -0.06850768 -0.060027894 0.19745822 -0.12661678 -0.1418475 -0.064415224 0.084756024 -0.16284041 0.065573044 -0.0112579735 0.1754163 0.05756762 0.022366442 0.06734584 0.009410397 0.07864607 -0.13951452 -0.026322046 -0.09844066 0.02309406 0.19335672 -0.08491265 0.042056922 0.16439925 -0.06763348 -0.023521863 0.0011861222 -0.0010748792 -0.14668655 0.073429175 0.015550458 -0.005226022 -0.018765206 -0.17329189 -0.016970117 0.057371873 -0.07624602 0.098430544 0.08884609 -0.059129108 0.29361355 -0.15756579 -0.15940896 0.20807423 0.3458353 -0.08255428 0.1796203 0.06958995 0.035955302 0.08433825 0.04132418 -0.082759604 -0.16107568 0.060453396 -0.02478009 0.089275025 0.14174053 0.06346006 0.19024047 -0.05358834 -0.109762244 -0.03216856 0.15313749 -0.28788555 0.054539844 -0.20203404 -0.13768722 0.14562567 0.080673754 0.022603579 -0.12492252 0.022681417 -0.241675 -0.009720336
거 0.1412816 -0.28683722 -0.17610797 0.15137547 0.06557439 0.10636023 -0.009795153 -0.08925467 0.10815953 0.25270048 -0.018942857 -0.28324884 0.12626502 0.17435303 -0.06759623 0.050357275 0.14309148 0.14035955 -0.025675068 0.026182005 0.08003037 0.12085995 0.37419382 -0.3272821 0.15376863 -0.1755638 -0.041054692 -0.061227087 0.18040481 -0.109822385 -0.15887748 -0.0629873 0.08422797 -0.102185905 0.08513178 -0.0005619653 0.154489 0.05660563 0.066422135 0.098144546 0.000990239 0.07504408 -0.11310626 -0.02632009 -0.10124679 -0.0062695327 0.13686669 -0.09315636 0.059054952 0.17393878 -0.074436456 0.01934399 0.0041754823 0.03513872 -0.14212073 0.026175164 -0.005928913 -0.026336139 -0.014245004 -0.14568037 -0.022524865 0.027134601 -0.08144654 0.063691296 0.085217185 -0.053775944 0.2699613 -0.12317192 -0.14652774 0.20927377 0.40610072 -0.11623428 0.15570155 0.037412543 0.04289314 0.113723144 0.05540182 -0.069455154 -0.12158726 0.039194897 0.00093294296 0.061611142 0.114944346 0.026871465 0.12823321 -0.075488925 -0.101392984 -0.100134745 0.1419257 -0.23010048 0.07624519 -0.23397729 -0.13162799 0.11810475 0.09244736 -0.008865908 -0.18560281 0.07371068 -0.2376518 0.014799734
커피 0.15167856 -0.2991992 -0.19458105 0.15695046 0.008975015 0.12007602 -0.018315626 -0.11763399 0.119781025 0.22838856 -0.021021556 -0.29025605 0.098648824 0.1835774 -0.08630157 0.01059435 0.15541871 0.17348944 -0.016907722 0.013805771 0.07523606 0.13479199 0.4090815 -0.3557523 0.17065321 -0.13719817 -0.0129643995 -0.08507873 0.18618523 -0.11589833 -0.13844448 -0.06261156 0.08847281 -0.13612251 0.099617004 0.0068798508 0.16526376 0.051198628 0.06391244 0.072236255 0.013866759 0.07138707 -0.11690174 0.004002079 -0.08310921 0.013283991 0.17742923 -0.07833075 0.042372327 0.1840903 -0.06722434 0.013217767 0.013565691 0.03824886 -0.16210708 0.08516399 0.011936839 -0.04082565 -0.019878123 -0.1508015 -0.03792034 0.032879796 -0.10344217 0.09272935 0.08520604 -0.07191452 0.31720027 -0.16010453 -0.16756798 0.20521088 0.40344647 -0.10075254 0.14901432 0.09000219 0.041484293 0.07974227 0.049509127 -0.08084481 -0.16666874 0.07665832 -0.029401138 0.07664411 0.1364378 0.053730708 0.17219433 -0.07544259 -0.09983289 -0.08648002 0.1562501 -0.25395432 0.08813562 -0.17069149 -0.1438855 0.14106491 0.06408227 0.0070090396 -0.18334274 0.055304497 -0.24673857 -0.0047240774
아이스 0.10110047 -0.30692273 -0.11963797 0.16756551 0.035886858 0.13318165 -0.039907068 -0.09373292 0.13151002 0.23408754 0.02040703 -0.24124902 0.09280956 0.16451146 -0.09983699 0.03200448 0.15003268 0.17789951 0.014106789 0.027991856 0.03158328 0.0812128 0.38312778 -0.38302973 0.19946021 -0.1467681 -0.067274034 -0.05053985 0.20763141 -0.126107 -0.12554023 -0.066233955 0.10326191 -0.15944006 0.06869162 -0.023226477 0.16542356 0.057022635 0.026889734 0.085997745 0.025480215 0.07525679 -0.14480895 -0.02958426 -0.10402543 0.041857123 0.19415733 -0.090196334 0.046520665 0.1897595 -0.06401821 -0.027099166 -0.013997166 -0.006724905 -0.14696892 0.050944272 0.019857995 0.023284681 0.0036731008 -0.17062238 -0.016318966 0.044200517 -0.06452084 0.09941536 0.059944153 -0.081787564 0.27122694 -0.13511474 -0.16649234 0.23900272 0.3360005 -0.090606846 0.20290859 0.06979908 0.043131847 0.09447885 0.0055615273 -0.06881491 -0.1416568 0.051279567 -0.024737684 0.08376847 0.17755249 0.063515164 0.19764368 -0.030817796 -0.10701403 -0.020205794 0.1684302 -0.2949852 0.050488044 -0.2218535 -0.13433148 0.14598052 0.08483111 0.017079389 -0.14183582 0.03305191 -0.26973045 -0.022174092
들어가다 0.13490488 -0.29117772 -0.17846324 0.18785337 -0.00674797 0.12179433 -0.008978644 -0.1351924 0.13101211 0.22350529 0.0014317016 -0.26604822 0.09419859 0.20246805 -0.109284416 0.0013949628 0.1533517 0.20487319 0.010672977 0.0122194905 0.041774392 0.13111673 0.43339714 -0.3922005 0.17897753 -0.12708616 -0.0024550264 -0.104500316 0.21287805 -0.118895285 -0.1141584 -0.07824686 0.08139254 -0.17148627 0.0728765 0.012621737 0.17418131 0.057818674 0.058191724 0.051859543 0.045000676 0.07979172 -0.1161884 0.03790585 -0.08789851 0.026383208 0.21696989 -0.09127473 0.008838992 0.18975553 -0.057892967 -0.0036231545 0.0054347776 0.031859536 -0.17661582 0.09991841 0.017693518 -0.033406723 -0.0058754073 -0.1631914 -0.036242224 0.062051013 -0.112378776 0.09754227 0.059496563 -0.09154662 0.33997583 -0.15104069 -0.17526565 0.21785778 0.38680577 -0.08942054 0.1774922 0.0925052 0.029941794 0.09551026 0.029218344 -0.067034565 -0.1853572 0.08456707 -0.041062724 0.08110022 0.16137095 0.08129392 0.2081913 -0.08707226 -0.1114361 -0.06280669 0.17695782 -0.29440525 0.093947776 -0.18389423 -0.15605526 0.1679129 0.045990553 0.040517755 -0.19285518 0.054993127 -0.2774846 -0.030711574
라떼 0.1336206 -0.31074923 -0.148367 0.15704891 0.023864528 0.11854478 -0.024591817 -0.10640876 0.13716935 0.22773376 0.025799694 -0.26730278 0.113207065 0.18957786 -0.091408774 0.023674453 0.16288354 0.18352717 0.002422589 0.012901113 0.040104106 0.1072539 0.4201315 -0.38107154 0.17955142 -0.15322152 -0.04355946 -0.09675752 0.22432952 -0.10393659 -0.12632954 -0.07743035 0.10501003 -0.1590271 0.069447294 0.0025472443 0.16737026 0.056321107 0.05196717 0.074734434 0.04431459 0.0763082 -0.13452613 0.017181236 -0.076134786 0.024950696 0.17884159 -0.06689107 0.030491352 0.1956458 -0.05084694 -0.015490975 0.007535417 0.0025645918 -0.17908354 0.060648754 0.0056354287 0.0071100174 0.0014499308 -0.15762341 -0.029805789 0.049572807 -0.085720465 0.08210153 0.044188865 -0.091861874 0.3119979 -0.14961365 -0.15828103 0.231283 0.36586785 -0.07852206 0.17457084 0.06262896 0.016780473 0.08658233 0.01090048 -0.08013612 -0.1623367 0.06407985 -0.032430917 0.06763797 0.17356202 0.07602398 0.19176142 -0.03434661 -0.10629921 -0.058804918 0.14245631 -0.28158978 0.06291886 -0.22672942 -0.14510901 0.15504998 0.09735261 0.021040602 -0.19093521 0.040640946 -0.2818346 -0.027228441
하나 0.10705606 -0.29010415 -0.1376921 0.15359896 0.045637056 0.12205774 -0.030231884 -0.10513361 0.117639855 0.21224466 0.010882069 -0.24038942 0.08875805 0.16667485 -0.081058785 0.03357786 0.12804203 0.15269648 -0.011093574 0.032350454 0.04155012 0.08841598 0.356246 -0.34792408 0.16845752 -0.1472072 -0.0600269 -0.054477423 0.19031578 -0.11553933 -0.12941325 -0.06863866 0.08945244 -0.143753 0.067402944 -0.007811617 0.16951749 0.04579796 0.035122402 0.074977845 0.017744476 0.07669662 -0.1299926 -0.022436775 -0.09141804 0.026742745 0.17592523 -0.082359195 0.03865318 0.16123301 -0.062051848 -0.01347644 0.0015584808 0.0073880847 -0.12909704 0.047893766 0.021923836 0.0052425787 -0.0073498012 -0.16428629 -0.018855302 0.0389338 -0.06637133 0.089934714 0.071942754 -0.068435565 0.26601598 -0.1349174 -0.15272054 0.21335661 0.34143844 -0.0833951 0.1650791 0.054142915 0.048399456 0.09724047 0.026947064 -0.07124072 -0.13381189 0.05379886 -0.02093861 0.07495132 0.15176782 0.062607005 0.17141749 -0.049137775 -0.09967945 -0.038199622 0.14593962 -0.26834226 0.061173134 -0.19362012 -0.1304393 0.13422418 0.081281915 -0.0022793862 -0.13276356 0.030682137 -0.23583649 -0.0033555645
사이즈 0.11269069 -0.337567 -0.107940055 0.13928042 0.12178473 0.15676752 -0.059282884 -0.0743885 0.119882606 0.26815394 0.03807953 -0.27572405 0.09417273 0.13272603 -0.074514076 0.069848016 0.1392646 0.14162539 -0.049066927 0.06081841 0.09407052 0.05736149 0.36362383 -0.367871 0.20529366 -0.20156285 -0.063861474 -0.0140804835 0.22066122 -0.1219871 -0.15996918 -0.055128504 0.12554832 -0.12056494 0.05916228 -0.026278555 0.15978293 0.06668014 0.01905459 0.10225019 -0.013365554 0.06445687 -0.15062271 -0.08502535 -0.107017815 0.048847105 0.1652295 -0.10597319 0.06712759 0.17426986 -0.04898465 0.0077619986 -0.028055914 -0.0010263342 -0.110648856 0.0036466506 0.05778208 0.031212201 0.0026721258 -0.17091213 0.027973717 0.008063355 -0.04165125 0.091777675 0.08768764 -0.095623896 0.22788097 -0.10115948 -0.1711469 0.23743373 0.3705087 -0.10960926 0.1787554 0.029674096 0.090805866 0.08720085 0.007989376 -0.053997125 -0.11863822 0.033897974 -0.017726993 0.07794081 0.16396746 0.033590525 0.13083912 -0.011748131 -0.08659649 -0.030337723 0.1795936 -0.24724402 0.054221354 -0.22785012 -0.15291253 0.14740723 0.122913405 -0.021181565 -0.15692748 0.061884448 -0.24047852 0.01370029
드릴 0.12840906 -0.40890214 -0.0085692955 0.07147303 0.2775106 0.28274897 -0.119973555 0.029807974 0.13453706 0.41096616 0.061517403 -0.28511897 0.1357598 0.05773914 -0.032112874 0.20926774 0.09759456 0.059235394 -0.07329489 0.030809965 0.105616644 0.041303985 0.33717638 -0.32609546 0.25397432 -0.30917823 -0.11354421 0.08077254 0.2948555 -0.15172492 -0.2555033 -0.05306066 0.2269724 -0.034282576 0.030554203 -0.11204159 0.21824202 0.004238901 -0.047205016 0.19391544 -0.08905228 0.12291599 -0.21982123 -0.20372194 -0.19063902 0.07852847 0.1376285 -0.18888178 0.19725278 0.24193564 0.057962332 0.044048943 -0.12928009 -0.05930033 -0.004667467 -0.20569068 0.07401008 0.1284447 0.046302147 -0.18108818 0.11657039 -0.060428657 0.059576895 0.08649948 0.051069275 -0.16753602 0.058923833 0.041913312 -0.11617219 0.2565846 0.32424018 -0.1023075 0.20048662 -0.055365425 0.17531142 0.19743504 -0.0974253 -0.07751765 0.013591231 -0.03097164 -0.06862272 -0.022020139 0.24506111 -0.011618052 0.13353235 0.065054365 -0.137972 -0.10009829 0.16377367 -0.28496912 -0.034848776 -0.40540344 -0.18692957 0.15473591 0.31210053 -0.19080897 -0.19973674 0.063037224 -0.15213732 -0.014087109
없다 0.19039841 -0.29642418 -0.24670486 0.15193649 0.03941708 0.10766015 -0.050995015 -0.15029477 0.0980698 0.21992321 -0.05166807 -0.26966316 0.13796529 0.16161793 -0.066503026 0.008446966 0.14665753 0.15780649 -0.005115862 0.008401926 0.05621736 0.15420002 0.34295273 -0.36572465 0.12306087 -0.14839952 0.01663647 -0.04462243 0.19802813 -0.11520861 -0.19356784 -0.08701152 0.0835615 -0.11575239 0.13497414 0.014469381 0.19463496 0.049395032 0.0655949 0.07289704 -0.016225897 0.034400005 -0.12640199 -0.014731735 -0.06446318 -0.009906925 0.16116951 -0.08698376 0.008744059 0.1553003 -0.08478644 0.042446144 0.038205497 0.030894239 -0.1765069 0.08711229 0.010302209 -0.105375774 -0.0038087857 -0.1649675 -0.02220109 0.026048308 -0.09349232 0.12451705 0.095663466 -0.04372928 0.27732596 -0.18964021 -0.1755997 0.16606939 0.46913308 -0.09897909 0.11906643 0.07659914 0.051870298 0.07664881 0.056954317 -0.0480462 -0.15193896 0.0926918 0.018918594 0.056408517 0.08672882 0.042856067 0.18737222 -0.12349825 -0.08824376 -0.08719544 0.14841984 -0.2676181 0.1171955 -0.1515562 -0.1647117 0.1574117 0.0676387 -0.00083355187 -0.15738568 0.07602082 -0.22563347 0.039159365
추가 0.12176115 -0.2671419 -0.17457281 0.16159819 -0.0033527438 0.1334539 -0.025143387 -0.120565005 0.112576194 0.20254709 -0.010252902 -0.24155015 0.08874486 0.16165897 -0.09780718 0.001876087 0.15283771 0.17187843 0.017232895 0.025465978 0.043148313 0.10197159 0.368469 -0.36044484 0.17673121 -0.11589863 -0.004975405 -0.06539542 0.205981 -0.11581345 -0.11930975 -0.08580349 0.09612804 -0.16896552 0.08696278 -0.014049183 0.17363149 0.04398047 0.037616033 0.036852643 0.03168237 0.0634793 -0.116302036 -0.009168938 -0.09517295 0.021760937 0.1956692 -0.08522815 0.025127292 0.14870389 -0.06259089 -0.0014910729 -0.00943714 0.0010097809 -0.1409525 0.09029771 0.028166737 -0.055421755 -0.02681417 -0.1668333 -0.01059478 0.055389475 -0.09822588 0.11318707 0.056201898 -0.08478944 0.30424094 -0.13072231 -0.16973975 0.20319885 0.3894204 -0.096857995 0.16481875 0.11308966 0.04544788 0.092156544 0.014670053 -0.058765925 -0.18713085 0.08500035 -0.025971275 0.06984001 0.12271602 0.0734923 0.20235193 -0.07979808 -0.11481394 -0.061392553 0.17888941 -0.28590584 0.07352614 -0.15576167 -0.13375129 0.15622336 0.036749344 0.043936234 -0.14483993 0.052596062 -0.2203253 -0.01363418
끄다 0.16639915 -0.35414606 0.015712837 0.090484455 0.2712047 0.24801564 -0.09273312 0.0116903735 0.19021039 0.44135585 0.039151184 -0.314701 0.059609298 0.14054017 0.039566495 0.1884596 0.067764714 -0.029456256 -0.17065991 0.10986914 0.17413409 0.04912307 0.31394082 -0.39174497 0.23638056 -0.3195425 -0.12618357 0.11626639 0.27951536 -0.15287998 -0.17862202 -0.02353624 0.17239994 0.010482632 0.04565433 -0.0017175531 0.1647945 0.07967897 -0.069245644 0.14077236 0.03632847 0.1399006 -0.25804433 -0.23589493 -0.10977959 0.15250343 0.12491235 -0.17278288 0.22750375 0.2976138 0.04308158 0.034675073 -0.09896665 -0.058411267 0.019709516 -0.18191327 0.104812406 0.033973753 0.023314172 -0.18245608 0.025987519 -0.025484199 0.1317768 0.01362635 0.09343104 -0.15059935 0.11614845 -0.046122137 -0.2076913 0.3229454 0.32856724 -0.21216226 0.13480316 -0.066421196 0.18825814 0.17177491 -0.08917367 -0.10069059 -0.059145868 -0.059468422 0.011352579 0.08260455 0.24525507 -0.009925435 0.03061345 0.13617265 -0.119863175 0.003135928 0.24882446 -0.22538655 -0.07360383 -0.39467216 -0.1334069 0.17306936 0.21136464 -0.19536766 -0.20475087 0.09823672 -0.2810026 0.025103182
음료 0.16242012 -0.29877815 -0.1917594 0.1541096 0.021746334 0.121833794 -0.02944719 -0.11458929 0.12294829 0.22817016 -0.009609736 -0.27631703 0.10111961 0.18031214 -0.08135222 0.01002141 0.14601475 0.16509046 -0.017296696 0.014456065 0.085050926 0.119133726 0.38205662 -0.35312676 0.17197841 -0.14150736 -0.015437844 -0.06821871 0.1840653 -0.12057776 -0.14034687 -0.07259882 0.08681427 -0.12595414 0.09808023 0.00054283685 0.16446012 0.057868164 0.040655073 0.079580374 0.010786793 0.06280844 -0.12086084 -0.019207932 -0.08672023 0.010215062 0.17216378 -0.08889242 0.0468497 0.17286186 -0.060732145 0.013853588 0.01575147 0.035897136 -0.15792137 0.07269593 0.017950011 -0.046224806 -0.019548023 -0.16432214 -0.014607803 0.029632462 -0.09699947 0.08973185 0.086302176 -0.06840755 0.29566276 -0.15707208 -0.16575961 0.20905562 0.3973201 -0.105133735 0.14780846 0.0842511 0.052756857 0.082034335 0.040503185 -0.068900116 -0.15551618 0.07605718 -0.01015305 0.07002268 0.12536697 0.046708874 0.17023931 -0.06791581 -0.10070929 -0.07240015 0.15736394 -0.24395964 0.07521288 -0.18086453 -0.1337342 0.1454538 0.07020243 0.004614019 -0.1606765 0.05327406 -0.23280573 0.0037786965
시럽 0.14774624 -0.32897457 -0.15436405 0.15582782 0.020127729 0.1287098 -0.04615711 -0.11033096 0.1381072 0.23476137 0.01970847 -0.2808607 0.10154169 0.18186563 -0.09636627 0.022189865 0.17468695 0.20239471 0.0058042402 0.022993146 0.03973347 0.12107536 0.4113207 -0.39013365 0.18172093 -0.14992759 -0.025920521 -0.06985583 0.23141597 -0.121363886 -0.12523091 -0.08169748 0.09448933 -0.14849608 0.07715423 -0.014898385 0.18935464 0.04999783 0.040133692 0.08170812 0.034311585 0.053541627 -0.13080259 -0.006003533 -0.08545769 0.036173478 0.18690577 -0.09260936 0.02490854 0.1798911 -0.051917464 0.0024731415 0.017219625 0.0069118016 -0.17747669 0.08519331 0.01349577 -0.019104345 0.007465014 -0.15650332 -0.015533134 0.03375646 -0.08907844 0.09333676 0.05227971 -0.09169685 0.2981103 -0.15252054 -0.18158063 0.23070799 0.38844073 -0.09171612 0.18021786 0.08466754 0.02702769 0.099615276 0.026578018 -0.06871705 -0.15351357 0.08446628 -0.01612588 0.057298955 0.16587591 0.07352959 0.20764787 -0.03921074 -0.10794185 -0.058679733 0.16447559 -0.29061657 0.06548196 -0.21025011 -0.14300983 0.16052349 0.0907025 0.03572608 -0.16608223 0.04712182 -0.27332005 -0.026875334
해주다 0.13730422 -0.28361505 -0.19382545 0.124490105 0.016286116 0.113204725 -0.043503586 -0.10467138 0.10706375 0.18852824 -0.027545573 -0.24980165 0.09945531 0.15388772 -0.06856673 0.001288461 0.12997635 0.16257635 -0.012955419 0.029515196 0.067203596 0.11905644 0.33173952 -0.33332685 0.15837441 -0.14811099 -0.016022522 -0.050563656 0.17360514 -0.11189301 -0.13303025 -0.055594433 0.08078863 -0.1235997 0.08933186 0.0033056426 0.15218218 0.031921707 0.029122893 0.0637604 -0.002666894 0.06256564 -0.11141128 -0.022536492 -0.07336705 0.020951597 0.15227365 -0.10241606 0.042866383 0.15183675 -0.055387303 0.016945021 0.005881723 0.032095958 -0.12693018 0.07572043 0.026986944 -0.06578281 -0.018049374 -0.14903635 -0.017773189 0.036389682 -0.0878746 0.08505436 0.08839379 -0.04479537 0.27014917 -0.1445882 -0.15117775 0.1902495 0.3833811 -0.10654735 0.13131912 0.07270605 0.053906165 0.06968461 0.056269035 -0.06902765 -0.15357524 0.06873328 -0.02165654 0.07407537 0.09822939 0.045220822 0.16350996 -0.08466394 -0.08212069 -0.07446703 0.14193082 -0.22667086 0.07663403 -0.13224891 -0.1199889 0.13041314 0.053376485 0.0137781715 -0.11670493 0.048980497 -0.190588 0.0071597155
어떻다 0.16003291 -0.35105717 -0.13500248 0.11733313 0.107917495 0.17065118 -0.06599274 -0.071315825 0.1514064 0.31515887 0.0056699896 -0.30387536 0.1156642 0.14722772 -0.033900958 0.081863835 0.12119412 0.0942047 -0.063872896 0.03275052 0.11512153 0.100784026 0.37266144 -0.36353058 0.17480867 -0.21093562 -0.04206422 -0.019585168 0.23448858 -0.1274107 -0.17653231 -0.0489045 0.13489333 -0.07801851 0.07049554 -0.013721553 0.16239205 0.051995993 0.022763094 0.12000233 0.007474135 0.097794406 -0.15502456 -0.07693613 -0.10923208 0.03608111 0.15916161 -0.10368835 0.108924404 0.22498105 -0.03750543 0.02169641 -0.027365359 0.0059616696 -0.10038448 -0.025882099 0.040624514 0.0042605405 -0.013139833 -0.15020785 0.011864618 -0.0003081589 -0.03029567 0.06932093 0.08712589 -0.10017121 0.23481882 -0.10254248 -0.15430519 0.24967428 0.38456094 -0.12223943 0.15690961 0.02933059 0.09516163 0.10961182 -0.010841913 -0.08547363 -0.09766647 0.040328164 -0.02069878 0.070192166 0.15387297 0.017720178 0.11897368 -0.01943079 -0.10943094 -0.0706175 0.1859221 -0.25347602 0.023569595 -0.2645655 -0.15195695 0.13380487 0.16346548 -0.06583873 -0.20194069 0.07515768 -0.23025268 0.012412014
만 0.14285718 -0.28722793 -0.20356935 0.17381364 0.014397778 0.10025543 -0.035618983 -0.113363475 0.105780475 0.20005578 -0.012226846 -0.25271302 0.093944445 0.19932091 -0.079105906 -0.012753501 0.14138843 0.18599325 -0.00045131185 0.022890221 0.06400211 0.11034543 0.33980715 -0.37719044 0.16604713 -0.13529503 -0.019486155 -0.053993084 0.17620458 -0.10440252 -0.14550792 -0.068860866 0.08515089 -0.13518369 0.099566765 0.0067707542 0.15325765 0.052863047 0.026069341 0.09138572 -0.0077740964 0.05665804 -0.11936037 -0.0022009495 -0.08875679 0.002306087 0.18034783 -0.1138915 0.012534541 0.13473362 -0.0650379 0.00940989 0.013339123 0.04539009 -0.16482782 0.11825576 0.015425544 -0.080469355 -0.031796888 -0.16749512 -0.029271202 0.050777517 -0.10267255 0.09217129 0.09560783 -0.07528057 0.29774243 -0.17154138 -0.16777548 0.19079882 0.4008233 -0.10287174 0.16496381 0.10128765 0.06304814 0.08815828 0.06606316 -0.06583363 -0.17084533 0.107474886 -0.014819934 0.08426676 0.12326563 0.07241157 0.16665019 -0.084466 -0.07127842 -0.05807526 0.163266 -0.23720141 0.09593586 -0.12975752 -0.12141045 0.14613791 0.037741784 0.037770186 -0.1273699 0.04313101 -0.20523708 -0.027264979
결제 0.13884196 -0.28682402 -0.18728328 0.13065466 0.03692015 0.10474042 -0.056037113 -0.10625565 0.09889094 0.19825505 -0.033122834 -0.24219757 0.09990388 0.14480507 -0.05464068 0.02193409 0.12433804 0.15031178 -0.021380138 0.025128944 0.07876538 0.11101455 0.30388418 -0.3120391 0.15802635 -0.15655704 0.0036843854 -0.037711404 0.15796505 -0.110706694 -0.12884784 -0.0588593 0.087144844 -0.09424258 0.09694481 -0.023232564 0.13721046 0.044804152 0.022795955 0.078771725 -0.033752106 0.054804794 -0.11135186 -0.035906598 -0.07913631 0.011018718 0.1397019 -0.10236423 0.045974158 0.13221912 -0.04500227 0.034019385 0.018231655 0.027929142 -0.110465266 0.098704204 0.032384537 -0.07034677 -0.032288574 -0.13748576 -0.00013832809 0.029241806 -0.08206488 0.09537344 0.09459636 -0.050597943 0.23813644 -0.15474801 -0.13883747 0.16416676 0.38992128 -0.09362343 0.11027612 0.0957428 0.049604584 0.0741156 0.048691653 -0.06244238 -0.15112261 0.077322595 -0.017751116 0.046473958 0.06604813 0.034459535 0.14727932 -0.0903822 -0.071439035 -0.06603968 0.1498724 -0.21689677 0.08342526 -0.11731267 -0.1002997 0.12954503 0.07849371 0.020664435 -0.10499822 0.06195329 -0.15875663 -0.0042989464
들다 0.16009805 -0.28503415 -0.20619138 0.16466765 0.02000808 0.10800591 -0.04288269 -0.08311032 0.09981132 0.2461968 -0.018917384 -0.27467734 0.10932549 0.16903849 -0.049148448 0.024996119 0.1477164 0.16669953 -0.003055257 -0.008692413 0.10541227 0.13603862 0.36398026 -0.3192092 0.14358027 -0.12673825 0.013333469 -0.06904413 0.16342703 -0.08430265 -0.12496863 -0.0615969 0.057673316 -0.093388356 0.11909658 0.0028535181 0.13647984 0.03262531 0.0770255 0.104640104 -0.005625652 0.07485962 -0.09436748 0.009493685 -0.09342325 0.003038424 0.14972983 -0.0998027 0.053642105 0.14860834 -0.08955531 0.046899416 0.016976433 0.04352024 -0.1542016 0.092363305 -0.00097441184 -0.0675755 -0.0103066815 -0.12202562 -0.031931784 0.05025827 -0.10327556 0.06040447 0.09294929 -0.04864127 0.30273363 -0.1574131 -0.1553878 0.19005631 0.3994022 -0.07999951 0.1328538 0.085910805 0.04104236 0.09670013 0.0685724 -0.09693835 -0.16742967 0.06422805 -0.017455544 0.09258742 0.09756168 0.031099226 0.14322296 -0.10616617 -0.080942824 -0.095595725 0.16005516 -0.21828185 0.09757093 -0.16257037 -0.09831647 0.12679787 0.061102178 0.031152004 -0.17662387 0.046958346 -0.18871203 -0.009828041
에요 0.13957965 -0.29333922 -0.18808481 0.15685889 0.0039013117 0.13100332 -0.04532631 -0.121905886 0.11670664 0.24326245 -0.021458078 -0.2691784 0.11070705 0.20215027 -0.07017453 0.02117723 0.15777002 0.18041164 -0.0036968703 0.019260222 0.06888097 0.128577 0.39388037 -0.37481326 0.15551868 -0.14887105 -0.03154762 -0.09451754 0.18302299 -0.10814994 -0.14027631 -0.07152895 0.08988438 -0.14840932 0.094089895 0.0062776026 0.16530655 0.05864816 0.069186695 0.05771582 0.026035046 0.07548078 -0.109221555 0.0034340676 -0.07834963 0.013135413 0.1847563 -0.053715393 0.035656754 0.18781503 -0.06680022 0.0019769089 0.026176808 0.0178798 -0.15011032 0.08178601 0.00421985 -0.031273864 -0.03248126 -0.15889302 -0.03270972 0.054367837 -0.11540161 0.08303973 0.06801036 -0.093261145 0.32840902 -0.14343104 -0.15368436 0.19382304 0.39529443 -0.06549343 0.16289245 0.0795147 0.051036607 0.07116528 0.048640158 -0.07487434 -0.1577682 0.08789291 -0.0035681664 0.09522039 0.1387006 0.05036108 0.19401658 -0.06770662 -0.09533764 -0.07149522 0.15964279 -0.27016246 0.07309596 -0.18607344 -0.1416442 0.15922551 0.070521325 0.011195823 -0.17550269 0.03689994 -0.23305301 0.0003238361
뭐 0.15501109 -0.29349244 -0.19021933 0.15671343 0.008394904 0.09327531 -0.005770387 -0.11025147 0.119574495 0.23166393 -0.013932511 -0.29002586 0.099801384 0.17420264 -0.084567435 0.013275157 0.14649113 0.16110136 -0.007116898 0.013480106 0.061038155 0.12960114 0.42066088 -0.34308195 0.15041164 -0.13356228 -0.02486469 -0.10348929 0.19245137 -0.10506044 -0.12848267 -0.06855952 0.09611991 -0.136646 0.084525734 0.026688978 0.16287194 0.060605783 0.08622064 0.074790105 0.042706832 0.068400815 -0.10177112 0.023760416 -0.08549108 -0.014035978 0.17404398 -0.0737639 0.026081773 0.1897 -0.07452472 -0.009872809 0.025431389 0.03189116 -0.15995286 0.07326832 0.00086568104 -0.02981443 -0.02424257 -0.14270164 -0.03952259 0.04314264 -0.11387612 0.08153304 0.08445257 -0.053665373 0.29726326 -0.15444939 -0.1469309 0.2121302 0.3848588 -0.10522933 0.15816619 0.061919816 0.008741496 0.08604415 0.041241385 -0.057898734 -0.14820033 0.07533863 -0.021618329 0.081094876 0.123235345 0.038153186 0.16874912 -0.08196463 -0.101524234 -0.09937946 0.14689621 -0.2533426 0.07378022 -0.19904548 -0.1526421 0.114641 0.08113158 0.01125533 -0.18966864 0.06356919 -0.2550295 -0.014982812
주문 0.14206028 -0.29688916 -0.18558976 0.14162861 0.008881121 0.10935952 -0.045118634 -0.10558335 0.11925777 0.23156795 -0.0031387382 -0.26163575 0.09786091 0.16926211 -0.07483973 0.014233535 0.14571367 0.16596913 -0.011933082 0.006467202 0.06467981 0.11960466 0.36831722 -0.34271958 0.17233635 -0.13362285 -0.009509583 -0.060882185 0.18926111 -0.11751793 -0.13387431 -0.07111081 0.09264125 -0.13318345 0.08899569 -0.011512934 0.15709902 0.05054606 0.036473107 0.08169608 0.007789252 0.067209736 -0.11597855 -0.014165769 -0.0881767 0.030564284 0.16817053 -0.09404855 0.03729399 0.15292966 -0.064375415 0.017872952 0.013581289 0.033794954 -0.13781564 0.08771626 0.019296907 -0.05081339 -0.014134302 -0.14615728 -0.013736599 0.031972922 -0.09368239 0.093949854 0.07315042 -0.063370906 0.2920337 -0.15400739 -0.15315898 0.21057878 0.37827712 -0.090602 0.14319144 0.08254479 0.045140427 0.08788546 0.03006513 -0.07506154 -0.15646946 0.084373824 -0.022204893 0.08019382 0.12568884 0.03905765 0.17760855 -0.064235955 -0.099433176 -0.06571124 0.15868539 -0.25630608 0.06328959 -0.17024834 -0.124994546 0.13706581 0.065008946 0.014554568 -0.1500321 0.04672168 -0.2170432 -0.014144222
예요 0.14965154 -0.28238907 -0.2007893 0.15930001 0.0042670583 0.12607165 -0.0473491 -0.12031264 0.10649226 0.24414992 -0.026577778 -0.27238026 0.12103589 0.20159005 -0.060212653 0.021620473 0.15447795 0.16851293 -0.016475253 0.0065200045 0.083947584 0.13180506 0.38716203 -0.3558716 0.14791708 -0.1565721 -0.024606962 -0.08269967 0.1711667 -0.10118925 -0.13729447 -0.071636796 0.076026894 -0.12624605 0.10229162 0.0016523019 0.14399633 0.049599152 0.06520043 0.07013362 0.007845395 0.08229172 -0.10379647 -0.006734737 -0.08362041 0.009398979 0.17784199 -0.054249298 0.042148355 0.18060611 -0.075636744 0.022827111 0.017135499 0.037099082 -0.14992133 0.080781706 -0.006472552 -0.03354476 -0.018644473 -0.1396985 -0.029686214 0.048130307 -0.118495375 0.071503736 0.059363946 -0.07977446 0.32362694 -0.1452616 -0.16316907 0.18321511 0.40317914 -0.070528544 0.15267886 0.07359273 0.056641657 0.06959932 0.0499866 -0.07664233 -0.15599082 0.076071106 -1.6825445e-05 0.083764285 0.13217475 0.049289465 0.16689217 -0.09294866 -0.08474518 -0.08398141 0.14857058 -0.24788989 0.07240016 -0.18307935 -0.11868913 0.15593009 0.077125415 0.0128717795 -0.1826845 0.04781865 -0.21797226 0.004574252
적립 0.16129072 -0.2941614 -0.24027793 0.12632337 0.03866585 0.11988275 -0.06599571 -0.11608621 0.10681157 0.22277707 -0.046031214 -0.26994318 0.105911724 0.16001046 -0.0308927 0.012223722 0.11239076 0.15673776 -0.01616213 0.022818312 0.093101196 0.14103107 0.30913797 -0.33546367 0.13734502 -0.16086654 -0.0028675126 -0.044951048 0.16191316 -0.10753762 -0.16217548 -0.069830015 0.086720765 -0.10359636 0.1462639 -0.0006942588 0.15661648 0.049889054 0.03191654 0.09652859 -0.045769904 0.049782105 -0.12075026 -0.034890868 -0.07960242 0.02082786 0.1484685 -0.112227306 0.031531204 0.12844442 -0.05945995 0.072107464 0.023388466 0.048171345 -0.10918493 0.11465223 0.031445555 -0.10004811 -0.009383932 -0.14096528 -0.020738527 0.022108564 -0.102244064 0.112705395 0.0979397 -0.061155163 0.27409306 -0.18285124 -0.14260386 0.15469821 0.43465555 -0.12688711 0.0886324 0.118399814 0.038545776 0.054691833 0.05486557 -0.05365817 -0.16809286 0.09961681 -0.0076986044 0.03840956 0.079544365 0.017109867 0.14436714 -0.112281956 -0.069559805 -0.095348604 0.14431462 -0.21289754 0.11023189 -0.094072975 -0.108639 0.15001726 0.060986187 0.021084698 -0.09773676 0.05186916 -0.1727336 0.0045058974
할인 0.15581049 -0.26991153 -0.2439835 0.14334944 0.003848864 0.09714172 -0.050995003 -0.11850322 0.09210785 0.20062889 -0.05450203 -0.24647056 0.09922448 0.1427994 -0.047602683 0.014166732 0.12199281 0.15744323 -0.012875977 0.027302967 0.09927186 0.12737979 0.29907656 -0.33621228 0.14120626 -0.12369855 0.022176448 -0.059849396 0.17155716 -0.117618054 -0.14740597 -0.07426527 0.079594366 -0.12005772 0.13430575 0.0017444186 0.15115884 0.043463677 0.03531477 0.073075265 -0.02630883 0.039468538 -0.10034782 -0.02567758 -0.0918579 0.0016869454 0.15240614 -0.098462164 0.023081264 0.12591201 -0.069618866 0.055552308 0.036426775 0.030986711 -0.12235999 0.11685088 0.03859828 -0.11220694 -0.024762575 -0.15379696 -0.0062949182 0.016119657 -0.110860534 0.0913247 0.10872439 -0.04735711 0.2706476 -0.18666895 -0.16154425 0.14842598 0.4333892 -0.11265934 0.10651639 0.12108781 0.0429534 0.06328212 0.06581147 -0.048222754 -0.18144403 0.09194479 -0.008721051 0.046954818 0.049654096 0.031224895 0.15684746 -0.11515149 -0.06868837 -0.09553792 0.13462146 -0.22439675 0.102961235 -0.08863745 -0.099878795 0.12368455 0.05140099 0.03269932 -0.10118952 0.056157093 -0.15653107 -0.0033523594
카드 0.17165089 -0.28042617 -0.2220289 0.12668478 0.037291728 0.09910856 -0.058672994 -0.12526752 0.108156115 0.2063354 -0.042184796 -0.2608973 0.10590037 0.1532464 -0.038731802 0.016519211 0.13327834 0.15355194 -0.015060951 0.021364428 0.08402867 0.11994028 0.3097096 -0.3304281 0.14623371 -0.15586571 0.016212309 -0.046397343 0.17650418 -0.1123643 -0.14969179 -0.059930332 0.08922726 -0.10342464 0.13473174 -0.0022820497 0.14565408 0.03428172 0.030775443 0.08827148 -0.03853556 0.046765022 -0.122200154 -0.04474374 -0.08490874 0.019767325 0.14765966 -0.11851525 0.035003945 0.12721983 -0.061967045 0.060705055 0.03140986 0.037945017 -0.116027184 0.09885525 0.035878137 -0.10476404 -0.02674566 -0.14157388 -0.008406338 0.012260227 -0.09304154 0.10747342 0.10122747 -0.050510075 0.2530047 -0.16473201 -0.16043597 0.16425316 0.41802284 -0.1063308 0.09952788 0.1020267 0.036041062 0.06788954 0.053862963 -0.059301574 -0.15600142 0.09058412 -0.011021347 0.055143103 0.06804896 0.02074067 0.1466254 -0.102613665 -0.07585855 -0.09714282 0.15184899 -0.23298997 0.09661964 -0.10764453 -0.10590852 0.13582633 0.06950934 0.026531817 -0.10090391 0.059788797 -0.17055137 0.0051010884
여기 0.16005033 -0.2931567 -0.2200875 0.14583209 0.009885536 0.10639949 -0.03798462 -0.121320106 0.122661665 0.22423393 -0.02618281 -0.28057232 0.1061897 0.18527846 -0.046539698 0.0035903316 0.14454673 0.16239455 -0.011725625 0.007947023 0.0875806 0.1434943 0.37085947 -0.34135598 0.16569951 -0.13287026 0.007352327 -0.05899489 0.1875772 -0.104498364 -0.13789469 -0.06360483 0.07099268 -0.10794456 0.11734565 0.007067161 0.16249919 0.033454653 0.054937996 0.07608638 -0.002298353 0.057606664 -0.10107792 -0.0068612522 -0.091417514 -0.000824284 0.15825033 -0.08409093 0.03781194 0.15168868 -0.06544173 0.032098852 0.026801 0.04074136 -0.14454222 0.103299886 0.009214203 -0.081098884 -0.025500506 -0.14709075 -0.027353948 0.036039818 -0.11603197 0.08538322 0.092809595 -0.05808846 0.29407635 -0.1720846 -0.16172007 0.18917644 0.4107357 -0.10520456 0.13458322 0.09678622 0.059779827 0.07920879 0.063292824 -0.07309425 -0.17101538 0.10115201 -0.0030408893 0.074595556 0.10867605 0.02603022 0.16996866 -0.09996077 -0.090226606 -0.092483826 0.1598068 -0.22605184 0.07868515 -0.14514743 -0.109530285 0.14264351 0.060896467 0.0156209385 -0.14218427 0.055267096 -0.19707642 0.0024429567
영수증 0.12189357 -0.26331785 -0.15986799 0.1256127 0.031758036 0.10253196 -0.038245477 -0.0934206 0.10025268 0.19692692 -0.016532933 -0.2287691 0.08106368 0.15023291 -0.06476323 0.014697262 0.114192545 0.13974245 -0.020674841 0.0135456035 0.0604362 0.10398563 0.30279708 -0.30310914 0.15018296 -0.13315968 -0.01838571 -0.03750373 0.16399786 -0.11211462 -0.12925078 -0.0568667 0.0814873 -0.10042782 0.0908704 -0.012183476 0.15201043 0.04118306 0.031948954 0.067066684 -0.005959389 0.053207334 -0.10775999 -0.027490197 -0.08140864 0.017282357 0.14389695 -0.08552147 0.02908619 0.13482451 -0.044304494 0.009682148 0.011829486 0.027764367 -0.12030369 0.063833185 0.022280438 -0.040492244 -0.007366568 -0.13497734 -0.019450774 0.026965069 -0.074809074 0.07796499 0.07040572 -0.057140462 0.23267725 -0.13728878 -0.1407388 0.16632599 0.33392993 -0.08983155 0.124021165 0.060376618 0.050500527 0.0746025 0.04386458 -0.065215886 -0.12500218 0.07022805 -0.012788968 0.06025903 0.10013749 0.03995051 0.14071575 -0.069219075 -0.09036368 -0.05712091 0.13394456 -0.20620923 0.06500375 -0.14641005 -0.11250039 0.12447344 0.0631521 0.0025727532 -0.11973431 0.044213224 -0.18031852 -0.0008787815
안 0.16455555 -0.29137006 -0.21444963 0.16540347 0.0044552223 0.10106722 -0.03579065 -0.13038315 0.11886455 0.21498224 -0.03262729 -0.2801541 0.10207061 0.18320036 -0.07489952 -0.00019277092 0.15712896 0.16954605 -0.0017784531 0.017124293 0.08317454 0.12918063 0.3759245 -0.35534295 0.16098863 -0.1289737 -0.0019584023 -0.079218216 0.18502738 -0.115367465 -0.1426272 -0.082675636 0.08211621 -0.13256471 0.11024067 0.002230745 0.16138615 0.050441656 0.049053736 0.08048227 0.002291352 0.056196447 -0.10870702 0.006582544 -0.084789 0.0094244 0.1644133 -0.087731116 0.030590355 0.1505109 -0.07184984 0.022641515 0.030948281 0.03788822 -0.16855599 0.11236317 0.0045433044 -0.081852175 -0.02176323 -0.15793444 -0.023479708 0.037983384 -0.117378615 0.10240408 0.09436148 -0.06008086 0.29871938 -0.17936143 -0.16057767 0.18966407 0.43040618 -0.098854475 0.13994938 0.10039716 0.04081221 0.07662806 0.06025828 -0.065219045 -0.1758592 0.095473 -0.012404892 0.058574393 0.105987914 0.041147575 0.17582376 -0.09761431 -0.09575295 -0.087700576 0.15714043 -0.24723627 0.08797447 -0.15465207 -0.12723945 0.14644241 0.06318329 0.03557877 -0.14493915 0.065581076 -0.2254874 -0.008759677
샷 0.08927006 -0.24672253 -0.1717086 0.13360678 -0.037632287 0.10621377 -0.0054769367 -0.103488594 0.101345815 0.18198447 -0.016484132 -0.25140873 0.082545586 0.17950557 -0.09004432 0.009282298 0.1488518 0.18837914 0.009455946 0.041455645 0.056502674 0.11806661 0.39315104 -0.3629874 0.20040776 -0.103871636 -0.0045625158 -0.076310135 0.18754691 -0.12020644 -0.098847374 -0.051481135 0.06795888 -0.17726266 0.058188524 -0.012628819 0.16924779 0.040012773 0.058169857 0.029564725 0.02990884 0.043593876 -0.09619651 0.013412962 -0.10281325 0.036209017 0.22172323 -0.07949056 0.0011749823 0.16282623 -0.0726462 -0.011735061 0.013183075 0.007040549 -0.16636156 0.10761407 0.030388447 -0.041356377 -0.0055974033 -0.17168395 -0.037454914 0.04663788 -0.0762734 0.10117072 0.07263206 -0.081751265 0.30938822 -0.1355005 -0.17023633 0.20578861 0.3445564 -0.123962276 0.16466993 0.11778996 0.0458399 0.07196472 0.035223097 -0.06488356 -0.18929774 0.084364794 -0.037819352 0.093366854 0.15696487 0.06544007 0.20364957 -0.054318957 -0.101698756 -0.044067398 0.16690212 -0.26193118 0.083404765 -0.13879065 -0.110347606 0.14040504 0.030318562 0.05892656 -0.14862555 0.04316096 -0.24368718 -0.026602736
해드리다 0.15576528 -0.29292446 -0.18413171 0.121606365 0.022745294 0.102107994 -0.05289185 -0.093618184 0.123251006 0.20818427 -0.023375269 -0.25819066 0.09654788 0.145138 -0.0628104 0.011284629 0.1259822 0.1488366 -0.009422748 0.013292329 0.08594005 0.12054025 0.31267753 -0.329534 0.15963231 -0.15335631 0.003972965 -0.032975454 0.15698546 -0.12071765 -0.14663932 -0.053623546 0.07791065 -0.096324675 0.10477028 -0.0074809943 0.12799576 0.04163361 0.021064004 0.078479454 -0.003077802 0.05544254 -0.1254748 -0.028531041 -0.07850626 0.035627607 0.14378116 -0.10838433 0.04307262 0.13930506 -0.06911198 0.029395541 0.015829317 0.034221005 -0.11294724 0.085783355 0.03028298 -0.073683225 -0.023257837 -0.13979582 -0.0037925844 0.020880645 -0.092086636 0.08439915 0.08618185 -0.04045045 0.265468 -0.14908612 -0.15270421 0.19354746 0.39153612 -0.10819979 0.1358529 0.068930514 0.061452214 0.06803711 0.06293854 -0.060993996 -0.15399359 0.073573366 -0.022640286 0.06638686 0.07337432 0.04087524 0.14406042 -0.07308262 -0.07347514 -0.08314878 0.161233 -0.2205859 0.077089705 -0.124815986 -0.10570483 0.11812633 0.06340058 0.019709688 -0.11190773 0.033128556 -0.17295277 -0.010793363
랑 0.14047761 -0.29833588 -0.15684645 0.15556112 0.017968688 0.11185388 -0.030205585 -0.10017362 0.13200878 0.22249281 0.0038880853 -0.27260655 0.09475262 0.187981 -0.084048666 0.015769117 0.14912662 0.17713073 0.00011080123 0.016540108 0.053444367 0.11978638 0.40072367 -0.37059352 0.17575835 -0.1433308 -0.043957613 -0.08325603 0.20740607 -0.114015676 -0.12995246 -0.0746233 0.10206224 -0.15323931 0.077372655 0.0043900656 0.16705477 0.061301015 0.0496462 0.09301558 0.028077636 0.07870279 -0.12339987 0.0034671843 -0.08307078 0.022448083 0.18495952 -0.073257156 0.041855156 0.20042315 -0.05410586 -0.0115447985 0.0045262105 0.023919987 -0.15086058 0.072422646 0.001994871 -0.010064035 -0.00594205 -0.16002002 -0.02306483 0.04805987 -0.088807195 0.083890066 0.08156435 -0.08101189 0.29348004 -0.14972316 -0.16476312 0.23044126 0.3681095 -0.080173925 0.17189094 0.07261869 0.035960298 0.09087479 0.03332058 -0.0701486 -0.1552658 0.06554962 -0.027123878 0.08006615 0.15916805 0.05554497 0.19045518 -0.062294986 -0.094994195 -0.05597373 0.15775667 -0.2663557 0.07105 -0.20740204 -0.14872117 0.15028502 0.09163521 0.011554137 -0.17179136 0.042192783 -0.25801975 -0.01609881
티 0.1528482 -0.34779033 -0.15490513 0.15045458 0.042607337 0.12575944 -0.034389533 -0.11539632 0.1480973 0.2415111 0.03959539 -0.26537025 0.104968816 0.18769312 -0.10275495 0.019838646 0.17759691 0.19115238 0.024946278 0.01755538 0.049082533 0.11543879 0.44044048 -0.38257942 0.18336667 -0.16249856 -0.031409938 -0.08926498 0.21368138 -0.098973334 -0.13181882 -0.09755295 0.10800123 -0.15041906 0.0757063 -0.006471843 0.17312631 0.048633944 0.035036426 0.10789773 0.02492205 0.07113622 -0.14002435 0.011269043 -0.080831215 0.03763745 0.17122006 -0.0842742 0.041901343 0.22327058 -0.07473373 -0.020213403 0.017613951 -0.0075339233 -0.18878277 0.07988505 0.011829244 -0.0010406997 -0.0006578403 -0.13589458 -0.024546206 0.061373994 -0.10851411 0.0988775 0.07107593 -0.08405675 0.3227547 -0.15709145 -0.16415697 0.2403291 0.36773145 -0.09452549 0.19695958 0.07687372 0.018573044 0.1034151 0.008132548 -0.079544164 -0.14980559 0.090260416 -0.015153917 0.06358354 0.1548436 0.07257727 0.1874676 -0.043092847 -0.0897615 -0.057537146 0.16737652 -0.2944105 0.068901844 -0.24690287 -0.1591873 0.13899483 0.09446298 0.04032398 -0.18366422 0.026619323 -0.30235937 -0.02300509
우유 0.15122105 -0.3250926 -0.1830706 0.17541441 -0.006481136 0.11590386 -0.031961355 -0.11549327 0.12543903 0.21609268 0.00424917 -0.28963166 0.10165965 0.18397553 -0.103115186 -0.0068085785 0.17641146 0.20678122 0.015191484 0.005637779 0.036062766 0.13539603 0.43808252 -0.39332595 0.17946938 -0.13862029 -0.019198071 -0.09849076 0.22266118 -0.11116952 -0.11342757 -0.100145735 0.09503929 -0.1598931 0.08855658 0.0023015984 0.18700445 0.05406039 0.04963149 0.06942686 0.026585177 0.0531161 -0.123605944 0.018350998 -0.07666758 0.01700483 0.1976376 -0.09016102 0.013408874 0.18540388 -0.07120444 -0.004566068 0.030633116 0.025264341 -0.20315966 0.107102215 0.006024267 -0.025253283 -0.010448976 -0.1522696 -0.03750699 0.047681097 -0.119638145 0.101212695 0.06403082 -0.09211301 0.32131237 -0.1688395 -0.18125638 0.2159086 0.3821737 -0.0876748 0.18025652 0.09197645 0.009298615 0.09330984 0.029960813 -0.08856173 -0.16604967 0.09842713 -0.024625383 0.057654064 0.16673428 0.075770736 0.21211323 -0.057585444 -0.099717356 -0.051479883 0.16558261 -0.2904673 0.07335267 -0.20822524 -0.1539315 0.1694248 0.08348987 0.035584066 -0.18719798 0.04446791 -0.284581 -0.03550612
걸 0.118119806 -0.34529096 -0.0208862 0.08993912 0.22401677 0.22478819 -0.075557195 0.0042056716 0.13652068 0.3657998 0.058707006 -0.28159326 0.08368243 0.11352946 -0.01870746 0.14862235 0.08966112 0.051013604 -0.09595557 0.05272491 0.12561403 0.03222585 0.30131748 -0.33658302 0.21565866 -0.28355825 -0.12138953 0.0611416 0.22622927 -0.12814467 -0.1948767 -0.02009504 0.15806973 -0.035012 0.049925767 -0.04672421 0.17351864 0.065109536 -0.051894274 0.15273283 -0.014358951 0.103228815 -0.20737126 -0.17778763 -0.12740129 0.10695116 0.11811332 -0.16019104 0.16282843 0.2371213 0.014098645 0.018063221 -0.066394955 -0.025012497 -0.028303858 -0.12018368 0.060141817 0.07043971 0.026215758 -0.15989898 0.05428845 -0.019351827 0.06782874 0.05267781 0.058836397 -0.1300368 0.1272213 -0.025412755 -0.14932056 0.27783823 0.30057272 -0.1364924 0.16792516 -0.03807786 0.13102275 0.14125189 -0.051089175 -0.09125646 -0.063466735 -0.032941274 -0.0019462315 0.039582305 0.19616199 0.0039441288 0.090065606 0.08191414 -0.1181779 -0.033103947 0.19176164 -0.2409138 -0.017426776 -0.34158212 -0.14808872 0.14684112 0.18818054 -0.13875575 -0.18338838 0.07510361 -0.2221885 0.0067824866
돼다 0.1555706 -0.30781874 -0.21135409 0.15225604 0.021034488 0.11033036 -0.03807132 -0.11324764 0.11529585 0.21846017 -0.017382495 -0.27156988 0.097853325 0.17872539 -0.05945021 0.007598558 0.14294344 0.17626184 -0.01527696 0.017478235 0.07867535 0.13970909 0.36742184 -0.35480592 0.1649575 -0.14050604 -0.0045206975 -0.06359175 0.18425192 -0.11441295 -0.1352933 -0.061824866 0.090626605 -0.12827966 0.10550626 0.002880275 0.15028933 0.038125638 0.042843655 0.0724759 -0.0056689675 0.06773841 -0.11490849 -0.011006061 -0.07767896 0.011884046 0.1661715 -0.107291505 0.029609486 0.15797153 -0.056322105 0.025095768 0.02773606 0.038007915 -0.15384072 0.1016683 0.015829694 -0.073832326 -0.022491788 -0.15817592 -0.01966644 0.038973417 -0.106562875 0.101074696 0.093478225 -0.066438 0.29689282 -0.16795549 -0.170686 0.1962359 0.41651174 -0.10968516 0.1382834 0.09059052 0.04516399 0.08002236 0.06078552 -0.059343077 -0.16891204 0.09480814 -0.01382825 0.068370536 0.09725279 0.03697515 0.16931443 -0.095733814 -0.08779347 -0.08184076 0.1604823 -0.24288239 0.0867609 -0.15287498 -0.11946552 0.14385074 0.06436141 0.030802315 -0.14096205 0.05191686 -0.20590436 -0.009034913
개 0.101879016 -0.25684035 -0.1734598 0.17178184 -0.014068809 0.13490441 -0.0188529 -0.121006764 0.11543161 0.19290997 -0.017286327 -0.27627206 0.07152524 0.16770433 -0.08765767 -0.00047476043 0.14380795 0.1735143 -0.0005147606 0.038581744 0.093405075 0.10618192 0.39619824 -0.37803513 0.21331018 -0.11864634 -0.023731356 -0.06539915 0.18672156 -0.12531565 -0.13259241 -0.058681075 0.06562196 -0.15622328 0.070526145 0.011423286 0.18335591 0.045521747 0.045964796 0.028626895 0.02231719 0.056394547 -0.12299839 -0.0067798244 -0.10957184 0.02214355 0.2276585 -0.090465605 0.025681684 0.1456851 -0.080387376 -0.008828795 -0.0033517967 0.037805486 -0.13785924 0.10132016 0.024375988 -0.034883857 -0.027774904 -0.19831966 -0.032349244 0.04035618 -0.094670035 0.12538022 0.09542179 -0.07457394 0.30255353 -0.14709507 -0.16062802 0.19786072 0.3871965 -0.14148119 0.17778577 0.12086864 0.079971656 0.07765951 0.015510349 -0.057392273 -0.20172761 0.080335505 -0.043436363 0.087988354 0.14957532 0.068387315 0.19680086 -0.08503534 -0.10210378 -0.050936945 0.171844 -0.27008498 0.10055278 -0.13378005 -0.13973469 0.14150795 0.018131435 0.040382788 -0.14645219 0.047709413 -0.23695874 -0.013214285
더 0.16128391 -0.2925297 -0.19930206 0.15247871 0.022199163 0.11247262 -0.046015166 -0.13408436 0.11026957 0.21323599 -0.025367284 -0.2676852 0.122382686 0.16609676 -0.087237895 0.011843995 0.13804823 0.16738181 -0.008609395 0.01746049 0.044794645 0.12997055 0.35711145 -0.35067546 0.14520109 -0.1437863 -0.018788533 -0.044372898 0.19339252 -0.11344377 -0.1656771 -0.08376912 0.07749684 -0.12978417 0.11757698 -0.008939184 0.18677121 0.049292345 0.057237633 0.0634896 0.004792534 0.047389165 -0.12818785 -0.01865663 -0.06904929 -0.006453576 0.17077258 -0.0796628 0.011444356 0.15074444 -0.07658785 0.017070599 0.015260908 0.02687929 -0.17583206 0.076316975 0.004300393 -0.06162542 0.0018931217 -0.16689149 -0.020751512 0.026860202 -0.08806471 0.108853035 0.08023526 -0.06359408 0.27881822 -0.15021662 -0.16526815 0.17238893 0.41991374 -0.08639456 0.14686653 0.063757665 0.055324007 0.09069844 0.050173346 -0.0648888 -0.13916655 0.075344145 0.013414355 0.062433667 0.11225784 0.05089398 0.19592375 -0.09057516 -0.0955826 -0.067527264 0.13771068 -0.26353496 0.09639052 -0.1560368 -0.15482874 0.1442613 0.05900243 0.015519644 -0.15626109 0.056333687 -0.22438388 0.014188897
그렇다 0.13996027 -0.30317968 -0.19096528 0.152037 0.018005101 0.11756608 -0.04011163 -0.11916921 0.118729964 0.22145362 -0.010642916 -0.2668007 0.09769403 0.17950256 -0.07769467 0.005274662 0.14210784 0.17359295 -0.0071461983 0.01615 0.0625933 0.121659584 0.36722326 -0.3573598 0.1774586 -0.1427922 -0.019232944 -0.07069377 0.18935555 -0.11681802 -0.14018522 -0.068210855 0.09076722 -0.1423227 0.09291264 -0.0024481209 0.1630414 0.05023753 0.044873737 0.07664673 0.006364355 0.05880719 -0.11635342 -0.009486984 -0.08963253 0.016906576 0.16652781 -0.09363062 0.031971525 0.15972151 -0.06972635 -0.0019204677 0.019104032 0.026549656 -0.1532378 0.091241576 0.018917784 -0.046471514 -0.021178273 -0.16054897 -0.022159295 0.042624287 -0.09981359 0.10322553 0.08464632 -0.06451567 0.2897537 -0.15850808 -0.15572168 0.20577908 0.38343108 -0.10078257 0.16158623 0.08336942 0.04242093 0.08574341 0.04238005 -0.064371325 -0.16398981 0.08652929 -0.018437112 0.07766911 0.122433625 0.052649584 0.1758006 -0.080378 -0.09310912 -0.06578896 0.15852445 -0.26270732 0.08074575 -0.16718182 -0.13458128 0.13290626 0.0714946 0.011639897 -0.14599611 0.041379724 -0.23011975 -0.0064952006
얼마 0.117230475 -0.2693809 -0.18899065 0.13662758 0.014989937 0.09344658 0.0044506607 -0.11699473 0.11446771 0.22520538 -0.008644216 -0.24659178 0.084199786 0.18429369 -0.09001918 0.00025913358 0.15604967 0.16179173 0.019892167 0.02345056 0.041073952 0.12156174 0.3921094 -0.3309444 0.17630714 -0.11150485 -0.029344853 -0.074688785 0.17680667 -0.10269151 -0.11019989 -0.06440151 0.08153023 -0.13771814 0.083954655 0.024930397 0.14166275 0.05668238 0.07810635 0.05557485 0.026412783 0.06251457 -0.11224192 0.021790436 -0.094920464 -0.0056536053 0.17410311 -0.07308031 0.019992063 0.15453583 -0.07472518 -0.009173139 0.012785757 -0.0032426107 -0.15240669 0.076551594 0.02475699 -0.026264807 -0.041091964 -0.16116184 -0.025254698 0.04446473 -0.10060637 0.095112726 0.09314715 -0.043919303 0.29636222 -0.16414045 -0.14711663 0.19974849 0.36248925 -0.112837136 0.15176104 0.072807275 0.008433361 0.09065113 0.056164414 -0.05071112 -0.14765923 0.064836934 -0.023361217 0.0894056 0.12096847 0.037516136 0.15960547 -0.062236156 -0.09935102 -0.08934966 0.14331877 -0.24176458 0.071990415 -0.18610448 -0.12054828 0.093981735 0.06669554 0.034666277 -0.16595986 0.034370124 -0.2662939 -0.03239004
테이크아웃 0.15531607 -0.2848132 -0.20067723 0.13395761 0.02750199 0.11489008 -0.032927405 -0.10773985 0.11695451 0.22102217 -0.028815303 -0.25498763 0.10320282 0.15779343 -0.06479415 0.015127154 0.12693924 0.16434842 -0.012653868 0.019004911 0.07795732 0.1252913 0.3373147 -0.33188725 0.1572265 -0.13224523 0.0011046452 -0.057671487 0.17022781 -0.11381016 -0.12784691 -0.056380145 0.077367574 -0.12412106 0.09798384 -0.0007524305 0.15203457 0.047115956 0.04536744 0.07807678 -0.0073939255 0.06221479 -0.11538026 -0.019999634 -0.082738675 0.010230533 0.15713148 -0.09329395 0.026777014 0.13599259 -0.06551185 0.020851342 0.022326713 0.025765153 -0.1404131 0.093575105 0.023444602 -0.06548585 -0.03246795 -0.15005644 -0.021247445 0.027806723 -0.09858746 0.09404647 0.088675104 -0.06019894 0.27591828 -0.15029702 -0.16334993 0.17435625 0.39802864 -0.106435455 0.124818206 0.09749022 0.057263546 0.07578763 0.05719723 -0.06679 -0.1489603 0.07358518 -0.015332061 0.0752698 0.09939859 0.035367303 0.1628524 -0.08180236 -0.08950033 -0.07099161 0.15563764 -0.23732983 0.07942772 -0.13090487 -0.11070499 0.12602426 0.06766596 0.014434843 -0.12793845 0.05391899 -0.18928213 0.0008822997
케이크 0.15989208 -0.30858105 -0.18883944 0.14647225 0.0055460874 0.099528044 -0.02617164 -0.110380575 0.12868656 0.22915244 -0.019359658 -0.29163575 0.10577139 0.1757725 -0.08321506 0.0017445129 0.14019927 0.17085128 -0.009277256 0.0024294036 0.070276685 0.13733779 0.39429823 -0.34885463 0.16744603 -0.15155342 -0.041137066 -0.08942291 0.19750877 -0.121956326 -0.13046925 -0.079368174 0.11229746 -0.13485411 0.090587884 0.009044646 0.18476759 0.058508284 0.061058246 0.09608103 0.018224837 0.0733096 -0.12553637 0.011168477 -0.07863958 0.002808604 0.18481183 -0.08946461 0.039429918 0.18792334 -0.054645423 -0.025212113 0.011566949 0.04539278 -0.1384939 0.091250144 0.004386775 -0.042932354 -0.039662104 -0.16465351 -0.02678443 0.04902852 -0.096029006 0.10933723 0.10087939 -0.07028141 0.30651674 -0.15549263 -0.15326044 0.22092555 0.40164143 -0.09357929 0.1754103 0.07646948 0.02854132 0.086174026 0.037768003 -0.06474505 -0.17305662 0.08171506 -0.026067035 0.10287967 0.14211835 0.053211577 0.17961599 -0.082246356 -0.09512318 -0.0732739 0.14412853 -0.25693354 0.06592786 -0.1853352 -0.14092384 0.12714934 0.085634574 -0.0038942012 -0.1574618 0.05198014 -0.23528585 0.0013583397
쿠폰 0.16221619 -0.28796002 -0.18833272 0.1397625 0.04055806 0.1158603 -0.05379309 -0.111866504 0.12450226 0.22193113 -0.013625068 -0.259234 0.093891904 0.17297812 -0.04221894 0.027058756 0.13193646 0.14212345 -0.04090036 0.026270788 0.10301869 0.123361915 0.34648272 -0.3470749 0.16453594 -0.15472825 -0.0021956249 -0.03736407 0.18466835 -0.11916258 -0.14948766 -0.05043506 0.08277302 -0.117527 0.107826434 -0.0017259908 0.16431509 0.03900496 0.03601628 0.069037154 -0.013352743 0.071740955 -0.12350794 -0.04340403 -0.0918787 0.022543442 0.16707098 -0.11295751 0.05686478 0.16095763 -0.037736025 0.029077426 0.0032863151 0.039328087 -0.12007515 0.0685643 0.038165424 -0.0716911 -0.023103936 -0.16817887 -0.016995117 0.015411144 -0.08012627 0.09636119 0.10113336 -0.07317909 0.25965342 -0.13803469 -0.16240041 0.18760724 0.39500317 -0.121524416 0.12198546 0.08555763 0.06801579 0.09112649 0.04444519 -0.070891865 -0.15684865 0.06683055 -0.017924085 0.0768006 0.10802175 0.032835938 0.15291275 -0.07955984 -0.09439471 -0.07734779 0.1654082 -0.23513405 0.07253722 -0.1527012 -0.1275258 0.13698006 0.079721004 -0.0071999063 -0.14016643 0.06131397 -0.19399875 0.0015974697
아니다 0.1493659 -0.29690826 -0.20812628 0.15213692 0.019869259 0.1076532 -0.0342065 -0.11417915 0.11823325 0.22244602 -0.018806627 -0.27570683 0.10829104 0.17992276 -0.07369404 0.014142849 0.14756538 0.1730769 -0.011000088 0.01661126 0.07111651 0.13538955 0.36496884 -0.35550392 0.16215795 -0.1393145 -0.0069425968 -0.06893631 0.18986462 -0.11167203 -0.13582322 -0.07121328 0.081447996 -0.12269442 0.09675914 0.004494626 0.16212668 0.044881284 0.047817647 0.08230231 0.005078848 0.06981609 -0.1123889 -0.012038677 -0.08449741 0.010817673 0.1634848 -0.09266719 0.04224769 0.16130173 -0.06705179 0.021570137 0.019295882 0.035925176 -0.15443283 0.081295885 0.01550078 -0.061770186 -0.02024646 -0.15349337 -0.024747627 0.039977584 -0.09847036 0.088502385 0.09236407 -0.056132544 0.30073774 -0.15791714 -0.15823475 0.18918248 0.3966434 -0.09922673 0.14412655 0.08335026 0.0483977 0.08967407 0.05619535 -0.07693398 -0.16684143 0.08574676 -0.01262232 0.07762518 0.11758635 0.03928615 0.16556513 -0.08525954 -0.09024015 -0.074321255 0.147078 -0.25095427 0.083786555 -0.16970514 -0.12655194 0.14068586 0.071373396 0.012057984 -0.15631048 0.053133722 -0.22401802 0.00020236948
주다 0.15087423 -0.31193346 -0.19231772 0.16474102 0.023459226 0.121001504 -0.04246311 -0.118783906 0.120027624 0.23390713 -0.0007260207 -0.2697713 0.09394056 0.17640808 -0.084053926 0.0064908913 0.15091471 0.17391957 0.00014067962 0.020288909 0.06854706 0.1254113 0.38616455 -0.37634224 0.17756055 -0.14297813 -0.023982244 -0.06603454 0.19622992 -0.11905816 -0.13839877 -0.06716344 0.09036141 -0.14575273 0.094071716 5.621906e-05 0.16513371 0.04870403 0.04200399 0.077802636 0.012925911 0.06295038 -0.1307428 -0.005031023 -0.09010046 0.017327093 0.18349105 -0.09049229 0.03316432 0.17788742 -0.05749893 0.012316693 0.010584264 0.02185539 -0.1601177 0.078915484 0.020111276 -0.038968787 -0.005685026 -0.16027428 -0.024369847 0.041733317 -0.09870785 0.09307224 0.084594406 -0.07043565 0.2918781 -0.15707158 -0.17176355 0.20739022 0.4013072 -0.10108696 0.16732284 0.084617995 0.046360523 0.093191065 0.034264185 -0.071837164 -0.15691343 0.07119769 -0.02106039 0.0787014 0.13424638 0.045781627 0.18565714 -0.07056275 -0.094643645 -0.06586472 0.15719958 -0.26273566 0.07900729 -0.18152164 -0.13724843 0.1409207 0.071479104 0.013942172 -0.15973152 0.054587953 -0.24314708 -0.017664388
갈다 0.16318466 -0.2853407 -0.23618129 0.154697 0.0047794674 0.08720091 -0.00840503 -0.103826806 0.13053414 0.23074014 -0.038436443 -0.26336688 0.11928105 0.19330598 -0.06295996 -0.0015323978 0.1396456 0.16845416 -0.007365546 -0.0037841552 0.08764502 0.1361078 0.37806574 -0.33262658 0.14114955 -0.13628183 0.012333889 -0.09437617 0.17827468 -0.11397685 -0.13838284 -0.06550369 0.051532023 -0.102735825 0.08860553 -0.0061701746 0.12531197 0.037422232 0.04229136 0.07223875 -0.0069497703 0.06821021 -0.096313246 0.0067190626 -0.09774287 -0.01825381 0.16386335 -0.08440166 0.042475574 0.15198813 -0.08361935 0.020396596 0.018039627 0.053606305 -0.16772108 0.08266123 -0.012751532 -0.07387031 -0.032097314 -0.13732097 -0.030299334 0.036500126 -0.1152769 0.07424751 0.08044326 -0.034960017 0.29728064 -0.1481507 -0.16241351 0.17891301 0.412844 -0.12229834 0.12905157 0.07595746 0.067941256 0.09281638 0.084685415 -0.05765581 -0.15637228 0.07455966 0.010279016 0.084640525 0.10549315 0.023658058 0.13737254 -0.10648822 -0.09980863 -0.099667534 0.16740139 -0.22241932 0.070761405 -0.1756457 -0.09367944 0.12116417 0.059205815 0.030020842 -0.16360562 0.05900038 -0.19007601 0.0040071276
다 0.16056079 -0.31495246 -0.20753203 0.1448778 0.02118054 0.115078494 -0.047116194 -0.11035568 0.13452844 0.23894112 -0.01433583 -0.2892249 0.10124041 0.17969432 -0.06930938 0.008490981 0.14179285 0.15875605 -0.019898223 0.02352883 0.08624088 0.12779629 0.3801884 -0.35683793 0.16537945 -0.14863986 -0.015013194 -0.05767647 0.19401088 -0.12597671 -0.1399946 -0.062178742 0.08741114 -0.119376376 0.104367815 0.0047498657 0.16731253 0.045741655 0.046308722 0.0927924 -0.00707069 0.06598186 -0.12626019 -0.016440254 -0.08957102 0.011888095 0.16568203 -0.09990212 0.04273129 0.17018521 -0.06795979 0.023401933 0.009411546 0.047218952 -0.13987325 0.09067579 0.017073521 -0.055417225 -0.025870448 -0.15704459 -0.02537664 0.026710866 -0.10201851 0.089689955 0.10152833 -0.06988732 0.30071974 -0.16312888 -0.17007989 0.20943345 0.40063173 -0.10960439 0.15329613 0.091905415 0.058650374 0.08810912 0.048981138 -0.067556545 -0.15972452 0.08100273 -0.02717581 0.07925738 0.11729935 0.033301912 0.17294721 -0.082864694 -0.10186576 -0.085910164 0.16615976 -0.25270167 0.08478182 -0.17397448 -0.1272103 0.13267897 0.07131823 0.0009978978 -0.16118261 0.06468198 -0.2157728 -0.002671423
먹다 0.15067016 -0.28977615 -0.20453075 0.1506566 0.012587636 0.113022976 -0.03289686 -0.1066574 0.11153326 0.24184316 -0.021332778 -0.27155685 0.10868592 0.17623535 -0.05528533 0.007753605 0.13362151 0.16488953 -0.023745166 0.01613481 0.09930911 0.14707191 0.36480623 -0.3342132 0.15598252 -0.14381756 -0.0037565476 -0.07365651 0.1695975 -0.093906894 -0.11835508 -0.06281739 0.06756161 -0.102340646 0.100515716 0.008200705 0.1423647 0.038682204 0.06402293 0.076161 0.0015503034 0.07198476 -0.10742836 0.0020482389 -0.09431077 -0.0051094336 0.15913229 -0.08502253 0.048341624 0.1629346 -0.07656808 0.034940045 0.015877655 0.04922691 -0.15813687 0.086800106 0.0042679133 -0.058624975 -0.020840267 -0.14566115 -0.037147604 0.044244114 -0.1068239 0.068942964 0.08849368 -0.054278344 0.30815575 -0.15783757 -0.16602108 0.18266635 0.4106717 -0.10257648 0.15257716 0.089937314 0.046786822 0.08065959 0.07099402 -0.080984086 -0.15964139 0.074650735 -0.013533472 0.07355907 0.11811654 0.036308542 0.15890287 -0.09859642 -0.089429766 -0.08693919 0.15521453 -0.22857797 0.07704371 -0.17662948 -0.10622798 0.1298182 0.054030053 0.014371127 -0.15803318 0.056880347 -0.20254442 0.0028256755
인가요 0.14529175 -0.30091825 -0.2087463 0.15729661 -0.004087023 0.13161185 -0.03745062 -0.12431273 0.13480107 0.23793837 -0.025092002 -0.27666104 0.097897135 0.1955497 -0.07674276 0.0060127457 0.14497851 0.18666095 0.0021164212 0.024257837 0.06483679 0.1281199 0.40088734 -0.38575354 0.17331767 -0.14216132 -0.017520683 -0.07965286 0.18914661 -0.10982703 -0.13641007 -0.07638168 0.091921076 -0.15889734 0.09613089 -0.0021366584 0.18236557 0.055353142 0.057568237 0.05847125 0.022757242 0.06755958 -0.11705361 -0.00785993 -0.08223006 0.0044669886 0.18098003 -0.07692907 0.039707545 0.17554557 -0.073991716 -0.00067719084 0.021978015 0.021380536 -0.14335087 0.10279708 0.013215093 -0.056803692 -0.03732439 -0.17450632 -0.026433112 0.06237721 -0.108211316 0.08957457 0.08405958 -0.09097085 0.325075 -0.15863192 -0.16112854 0.19800065 0.3894803 -0.08644996 0.16279972 0.083791815 0.040161803 0.082565255 0.047913454 -0.0703533 -0.17814298 0.09363115 -0.009638051 0.088703185 0.12442566 0.053406183 0.19719173 -0.06236758 -0.10993803 -0.06986446 0.16948916 -0.2661396 0.07692172 -0.17369436 -0.14537434 0.15506911 0.059642393 0.024455085 -0.16453323 0.033031963 -0.23395506 -0.008700805
시 0.098214984 -0.21995549 -0.2769642 0.0789606 -0.11351752 0.14410941 0.105937354 -0.030933425 0.15223287 0.27271518 0.016808346 -0.3943598 0.013635845 0.18286912 -0.10201726 -0.09668921 0.08715095 0.14461802 -0.038621485 -0.017116904 0.18881334 0.22293672 0.4633482 -0.35516995 0.2978737 0.014103337 0.12672804 -0.08260091 0.24345212 -0.15021521 -0.050605148 0.02312845 0.10119444 -0.21793544 0.095640495 0.087451145 0.16446665 0.0073121297 0.09494489 -0.049867567 0.010274493 0.046490334 -0.060443573 0.08934525 -0.15149063 0.032524873 0.2770559 -0.14199185 -0.025652977 0.15619111 -0.035417635 0.10896624 0.041316867 0.07019058 -0.16664696 0.24810676 0.05309552 -0.17712498 -0.013443906 -0.29790866 -0.0340542 0.07698067 -0.08811592 0.1514802 0.13936904 -0.14812465 0.39670083 -0.13221133 -0.23338054 0.18952206 0.48584995 -0.2769873 0.08337391 0.19146304 0.15966126 0.028526332 0.039442226 -0.014680301 -0.3110353 0.123947494 -0.012933568 0.16217464 0.21144031 0.053164575 0.26669437 -0.13733636 -0.1888662 -0.17882834 0.2495751 -0.2497327 0.10990179 -0.017574657 -0.13872817 0.10755748 -0.12029924 0.057684388 -0.2520743 0.027081594 -0.18570194 -0.05868848
만들다 0.15573101 -0.30953467 -0.19643278 0.14641826 0.026800158 0.12261404 -0.036834035 -0.10916676 0.117067546 0.24466497 -0.011404934 -0.26925486 0.09984104 0.18121167 -0.0621905 0.0135620525 0.1295086 0.16370204 -0.030340161 0.028480174 0.09335553 0.12528461 0.3665365 -0.3556496 0.15883636 -0.15799397 -0.015122415 -0.061920445 0.19132173 -0.114228666 -0.1421727 -0.06178867 0.07962739 -0.1082975 0.11018 0.008990946 0.15183912 0.05251714 0.05156509 0.09675731 0.0053953175 0.08480905 -0.11694738 -0.015661277 -0.09416119 0.00891753 0.16085528 -0.087459594 0.055497695 0.16537014 -0.06384021 0.025019381 0.005843923 0.038858138 -0.13864718 0.08124451 0.0115307225 -0.05504718 -0.01577193 -0.15877995 -0.0339719 0.040744044 -0.10046812 0.075381435 0.082864046 -0.067044675 0.2812253 -0.1610205 -0.15288691 0.20515817 0.40709442 -0.102635294 0.14980663 0.0748666 0.050928257 0.0977149 0.05982906 -0.08153903 -0.14659591 0.07464337 -0.015555852 0.06525054 0.12877427 0.03559444 0.15883175 -0.086860575 -0.086432695 -0.08033937 0.16060446 -0.23980398 0.081597224 -0.17871878 -0.1244003 0.12951593 0.08779327 0.002734164 -0.15860112 0.06662937 -0.21130699 0.0033343374
몇 0.11591575 -0.22617905 -0.2498907 0.123194925 -0.060640045 0.13898084 0.06354716 -0.0648828 0.14360918 0.2830512 -0.010132339 -0.33265904 0.03803978 0.17761661 -0.09642578 -0.06310042 0.10003337 0.12686388 -0.044827227 0.01799807 0.16972056 0.18135795 0.43771204 -0.36326793 0.2340881 -0.030184878 0.08012556 -0.07093521 0.245276 -0.13240631 -0.08413801 -0.010673578 0.1000219 -0.19867267 0.100342825 0.07977142 0.1589023 0.035799127 0.075255446 -0.013933049 0.02689734 0.06548452 -0.08513307 0.051104337 -0.13860309 0.0011066821 0.24054678 -0.12023786 -0.0038263265 0.15448299 -0.019116586 0.061907213 -0.02457147 0.032809444 -0.1288195 0.1842802 0.061935984 -0.15286236 0.0066056373 -0.24398108 -0.033953242 0.047708094 -0.11513533 0.10188748 0.10804391 -0.13293393 0.36709666 -0.119155906 -0.20860165 0.22937465 0.4407605 -0.23296697 0.10434554 0.1902672 0.14088601 0.066035055 0.02912303 -0.038262654 -0.27285492 0.107607186 -0.039134856 0.11414602 0.17305204 0.046281304 0.21992917 -0.14359948 -0.16103807 -0.1499249 0.24027911 -0.26799795 0.101199895 -0.062153958 -0.13399722 0.1308627 -0.07113597 0.029374717 -0.23857503 0.016882224 -0.20190506 -0.046238985
밀크 0.1331539 -0.32437122 -0.15672657 0.18033998 0.0029373427 0.14080079 -0.040296383 -0.095757164 0.14163451 0.21614529 0.03204228 -0.25805825 0.12086535 0.18884243 -0.10681449 0.011165111 0.20222007 0.22806872 0.029761728 -8.071511e-07 0.046436913 0.13473026 0.46206135 -0.39236653 0.19174728 -0.12215805 -0.03390417 -0.07651476 0.24381326 -0.11572372 -0.09756715 -0.10237903 0.10347708 -0.17511591 0.097665735 -0.005889404 0.1745402 0.08382833 0.059067298 0.071630724 0.035079863 0.064147554 -0.12980567 0.020186706 -0.08563346 0.035222504 0.17148533 -0.07254294 0.036925875 0.19644816 -0.048937567 0.0031515844 0.027844653 0.0036203694 -0.22076161 0.09043817 0.008617099 -0.008919933 0.0022636666 -0.15094545 -0.024969535 0.047548372 -0.11444625 0.08873931 0.044753507 -0.119210385 0.34316793 -0.15022783 -0.18219987 0.24145278 0.37532696 -0.08852737 0.20987152 0.06571047 -0.0015470311 0.10009478 -0.0017649077 -0.10125781 -0.18799242 0.08730468 -0.04212607 0.064618595 0.18750967 0.09604363 0.20653161 -0.012587365 -0.13067357 -0.041244473 0.145703 -0.30007067 0.050195474 -0.24111342 -0.1376147 0.18115625 0.07746178 0.078980476 -0.19692637 0.027919948 -0.3169861 -0.059118748
종류 0.15733004 -0.3026206 -0.18818435 0.1529873 0.020160167 0.118532024 -0.03797744 -0.11030667 0.13041833 0.23482424 -0.0009066579 -0.28328657 0.10854863 0.17477594 -0.08563226 0.021458786 0.14716643 0.17621665 -0.02380934 0.017241431 0.0832551 0.1204871 0.4068018 -0.3677343 0.17781869 -0.14138214 -0.014933773 -0.070965536 0.18938744 -0.124269396 -0.1353556 -0.07025424 0.08630531 -0.12558767 0.090637505 -0.00091425306 0.17320971 0.05710692 0.058904752 0.084402695 0.014636049 0.0664343 -0.122419104 -0.012971352 -0.0831457 0.015656168 0.16707236 -0.08751627 0.05070427 0.19148146 -0.055539086 -0.0010731298 0.01737953 0.034763865 -0.1608929 0.08408511 0.006659677 -0.037009545 -0.0059140017 -0.15239736 -0.025284411 0.038964156 -0.094154045 0.09873005 0.08507948 -0.07612912 0.29805607 -0.16167216 -0.15641266 0.22348362 0.3971549 -0.09777194 0.15194899 0.08245093 0.038190287 0.084615625 0.04506533 -0.06935808 -0.17242244 0.07422261 -0.021498522 0.07093301 0.13852766 0.049128335 0.1618592 -0.06775417 -0.10109752 -0.079696044 0.16341203 -0.24957708 0.07833282 -0.19417568 -0.14013018 0.15474169 0.08888526 0.012786479 -0.18472138 0.05612502 -0.23621209 -0.003769535
에서 0.16689937 -0.2881196 -0.24034695 0.16198951 0.0012437784 0.097791284 -0.0161017 -0.0973203 0.13640198 0.24068567 -0.03691076 -0.30309647 0.11688796 0.19937575 -0.07990761 -0.009040346 0.13249902 0.18626522 -0.018216347 0.0053347 0.12665077 0.16234663 0.3870352 -0.35119352 0.1645642 -0.1213052 0.041356042 -0.100290306 0.18627042 -0.10546018 -0.12799625 -0.050317615 0.07435875 -0.12117204 0.11421223 0.021651305 0.14685497 0.03522132 0.058153935 0.056686003 -0.006967532 0.07630113 -0.10765146 0.023397317 -0.11398585 -0.02102096 0.176979 -0.09965161 0.028385134 0.17172444 -0.05381949 0.033516843 0.022324868 0.06389769 -0.1782343 0.13863131 0.020893553 -0.117296405 -0.014815002 -0.1676691 -0.043597274 0.06284646 -0.11926971 0.07589389 0.11056162 -0.07679396 0.3290247 -0.15954028 -0.18821901 0.18020304 0.4529281 -0.13807106 0.12009901 0.11413584 0.06567315 0.078976355 0.08206736 -0.07574755 -0.20726694 0.08930555 -0.0086972825 0.08455697 0.12441515 0.038113017 0.18365209 -0.11803226 -0.10497139 -0.12580921 0.1912671 -0.2274275 0.0887484 -0.14885272 -0.10022409 0.13358584 0.029929526 0.02851414 -0.18339694 0.058767732 -0.18282102 -0.008413088
바닐라 0.116709106 -0.31041938 -0.1498797 0.1690493 0.027014278 0.108547136 -0.023071425 -0.10295555 0.12233281 0.24586372 0.017943341 -0.27921987 0.10896927 0.18208654 -0.10549085 0.00742814 0.16098392 0.20852174 0.029265547 0.021012152 0.021746317 0.10692664 0.43071032 -0.40777165 0.18459001 -0.14336878 -0.053710643 -0.08586312 0.2313697 -0.11112878 -0.13407996 -0.1015347 0.10228987 -0.17231311 0.07433943 -0.007988453 0.1852828 0.053834897 0.050489042 0.075185776 0.0398201 0.074974544 -0.14269783 0.017772395 -0.07945861 0.039161325 0.19366683 -0.08264101 0.022647198 0.2036104 -0.05904716 -0.008653255 0.023901884 0.0020178684 -0.17805049 0.07235109 -0.0013548757 -0.021875465 0.007814445 -0.16082565 -0.04197384 0.07016519 -0.08979155 0.09462486 0.052832656 -0.098266825 0.3191725 -0.16922145 -0.176699 0.22748792 0.36597666 -0.07095042 0.18692419 0.07119267 0.011775303 0.10298665 0.0292572 -0.071413055 -0.17181768 0.07252793 -0.015473021 0.07033296 0.1785206 0.06950954 0.21647066 -0.043125935 -0.1026073 -0.05650858 0.16227825 -0.3044435 0.057528492 -0.23029846 -0.1577747 0.17005177 0.10433688 0.035397574 -0.16788284 0.04463985 -0.28747755 -0.03312338
많이 0.15462293 -0.29247612 -0.20429301 0.15785293 0.0023706679 0.11506997 -0.024220938 -0.12070419 0.11991353 0.2187038 -0.007208895 -0.28813463 0.10325741 0.17980596 -0.08830304 0.00037032418 0.15582772 0.17468345 -0.0042696483 0.01993026 0.08050099 0.12325798 0.39978316 -0.3602112 0.16822875 -0.13862532 -0.015170251 -0.08130293 0.20049612 -0.124628924 -0.12728667 -0.07389873 0.09115924 -0.13342376 0.09852701 0.01041844 0.1639494 0.048307348 0.049108945 0.08154561 0.013646473 0.063797124 -0.11464232 0.0027361882 -0.08304601 0.0051061693 0.18345131 -0.08017954 0.032733507 0.16647588 -0.066037916 0.009157244 0.024237214 0.042112384 -0.16881314 0.09085865 -0.0020186382 -0.04968757 -0.023964407 -0.15554442 -0.03216214 0.04150442 -0.11815422 0.1035891 0.08979401 -0.071106054 0.3065304 -0.17585994 -0.15875679 0.19257405 0.40107894 -0.091689035 0.16652735 0.07524938 0.03556463 0.080285706 0.056843724 -0.06599257 -0.17448762 0.08555311 -0.016029548 0.07312155 0.13357812 0.047683295 0.17808042 -0.087694265 -0.095816255 -0.07282728 0.15710561 -0.26513186 0.0824545 -0.16987868 -0.13914299 0.15027231 0.06423665 0.023682522 -0.17124052 0.053538375 -0.24481937 -0.007070636
포인트 0.16684084 -0.28903666 -0.22820537 0.12681982 0.02628778 0.10392368 -0.0587458 -0.12287283 0.10948603 0.2019497 -0.03589191 -0.2558308 0.10169664 0.16839547 -0.045073755 0.0043219635 0.14038841 0.14587069 -0.013524413 0.016683357 0.10375128 0.1391115 0.32555795 -0.33498272 0.14837791 -0.15081355 0.016345635 -0.045150895 0.17850067 -0.1078484 -0.13966064 -0.05285777 0.0802998 -0.09640971 0.12988007 0.012137982 0.1362543 0.035987433 0.04223312 0.07972862 -0.037707135 0.06127788 -0.112559564 -0.037808325 -0.07998194 0.011121422 0.14831123 -0.117210574 0.036417246 0.13955484 -0.049589653 0.06707232 0.024216423 0.052204326 -0.11415397 0.10009303 0.024852142 -0.10000031 -0.016142985 -0.14482479 -0.024657704 0.023428475 -0.10536676 0.105368406 0.10172561 -0.056866195 0.2552917 -0.16102844 -0.16623138 0.16054177 0.41046867 -0.11582489 0.10273016 0.110509016 0.031897526 0.060120244 0.06276935 -0.07140461 -0.16880333 0.0997007 -0.0119064385 0.05216718 0.06254388 0.029750977 0.15370212 -0.09670248 -0.0739679 -0.10688482 0.16273798 -0.22664271 0.1049742 -0.10153942 -0.11407409 0.13340531 0.07225705 0.031079115 -0.101207875 0.06002612 -0.18031485 0.0075971573
라테 0.12646145 -0.29616326 -0.1637459 0.16078033 0.02941813 0.12847263 -0.026293676 -0.106778055 0.13858333 0.23770429 0.0068193986 -0.26658666 0.10255272 0.18799284 -0.09455961 0.030021323 0.15983437 0.1847284 -0.007068354 0.014554214 0.044405647 0.10166904 0.38677967 -0.37306273 0.1890776 -0.15033725 -0.043363135 -0.086340345 0.21459238 -0.12099996 -0.13690431 -0.077420674 0.09111582 -0.16227902 0.06970323 0.003832886 0.18312187 0.06454412 0.046754576 0.079938784 0.033294007 0.080822095 -0.13489519 -0.0078647835 -0.09433335 0.03365635 0.1701515 -0.07971941 0.03243853 0.1890019 -0.06038932 -0.005756302 -0.0031818738 -0.0059158453 -0.15509865 0.07557896 0.018797556 -0.010675904 -0.019914428 -0.1706718 -0.018659733 0.039731678 -0.087342575 0.090862654 0.059710678 -0.08957762 0.303238 -0.1502307 -0.15867299 0.2276867 0.37029552 -0.098239966 0.16860005 0.067907654 0.043420646 0.08977297 0.021213269 -0.07620871 -0.16746975 0.070091836 -0.030371184 0.07082573 0.14757444 0.08210566 0.19710816 -0.03941407 -0.11561338 -0.06988009 0.14192331 -0.28664017 0.06346435 -0.20211385 -0.13137652 0.13869463 0.08701998 0.018358115 -0.16197063 0.03090018 -0.25638798 -0.032690156
어디 0.13261156 -0.28258646 -0.19186378 0.14008658 0.009413189 0.09700042 -0.024624752 -0.10854824 0.1066342 0.21988031 -0.021735772 -0.26118153 0.094204076 0.16097382 -0.057830717 0.011055067 0.12867251 0.14176641 -1.0257987e-05 0.017825646 0.074865215 0.12395711 0.35379988 -0.32495022 0.1491766 -0.13003404 -0.008488525 -0.070308216 0.18387556 -0.112388015 -0.12815215 -0.05994827 0.0780164 -0.11234481 0.09688581 -0.0002781829 0.15374531 0.054492086 0.048337568 0.08453533 -0.0017485346 0.054861486 -0.09907584 0.0032291454 -0.071029246 0.016799867 0.14346482 -0.08275509 0.033837967 0.148049 -0.059153464 0.010766035 0.022984173 0.038369972 -0.13005574 0.092569 0.0101276385 -0.060639985 -0.009392436 -0.13647419 -0.026341395 0.03439614 -0.10440655 0.07413012 0.09153178 -0.06649711 0.2648422 -0.15064119 -0.14354476 0.19233325 0.37710083 -0.09490465 0.124138474 0.082636274 0.04490818 0.084910095 0.035991456 -0.07120928 -0.1573942 0.0891932 -0.004215603 0.05418528 0.09089476 0.033237606 0.15306187 -0.08511103 -0.08337393 -0.07425779 0.15726581 -0.21708159 0.06665046 -0.14954212 -0.1211605 0.124919966 0.06648443 0.0007179774 -0.13824268 0.057381354 -0.20067325 -0.0020370185
자다 0.17575428 -0.30656365 -0.18571994 0.15689546 0.024469228 0.11527393 -0.02412878 -0.1344183 0.15408668 0.26036397 -0.021202775 -0.31028607 0.1269394 0.18379094 -0.11506509 0.020750323 0.140268 0.19492628 0.0015660744 0.024350325 0.07587783 0.15337789 0.41423795 -0.38533828 0.1537063 -0.16636351 -0.05416444 -0.083753824 0.21126209 -0.14043894 -0.12382855 -0.074268706 0.12500586 -0.16119252 0.072771214 0.012111599 0.17076398 0.04952814 0.054654688 0.08182997 0.048264924 0.0906514 -0.13557605 0.018860754 -0.062364314 0.0078459075 0.19905928 -0.08426807 0.05416955 0.21794984 -0.042837556 -0.00066086673 0.0077755027 0.032529794 -0.17920463 0.05330072 -0.015030753 -0.02359222 -0.03979827 -0.18007547 -0.04138101 0.05282566 -0.12588976 0.11502079 0.090921685 -0.090413295 0.31917295 -0.18927144 -0.15877701 0.20438962 0.40654582 -0.07074577 0.18414979 0.059198998 0.011576651 0.08988791 0.058572225 -0.07442416 -0.17569649 0.06671968 -0.037560754 0.109441265 0.14669913 0.03970182 0.19444437 -0.088650726 -0.084817216 -0.061862927 0.16865315 -0.2866227 0.061138876 -0.21430539 -0.17127597 0.13219064 0.09694365 0.0056429296 -0.17116933 0.06786817 -0.23763217 0.01677861
저희 0.16206087 -0.30175182 -0.23410632 0.15739956 0.014134718 0.11049253 -0.03594991 -0.113925174 0.12658797 0.23551859 -0.025393706 -0.28633958 0.10553011 0.19057065 -0.07047007 0.0046540177 0.14171761 0.182134 -0.01735176 0.0109962765 0.11003864 0.15164086 0.3881533 -0.37158543 0.16480903 -0.14397192 0.016017094 -0.08331085 0.19673043 -0.114935905 -0.13354403 -0.07115607 0.08045818 -0.1233509 0.1090834 0.012721372 0.16408467 0.047253616 0.049491737 0.07906884 -0.0001704105 0.06675434 -0.11617841 -1.836484e-05 -0.10394959 -0.0010217489 0.17191929 -0.10427641 0.03392362 0.17285948 -0.055871673 0.026534999 0.017450769 0.044705257 -0.16118996 0.11431695 0.018150343 -0.08870384 -0.01974627 -0.16518794 -0.032116614 0.050307028 -0.10828891 0.08718267 0.10360118 -0.07526738 0.3085826 -0.16457528 -0.1810903 0.19485928 0.44000888 -0.11366596 0.13121316 0.112556405 0.045832094 0.08705655 0.073851615 -0.08033445 -0.18511501 0.08868635 -0.025380779 0.07073684 0.11108013 0.03666506 0.17998719 -0.10431459 -0.09975551 -0.09777589 0.16772175 -0.24436468 0.08918266 -0.14982226 -0.11880248 0.14022152 0.065303475 0.01534888 -0.1570061 0.06265419 -0.19975795 -0.0014468611
주스 0.1822352 -0.32306838 -0.2128532 0.1541639 0.017375108 0.100418866 -0.024500484 -0.14899185 0.12545611 0.22718951 -0.017534353 -0.2852667 0.11017599 0.19045785 -0.07121063 -0.004692091 0.14609586 0.18264668 -0.013968602 0.0016230842 0.078182966 0.13277873 0.42724112 -0.36476764 0.18391944 -0.12533092 -0.017357724 -0.06334205 0.18565606 -0.114603944 -0.1151634 -0.08464994 0.07570532 -0.12893471 0.1029572 -0.011544823 0.18041073 0.056820545 0.061238654 0.07736584 -0.0040318207 0.06549674 -0.1155068 0.013151603 -0.0856161 -0.013541918 0.17619911 -0.082882546 0.038961556 0.17768681 -0.07189311 -0.020023076 0.035621148 0.04084794 -0.14856322 0.10655046 0.0074285055 -0.055793155 -0.025003564 -0.15468056 -0.017776456 0.053104993 -0.10563353 0.10116714 0.093036935 -0.06723568 0.31954554 -0.17638136 -0.16349138 0.20754485 0.39392394 -0.091578245 0.17382774 0.067333005 0.027988462 0.07012824 0.058335263 -0.057375465 -0.16041215 0.093858406 -0.027988309 0.08872737 0.13830803 0.05661304 0.16897064 -0.063468404 -0.09045291 -0.07192017 0.14649439 -0.26180363 0.09011511 -0.17826283 -0.13070989 0.13587596 0.072589375 0.007323067 -0.17884675 0.049731266 -0.24949956 0.0025726266
사용 0.15807424 -0.30274877 -0.22070596 0.14383836 0.012538664 0.120530985 -0.043255556 -0.106718585 0.117043994 0.22996907 -0.024375845 -0.26816317 0.10847147 0.1742569 -0.061583303 0.0105778845 0.12986083 0.16461949 -0.01582711 0.023990728 0.0879135 0.14270285 0.3527587 -0.35248747 0.16041324 -0.13493608 -0.005997394 -0.053032048 0.17744973 -0.11574604 -0.12982963 -0.06486218 0.083310716 -0.10837493 0.115422495 -0.0042259516 0.16426855 0.04032264 0.03532676 0.08216287 -0.02027997 0.052597616 -0.11973789 -0.023488106 -0.08823955 0.0035506706 0.16856867 -0.106617324 0.045673475 0.14097744 -0.06765407 0.042755965 0.014974571 0.03343251 -0.1364111 0.10110411 0.020245401 -0.072382435 -0.013155732 -0.16031088 -0.015788818 0.043455407 -0.09280211 0.102894634 0.09319139 -0.05262646 0.28910825 -0.17642958 -0.16566557 0.17767666 0.42002374 -0.12013299 0.11650592 0.1074606 0.049677186 0.077472806 0.057066243 -0.06360987 -0.1715692 0.09054432 -0.008611121 0.06375197 0.1059241 0.037039343 0.15229897 -0.0946726 -0.07946284 -0.07881423 0.1568103 -0.22967775 0.09451954 -0.12548284 -0.11039078 0.13908547 0.055612043 0.014660141 -0.13646704 0.046784624 -0.18683435 0.0029912668
면 0.16166346 -0.31687126 -0.22418267 0.18078648 0.013004871 0.11472429 -0.04719143 -0.11379938 0.12606038 0.24557054 -0.041120578 -0.2744087 0.095732436 0.19607054 -0.059621792 0.022075249 0.14559163 0.17629653 -0.005559852 0.024774533 0.08946032 0.121524796 0.37974116 -0.36030608 0.17439716 -0.14043592 0.0038344753 -0.067994244 0.18522061 -0.11547771 -0.14936048 -0.07092571 0.0786546 -0.14771748 0.100375004 -0.019142637 0.17268921 0.043405596 0.026722373 0.087330684 -0.021966197 0.0688042 -0.107137434 -0.022782188 -0.10881942 0.024526233 0.15598868 -0.10506826 0.03518273 0.14012846 -0.07846743 0.032835867 0.034172982 0.04146511 -0.15993565 0.103067115 0.02000309 -0.08718377 -0.019076107 -0.17535447 -0.009680824 0.03081595 -0.101846404 0.08594254 0.12023204 -0.055497766 0.31764618 -0.18741821 -0.15862301 0.20989576 0.43397996 -0.104804285 0.12654158 0.10665935 0.04541044 0.06808318 0.060019307 -0.08055844 -0.17032824 0.104576916 -0.017127015 0.0685071 0.08488739 0.042852372 0.15213652 -0.10992488 -0.104049854 -0.09294979 0.16830924 -0.25272444 0.08026993 -0.1452326 -0.124318026 0.141885 0.08079586 0.0270185 -0.13822085 0.0706539 -0.19679959 -0.0054235817
알다 0.14841816 -0.30265787 -0.18504728 0.14774935 0.029350236 0.13493031 -0.056242354 -0.09566993 0.12035643 0.2148648 -0.015814204 -0.24423635 0.08750738 0.15785857 -0.052353173 0.004930889 0.12035265 0.1497194 -0.029106116 0.013176484 0.10157445 0.118307 0.33885762 -0.34167224 0.16517612 -0.15408394 -0.01584892 -0.045977358 0.17640562 -0.12507926 -0.13926685 -0.054819215 0.07315992 -0.11041198 0.10196408 -0.0114647485 0.15877935 0.06471922 0.018982261 0.07375588 -0.016746692 0.06656436 -0.10435443 -0.036088962 -0.08945337 0.02342253 0.14878193 -0.09672856 0.038917758 0.14000171 -0.04965251 0.018306937 0.026527723 0.056793686 -0.13689934 0.09043498 0.012813975 -0.045917477 -0.010381266 -0.15835218 -0.026744423 0.030379254 -0.09899567 0.09421673 0.06656531 -0.065127105 0.27407095 -0.1598811 -0.16429976 0.19594873 0.3655642 -0.09759181 0.13554756 0.061952047 0.06071386 0.06691468 0.044031784 -0.056430954 -0.13882627 0.07509603 -0.0049973372 0.0742782 0.09380665 0.02543087 0.16527604 -0.07353925 -0.11084816 -0.07242013 0.14896049 -0.21920316 0.079252124 -0.15074281 -0.13553524 0.13260803 0.062639445 0.021261118 -0.14115787 0.049075447 -0.20273419 -0.0023350206
초코 0.13643502 -0.3155729 -0.1634256 0.15672284 0.021969108 0.109710895 -0.02846336 -0.10816653 0.13148664 0.23305228 0.0033651155 -0.27565488 0.106855184 0.18570034 -0.09158838 0.020153243 0.15334465 0.18625683 -0.00685843 0.013922924 0.053948287 0.115143314 0.40534183 -0.37707037 0.17047916 -0.14851059 -0.034939304 -0.07598337 0.20654953 -0.111532174 -0.14013728 -0.08221967 0.105526626 -0.15164335 0.07970941 0.0011322568 0.17125408 0.057581645 0.050021637 0.09667305 0.031446178 0.08239605 -0.13321719 0.001969584 -0.09089542 0.02786274 0.18515453 -0.09565703 0.041076113 0.18893395 -0.06390263 -0.015876744 0.011617647 0.020945223 -0.15538208 0.083797954 0.004633579 -0.02219045 -0.015015445 -0.15032446 -0.025987156 0.05524877 -0.09178457 0.096681334 0.07043168 -0.07453405 0.30335662 -0.15045996 -0.16236183 0.22969438 0.38495132 -0.0825801 0.17976144 0.07033782 0.023761544 0.10112183 0.035251502 -0.08060642 -0.16169599 0.072642766 -0.02712513 0.07785496 0.15355186 0.05330923 0.1912045 -0.056966823 -0.10151998 -0.057604432 0.15798204 -0.28275952 0.06199682 -0.2106101 -0.14673297 0.14460005 0.08973261 0.018487448 -0.16622883 0.05590819 -0.2537008 -0.014090843
텀블러 0.17133038 -0.27027753 -0.20190047 0.13864411 0.030039638 0.10748323 -0.03228659 -0.12221104 0.10062662 0.21195203 -0.032337323 -0.25426224 0.100162484 0.15052503 -0.048497997 0.009106693 0.13114432 0.18716419 -0.018293507 0.012706181 0.09819262 0.1421945 0.33964324 -0.34531176 0.16541351 -0.14518753 0.0012310543 -0.050672177 0.18145645 -0.10025788 -0.14669429 -0.053334583 0.09422558 -0.11502121 0.10776097 -0.005885311 0.1395074 0.03400178 0.030795565 0.06662419 -0.0053085266 0.04832339 -0.12433266 -0.02684071 -0.08069786 -0.0042213616 0.16363223 -0.1104719 0.032271426 0.14881791 -0.07005263 0.04008044 0.02934517 0.017319925 -0.14728081 0.114384435 0.030927202 -0.09712755 -0.044671215 -0.1526801 -0.010182818 0.03511974 -0.09896158 0.10281453 0.09473203 -0.04092807 0.28956 -0.16738705 -0.16537839 0.1607596 0.43051922 -0.11097618 0.12593599 0.11006171 0.04838813 0.06958618 0.056586184 -0.06032777 -0.15741663 0.09060085 -0.02321805 0.06695197 0.07637385 0.046724502 0.16909844 -0.09835476 -0.0695463 -0.089583665 0.14206588 -0.23812017 0.081093356 -0.11917754 -0.10719987 0.14080739 0.059152763 0.044491563 -0.12593238 0.057548247 -0.19627546 -0.0122195985
맛 0.16709262 -0.30266172 -0.21043704 0.16199312 0.014536487 0.11389492 -0.015542589 -0.12685633 0.12919383 0.22598924 -0.009450691 -0.2965853 0.10324405 0.1808897 -0.09779603 -0.0024721418 0.15342464 0.18216184 -0.01130851 0.009328369 0.08111707 0.13868092 0.41279185 -0.3751707 0.16765623 -0.13586956 -0.01783059 -0.07898276 0.20295808 -0.12437407 -0.13578826 -0.06543837 0.08793613 -0.1422478 0.10189714 0.011773518 0.17112961 0.050655246 0.06638907 0.09064018 0.026953498 0.060727235 -0.12075345 0.013978849 -0.09110404 0.008794299 0.1748813 -0.08312036 0.022241483 0.18735562 -0.06399198 -0.0030617171 0.013096858 0.024529118 -0.18336006 0.09326231 0.00782928 -0.036931615 -0.014830718 -0.16364074 -0.031473957 0.052627243 -0.11521902 0.09622171 0.08341711 -0.068968184 0.32114542 -0.16634448 -0.16911143 0.22044583 0.40160295 -0.10475525 0.15615319 0.086769894 0.02783718 0.0829567 0.04891561 -0.07491345 -0.17332241 0.08323718 -0.0229886 0.079868555 0.13367261 0.052763756 0.19239917 -0.07839874 -0.10661933 -0.07825303 0.14978087 -0.26761758 0.08745765 -0.18686894 -0.13981944 0.1502052 0.07130708 0.022314835 -0.1776397 0.06145297 -0.257031 -0.0070470753
데 0.14273284 -0.34895456 -0.17349556 0.19160883 0.07202419 0.1680277 -0.053007998 -0.09358292 0.1559701 0.27542466 0.08196168 -0.32105997 0.10540928 0.165693 -0.089601085 0.049403004 0.18582459 0.22959104 0.03709946 0.035501625 0.025865654 0.10392896 0.47167364 -0.39978763 0.17471229 -0.16089292 -0.05809783 -0.069707625 0.25384238 -0.14138366 -0.11209933 -0.09111417 0.15221389 -0.16605274 0.12114724 -0.02010218 0.17530066 0.07987043 0.020880887 0.09644378 0.05820854 0.041211616 -0.13917685 0.022684569 -0.1325438 0.06486947 0.22202484 -0.12185495 0.027868416 0.23763281 -0.055287383 0.034285113 0.036606852 0.014472363 -0.21108359 0.11645585 0.031266015 0.030862989 0.042919952 -0.13704489 -0.0035132396 0.06475205 -0.08565341 0.09085851 0.01983127 -0.14046143 0.3250718 -0.17325509 -0.22384956 0.26342294 0.3876165 -0.06265829 0.18701875 0.07281697 0.042411424 0.0752168 0.03290492 -0.10743863 -0.14984258 0.08405779 -0.03415439 0.048106648 0.22667225 0.087898895 0.24626687 -0.06371537 -0.10673831 -0.020171352 0.1972177 -0.32740435 0.06601013 -0.28521204 -0.14344235 0.19166344 0.122020625 0.07176798 -0.19764243 0.05324408 -0.29555672 -0.08377901
메뉴 0.15982758 -0.28913602 -0.20507215 0.14662969 0.007394515 0.11141159 -0.025384892 -0.113191344 0.115757294 0.23346083 -0.0113922395 -0.284681 0.10045973 0.1778097 -0.07930967 0.009874432 0.14267665 0.16564292 -0.022436066 0.0071891043 0.07763391 0.13858463 0.38912117 -0.3539068 0.17534046 -0.13845246 -0.020791396 -0.071446314 0.18837854 -0.12374954 -0.12395374 -0.07165746 0.0868559 -0.13874565 0.10222468 0.0026059146 0.16820262 0.0545131 0.058000214 0.07940004 0.01065282 0.056639448 -0.115208864 -0.00841172 -0.08797908 0.017066302 0.17631958 -0.08877121 0.03427262 0.16207452 -0.059586406 0.007574616 0.012694826 0.036183726 -0.15162036 0.08857577 0.010090411 -0.04544287 -0.017592944 -0.15691532 -0.02749892 0.03487567 -0.10536669 0.097198114 0.09116997 -0.068463854 0.30895498 -0.15338121 -0.1638696 0.19976856 0.4052937 -0.10467943 0.14706941 0.09820897 0.03266993 0.08086676 0.047742743 -0.06520086 -0.16889545 0.08984376 -0.014406942 0.0844248 0.12804623 0.047806393 0.17469557 -0.07678556 -0.09382633 -0.08838036 0.15095773 -0.25185415 0.089068025 -0.16632979 -0.13364516 0.14543945 0.07371712 0.012335164 -0.16199549 0.049041364 -0.23517022 -0.0070174034
조금 0.14443018 -0.2877019 -0.20574349 0.1676819 0.021800462 0.11079108 -0.03196932 -0.13881828 0.09882884 0.21251278 -0.01789341 -0.2645188 0.10490859 0.17012814 -0.085460834 -0.016160363 0.1428641 0.1732255 -0.005101387 0.014183378 0.067214034 0.12510635 0.3678899 -0.36993074 0.16385303 -0.10930007 -0.015855782 -0.0655011 0.17289482 -0.109571286 -0.13996507 -0.0895506 0.08082306 -0.1298197 0.09787544 -0.005825358 0.17131415 0.0642251 0.0493925 0.06741734 -0.0018267635 0.046410043 -0.118150696 0.0037382224 -0.078066505 0.007361055 0.18927795 -0.09237309 0.012362088 0.14431417 -0.06948828 -0.00089327636 0.025991857 0.030451445 -0.17144449 0.101080224 0.0034726954 -0.05286344 -0.009568589 -0.15824786 -0.026967952 0.03987605 -0.1086587 0.10925556 0.08104602 -0.071624465 0.30527645 -0.17581545 -0.16113266 0.17954274 0.40257025 -0.09234482 0.16332346 0.09082379 0.05419567 0.09244277 0.0362695 -0.06189106 -0.16633362 0.106807016 -0.016249929 0.060891703 0.12518989 0.069774345 0.1840318 -0.0774055 -0.08287709 -0.053031377 0.16565499 -0.25200945 0.101148136 -0.1526016 -0.12541221 0.15565224 0.056840926 0.023080247 -0.14021166 0.042397246 -0.2291222 -0.007424851
에스프레소 0.13823727 -0.32322076 -0.17894372 0.18230426 0.0103661725 0.13528775 -0.035196662 -0.117950656 0.1352871 0.22004338 0.011368317 -0.27480903 0.10067488 0.18512526 -0.107333064 0.0042523965 0.17938891 0.2008985 0.020888934 0.008966925 0.03625604 0.12099018 0.42717236 -0.39848465 0.1909191 -0.14306502 -0.02488902 -0.093686976 0.22315055 -0.12483783 -0.13087381 -0.08781854 0.09411869 -0.18132387 0.07845776 -0.0018329989 0.18219203 0.049523268 0.055231206 0.060747437 0.029446028 0.06657024 -0.1307045 0.0027806738 -0.098828025 0.034825407 0.20932789 -0.093433045 0.017288504 0.18491995 -0.066460036 -0.009423139 0.008131654 0.0014080158 -0.18703225 0.09000634 0.0096307695 -0.016642276 -0.012160247 -0.17161618 -0.033329792 0.05961679 -0.11443367 0.10698129 0.065420985 -0.08557076 0.3262677 -0.15744558 -0.17572583 0.21812338 0.3975123 -0.097692855 0.18906814 0.09495865 0.023716204 0.105682254 0.03681199 -0.07426718 -0.16729562 0.07437838 -0.020568503 0.082228854 0.1555176 0.08248033 0.21185622 -0.060912102 -0.12143374 -0.05808389 0.15956637 -0.30430555 0.07660021 -0.21001413 -0.14808327 0.15745571 0.05695821 0.032021746 -0.1706085 0.043722562 -0.28460586 -0.03025522
하고 0.16167615 -0.31664488 -0.19714479 0.16134892 0.009814186 0.12172472 -0.026754884 -0.11538781 0.12680647 0.21721186 -0.0074454946 -0.27245694 0.10811355 0.18756652 -0.087785654 0.01304783 0.1555467 0.17904803 -0.0097982595 0.02205317 0.07159862 0.12761788 0.40626168 -0.3826514 0.18333375 -0.14243424 -0.020335529 -0.07855039 0.20868167 -0.11888927 -0.13112362 -0.06977655 0.09850796 -0.14478742 0.101328716 0.0040144166 0.16317667 0.045496717 0.051412806 0.08692763 0.01276912 0.07369128 -0.12015946 -0.006972773 -0.08619555 0.02458101 0.18126331 -0.09055329 0.039961953 0.17153494 -0.06135665 0.0069968803 0.017764404 0.01792322 -0.15900593 0.09896991 0.02007219 -0.034611106 -0.0070002186 -0.16474456 -0.021092946 0.04209164 -0.10715366 0.103703655 0.08770078 -0.062339984 0.30662104 -0.16481201 -0.16648896 0.21971795 0.39959016 -0.10063775 0.16038546 0.09126961 0.028069297 0.08534903 0.040322024 -0.08378293 -0.16571301 0.09277307 -0.022275643 0.082788356 0.13694458 0.047980342 0.18912439 -0.07128888 -0.0981523 -0.06384845 0.16377795 -0.269183 0.086972445 -0.17494522 -0.13026297 0.14241335 0.06778842 0.027129745 -0.15957154 0.042466883 -0.25112805 -0.019449543
두 0.12016471 -0.2893116 -0.16846827 0.17097314 0.010666294 0.1257273 -0.021270702 -0.10967426 0.121160425 0.21181287 -0.016790424 -0.25246763 0.080708 0.19481471 -0.10029856 0.009400297 0.14280057 0.17654735 -0.0033401644 0.023101494 0.04998732 0.111687444 0.37697062 -0.36942062 0.18643852 -0.13224234 -0.015517161 -0.074296184 0.19345903 -0.13341 -0.13331841 -0.054271787 0.09075822 -0.16220152 0.070336595 -0.002705422 0.16596486 0.047262315 0.037194286 0.06680367 0.008313252 0.083216384 -0.12763985 0.0012823569 -0.09544988 0.033267032 0.1981789 -0.08868215 0.021245176 0.17091002 -0.059004456 -0.0031596029 -0.011229728 0.0074841413 -0.1481591 0.08716254 0.035054218 -0.031332627 -0.0235132 -0.16837983 -0.031156868 0.043349724 -0.091874 0.09207491 0.085286856 -0.08122741 0.30253944 -0.13992466 -0.16516633 0.22598936 0.37366655 -0.112586126 0.18016641 0.097922646 0.063474916 0.10721132 0.03973445 -0.07486173 -0.16325918 0.06924568 -0.040391624 0.09319245 0.14004177 0.07013602 0.17840451 -0.08261119 -0.09856968 -0.056191877 0.16351236 -0.27846673 0.0832278 -0.16710456 -0.12421381 0.14885062 0.042614955 0.011820812 -0.1437164 0.038133588 -0.24995086 -0.023900196
