1077 100
네 -0.03141554 0.1270814 0.2003491 -0.011407532 -0.14984289 0.08498608 0.0028911321 -0.19010516 0.03072604 0.25513935 -0.040403567 -0.13947871 0.062687 0.27353963 0.15520813 0.20930952 0.14435612 0.11579809 0.044052787 0.14411882 -0.0013366626 -0.056247085 -0.10176263 -0.09776147 -0.014777066 -0.18227707 0.08970383 0.16467115 -0.23014253 0.082798876 -0.14944465 0.10444209 -0.1347061 0.18935002 -0.08780177 0.039190732 0.13376182 0.17952056 -0.04740151 0.0065033413 0.03608562 -0.003405995 0.1831488 -0.13499102 0.21500957 -0.13169979 -0.18062377 -0.015048497 -0.1662884 0.16597876 0.16303308 -0.13716836 -0.06799671 -0.16815841 0.06672573 0.090076946 -0.0887388 -0.20916602 -0.04154745 -0.039591588 -0.28407806 0.010518132 -0.028204616 -0.011560367 0.051154025 -0.24436265 0.10951335 -0.10409853 0.057147853 0.17337112 -0.010892451 -0.040134843 0.18827623 0.09155244 0.07286991 0.10641835 -0.042601027 -0.10439024 -0.021918971 -0.16818233 0.1581741 0.008366315 0.1441457 0.07034632 -0.20177014 -0.029688666 0.07537432 -0.044939306 -0.019097447 0.14989263 -0.06684314 -0.023948122 -0.14170176 0.00028308423 0.13354585 0.15226038 0.08104004 0.16357435 -0.051001515 -0.13736509
줄다 -0.018760726 0.16783674 0.15898529 -0.03306227 -0.1705301 0.041150045 -0.040862147 -0.17911792 -0.0076233633 0.3018244 -0.04519859 -0.1397296 0.0013782225 0.33362433 0.21422836 0.2633107 0.18195896 0.14650427 0.05026732 0.14875175 -0.010506435 -0.1070053 -0.03294878 -0.1301856 -0.018652484 -0.19788198 0.080439724 0.16492678 -0.2563917 0.12668166 -0.10645499 0.113548405 -0.08024329 0.13144153 -0.056020536 0.02474234 0.1421378 0.18322663 -0.026209619 0.018322906 0.06244604 -0.020806419 0.16559906 -0.10499024 0.22366697 -0.13087034 -0.17191172 -0.032702044 -0.11496154 0.077930816 0.20855203 -0.15586841 -0.099705994 -0.13534367 0.02809777 0.099414505 -0.11251566 -0.19797733 -0.011496103 -0.035408977 -0.34468502 0.04273225 -0.023137791 0.04802222 0.00066592713 -0.25128403 0.11152202 -0.10098953 0.06372488 0.12019929 -0.00920112 -0.043942068 0.26226375 0.12646568 0.108902246 0.14503008 0.0047518616 -0.14746892 -0.009436773 -0.13679574 0.21482982 0.028019866 0.13914405 0.06894364 -0.17549303 -0.018032363 0.08545189 -0.038757384 -0.077642724 0.17669852 -0.08240507 -0.013358903 -0.08160123 0.016488953 0.09925611 0.16864075 0.09759697 0.1253173 -0.050752822 -0.123799585
로 -0.036831167 0.18042597 0.17033525 0.014190545 -0.11607121 -0.0044744266 -0.07599967 -0.1331156 -0.10732734 0.3191482 -0.046511162 -0.08964068 -0.012543608 0.31937614 0.20001346 0.19272031 0.22620389 0.21481468 0.09421745 0.077735916 0.025951032 -0.14386062 -0.03352237 -0.07665768 0.037543967 -0.19470616 0.111345306 0.24672022 -0.2856691 0.23861058 0.003525557 0.08809543 -0.09947276 0.019947419 -0.043919418 0.049465667 0.14623524 0.17307577 -0.005366165 0.086517155 0.061363235 -0.06434774 0.14585361 -0.11086714 0.2786899 -0.115334325 -0.14543857 -0.11515194 -0.03977534 0.049933527 0.28750533 -0.20042299 -0.06363897 -0.17317061 0.09653364 0.14154269 -0.04435921 -0.2038696 0.07240732 -0.060347356 -0.47815105 0.03808343 -0.020740137 0.06782929 -0.048863854 -0.27221584 0.026331635 -0.11980858 0.087406375 0.100605235 0.056908388 -0.016276447 0.34094968 0.20781104 0.099089056 0.14881328 0.074450456 -0.20578408 -0.018415198 -0.09248682 0.23353696 -0.017698752 0.235532 0.06453797 -0.23868783 -0.035406146 0.11097812 0.015721247 -0.17586157 0.16825204 -0.0951456 0.030347273 -0.0965749 0.047802195 0.114032865 0.15922733 0.09941487 0.08503959 0.01192831 -0.13077782
되다 -0.03130479 0.116124935 0.19507046 -0.016379923 -0.17340507 0.100910194 -0.011116926 -0.20643337 0.039215997 0.2725483 -0.05678566 -0.15208016 0.08190278 0.28168032 0.14923413 0.22312121 0.1356004 0.12638982 0.03928346 0.14545473 -0.003536347 -0.04719719 -0.11605332 -0.10431015 -0.006589681 -0.18044658 0.087855816 0.17567062 -0.24195935 0.09913458 -0.16067009 0.11106108 -0.12955952 0.22176397 -0.08384242 0.033809297 0.13174461 0.1847799 -0.056374308 0.0030460444 0.043541644 -0.013929268 0.16478844 -0.15730347 0.22240591 -0.13198662 -0.18521203 -0.009155831 -0.17053454 0.19145621 0.14852785 -0.124378815 -0.077611715 -0.19142376 0.06978616 0.10755827 -0.09285022 -0.2063573 -0.061932888 -0.03988907 -0.2761437 -0.012759145 -0.00464087 -0.005395966 0.04393628 -0.2555641 0.12143378 -0.083038345 0.046451014 0.20262438 -0.0059713526 -0.055380307 0.1842696 0.08638846 0.08031419 0.10027135 -0.04328065 -0.094088495 -0.022050492 -0.18564653 0.15737171 0.010261026 0.15336499 0.055902872 -0.23022576 -0.049458567 0.08526883 -0.052101053 -0.022961259 0.1573444 -0.04708304 -0.03051748 -0.13422549 0.0062447293 0.14312243 0.14792891 0.109683394 0.17045215 -0.03350827 -0.14807011
아메리카노 -0.0067026564 0.16631575 0.17402697 -0.047084138 -0.18371327 0.032459747 -0.027066926 -0.16689546 -0.011742334 0.28941664 -0.019239547 -0.14015105 0.007881367 0.31364924 0.2138512 0.26921806 0.1629889 0.13197234 0.06307829 0.15243873 -0.016973417 -0.1105803 -0.033174746 -0.14447032 -0.045223154 -0.2032031 0.079956464 0.17633878 -0.26119864 0.10975314 -0.105263814 0.12268462 -0.09081175 0.14974731 -0.059380464 0.022118375 0.13953385 0.16610058 -0.037653614 0.0022716534 0.061746377 -0.03905065 0.17299516 -0.083019555 0.22671586 -0.13978603 -0.1608871 -0.030202353 -0.12322576 0.069013886 0.21485882 -0.1611618 -0.105082184 -0.124542385 0.015350161 0.09377149 -0.09590456 -0.20493634 -0.010160707 -0.044840496 -0.3217061 0.043837536 -0.033168223 0.035750028 0.020353649 -0.23968954 0.10161262 -0.1101215 0.07304591 0.12710445 -0.035842918 -0.03551174 0.24669689 0.12005305 0.10137013 0.14245369 0.007167288 -0.14310294 0.0013596105 -0.1486675 0.22135918 0.030233527 0.13531227 0.055785812 -0.15673089 -0.029034773 0.079778425 -0.042648092 -0.07033571 0.17458096 -0.083275735 -0.0011540882 -0.07838545 0.010164993 0.10652227 0.17545183 0.099423416 0.12700191 -0.07314998 -0.111286804
원 -0.029992446 0.13053747 0.17583695 -0.027560635 -0.17339048 0.080888465 -0.008013031 -0.19667684 0.03167655 0.262355 -0.03146668 -0.13843098 0.056250874 0.2732047 0.15338893 0.2308163 0.14081736 0.10116628 0.036087215 0.15445602 -0.01413883 -0.060347978 -0.09986788 -0.120795526 -0.029333675 -0.1864534 0.076102376 0.15978895 -0.23034938 0.08071902 -0.16331977 0.10781145 -0.12052348 0.19672915 -0.06970107 0.025005443 0.13067451 0.16622636 -0.04733057 0.0032356172 0.04398995 -0.01677773 0.16620475 -0.113324374 0.2132255 -0.12700136 -0.17470418 0.0032294127 -0.17387608 0.13407171 0.15665314 -0.13346773 -0.06755258 -0.1579765 0.05362611 0.09582681 -0.090534985 -0.20014337 -0.05117826 -0.052140057 -0.2678395 0.023001457 -0.015723612 0.001293965 0.04796849 -0.24415602 0.112034164 -0.08891428 0.06971762 0.16563368 -0.027715819 -0.053312737 0.1881877 0.09273893 0.08255912 0.114454485 -0.02613666 -0.10314993 -0.022992522 -0.15997508 0.17803845 0.009246827 0.15091248 0.061113864 -0.1894959 -0.035130102 0.072840706 -0.052051067 -0.040755548 0.16112423 -0.051808663 -0.021312667 -0.11086661 0.008470655 0.12207975 0.1551763 0.10312212 0.15107097 -0.04903911 -0.12464933
요 -0.00018873945 0.12737134 0.20770887 0.0002497537 -0.14869379 0.10800255 -0.0054285666 -0.1978271 0.038534664 0.26063004 -0.055160787 -0.15511844 0.06763934 0.27604952 0.16553429 0.24339968 0.15435296 0.13858739 0.032310996 0.16109279 -0.008993975 -0.08387231 -0.12247178 -0.12792811 -0.018366896 -0.19711274 0.10637527 0.17806529 -0.24366555 0.098229796 -0.16703223 0.10591147 -0.15530394 0.18112968 -0.11794531 0.049333878 0.15777403 0.18969338 -0.033136632 0.007833924 0.03070539 -0.024531104 0.18151307 -0.13531399 0.2032127 -0.12820226 -0.17864461 -0.005012694 -0.16692519 0.14862877 0.21218637 -0.15902956 -0.103236504 -0.17891781 0.09236913 0.08962275 -0.12004791 -0.22061406 -0.04702706 -0.055225335 -0.29800457 -0.009387717 -0.015715837 -0.008017031 0.05763911 -0.25259313 0.1253271 -0.094266616 0.060498927 0.16919808 0.0012899836 -0.053562533 0.20461337 0.09317061 0.10439241 0.105039395 -0.035963506 -0.10521211 -0.04278428 -0.1517023 0.18711616 -0.01353592 0.16640034 0.05776581 -0.20971556 -0.022996238 0.098518424 -0.04487764 -0.035795975 0.17115223 -0.07320734 -0.03100563 -0.14782535 0.017859451 0.120189644 0.1354106 0.101525255 0.17959557 -0.03567483 -0.1375712
드리다 -0.036618143 0.1315831 0.18255635 -0.026991768 -0.14272846 0.08490532 -0.017294256 -0.19276896 0.035332147 0.27518654 -0.054201398 -0.13976304 0.052261874 0.2806237 0.16423123 0.21969725 0.14638333 0.1198927 0.05001784 0.14770094 -0.010308168 -0.056838844 -0.093470395 -0.0975559 -0.0076945717 -0.19094393 0.08095854 0.15473273 -0.23447149 0.10008078 -0.14506422 0.10578979 -0.105361976 0.16248475 -0.07935888 0.036575727 0.14125946 0.18680808 -0.041206695 0.007366387 0.034456648 -0.011959985 0.17265253 -0.1362105 0.22004278 -0.124660544 -0.17252035 -0.010132895 -0.1719613 0.1499812 0.15850703 -0.14343344 -0.060356934 -0.16325851 0.065866515 0.10113455 -0.09469309 -0.21368803 -0.046078652 -0.038017347 -0.29775235 0.0136249885 -0.029821321 0.0008925238 0.04634322 -0.24733154 0.10135493 -0.10754353 0.064735256 0.1819925 -0.01309766 -0.054596405 0.20359251 0.09290875 0.08999664 0.10807741 -0.018161098 -0.09869094 -0.026157519 -0.16766909 0.1550246 0.005306236 0.1558351 0.06596508 -0.20350501 -0.030046282 0.068469584 -0.047597945 -0.036747172 0.15201317 -0.07656813 -0.024089433 -0.12411523 0.005171241 0.12951216 0.14911613 0.0870366 0.15147506 -0.03153696 -0.1297455
따뜻하다 -0.02111852 0.18438114 0.17507976 0.009649313 -0.12981607 0.01694859 -0.045549355 -0.15223297 -0.075291514 0.31192997 -0.04284326 -0.103750534 -0.014820919 0.31899703 0.2034364 0.22853 0.20793287 0.18410571 0.06044903 0.10662223 0.007939831 -0.13321868 -0.040219106 -0.10716445 0.013492336 -0.19741246 0.10222539 0.20454627 -0.27006093 0.19322447 -0.051457368 0.102129586 -0.08827902 0.08075818 -0.06351223 0.020156221 0.13769485 0.16768548 -0.0050212746 0.064097896 0.066151306 -0.04786687 0.16506077 -0.09182738 0.23797856 -0.11776591 -0.1593173 -0.07350857 -0.06585857 0.06277337 0.27334568 -0.18118761 -0.08880581 -0.15675098 0.06437285 0.11534937 -0.084053464 -0.1991037 0.043145075 -0.048623513 -0.40421152 0.055322405 -0.027004326 0.06818189 -0.02755926 -0.25925398 0.07597975 -0.10914034 0.065438695 0.099977694 0.023479464 -0.02011401 0.302136 0.16808781 0.10760693 0.1420427 0.037373576 -0.17457084 -0.008546407 -0.09837012 0.2333772 -0.0065070204 0.19077948 0.0620731 -0.20098613 -0.024122752 0.08959573 -0.0063366718 -0.13430016 0.16921915 -0.08834019 0.016477149 -0.08032535 0.036655527 0.10460038 0.15988503 0.09488019 0.09362914 -0.008103167 -0.12125516
가능하다 -0.020789163 0.12673727 0.20069924 -0.010012852 -0.15515995 0.08400895 -0.0027655961 -0.19317606 0.02396189 0.25442904 -0.0422431 -0.15099247 0.05468792 0.29042986 0.16027752 0.23208144 0.1530694 0.11579356 0.033833496 0.14677715 -0.0010597042 -0.057465497 -0.0982566 -0.10727196 -0.028406916 -0.19211443 0.092954814 0.17428017 -0.2456319 0.089633144 -0.14356777 0.101667985 -0.12913406 0.21089293 -0.09175211 0.025369473 0.14197637 0.17642193 -0.04190838 0.0039716363 0.043570753 -0.009981991 0.16619167 -0.13492855 0.21576884 -0.13670082 -0.1915406 -0.020388333 -0.17224562 0.16462328 0.18015565 -0.14672592 -0.073232174 -0.18041547 0.07440114 0.085149996 -0.094916284 -0.21374764 -0.031951115 -0.03993406 -0.2895726 0.008257299 -0.006029812 -0.003922559 0.04854381 -0.2553235 0.12643789 -0.094662175 0.047136907 0.17709215 -0.006875908 -0.046791922 0.19780318 0.09636979 0.09643151 0.09650469 -0.025646381 -0.09850849 -0.026809402 -0.16899629 0.17904186 0.008288382 0.14062287 0.047922958 -0.19751692 -0.039509356 0.08043858 -0.049083114 -0.036922682 0.17071427 -0.06648291 -0.024254924 -0.1251017 0.02336216 0.13598622 0.16578612 0.10387553 0.1653238 -0.039803483 -0.12353083
잔 -0.029222092 0.16984542 0.17152372 -0.03631997 -0.17967288 0.041267764 -0.038129173 -0.19201854 -0.009411692 0.28984463 -0.019954612 -0.12611823 0.029767338 0.31095758 0.21291927 0.28535306 0.16910243 0.1371123 0.0705516 0.15941118 -0.020359699 -0.10137841 -0.043211196 -0.16387406 -0.045149613 -0.2000046 0.08083615 0.16753484 -0.26616916 0.10941908 -0.1253613 0.1259717 -0.0895561 0.18737063 -0.060518384 -0.0022912186 0.14909212 0.17182764 -0.026057847 -0.008434605 0.053157143 -0.018035488 0.199685 -0.090225115 0.22345625 -0.12694266 -0.16327798 -0.029661018 -0.15177837 0.07790253 0.2047941 -0.14227454 -0.08687316 -0.13627295 0.00821722 0.08294672 -0.1069565 -0.20036446 -0.036938097 -0.027957857 -0.28858367 0.060188115 -0.040150218 0.026798842 0.019982636 -0.2427477 0.11509994 -0.10406644 0.0749196 0.13738897 -0.056528255 -0.034244116 0.22179419 0.098038696 0.09166707 0.14186393 -0.02638503 -0.11739768 -0.011072879 -0.14781767 0.22672214 0.04343268 0.12576489 0.056051392 -0.14967586 -0.021282297 0.0731529 -0.055995226 -0.056511886 0.1862103 -0.080360465 -0.00874354 -0.08323818 0.009010783 0.11466763 0.17194107 0.08425101 0.13493197 -0.077732235 -0.11794795
거 -0.025541572 0.14559637 0.2149391 0.01248333 -0.14453337 0.079142995 0.00421077 -0.1858661 0.029465904 0.29477692 -0.07674817 -0.15169023 0.039595626 0.28795734 0.19085044 0.23195201 0.17891039 0.14923127 0.041427746 0.1628023 0.03026068 -0.085131936 -0.10259583 -0.101890445 -0.016601026 -0.18176237 0.055605873 0.14380625 -0.2386815 0.124668285 -0.12713 0.12294187 -0.13923863 0.16694102 -0.10111199 0.042245172 0.13234577 0.20068054 -0.021480132 0.008322134 0.053338207 -0.009029641 0.19527107 -0.111736916 0.21393107 -0.13535704 -0.18239973 -0.012774187 -0.12762293 0.15471831 0.2078427 -0.1563428 -0.094329916 -0.16358775 0.06072435 0.12082481 -0.11750943 -0.20919843 0.011208512 -0.042999305 -0.3076278 -0.0074166367 -0.019921586 0.03529673 0.023905795 -0.24629042 0.13199534 -0.110759586 0.041843046 0.14230905 0.009080924 -0.02708696 0.23686701 0.13759392 0.108171746 0.13236693 -0.030397244 -0.09404038 -0.0022610913 -0.15006727 0.20179817 -0.01340367 0.16682652 0.06275348 -0.18510535 -0.035202324 0.071120426 -0.028095296 -0.020928659 0.16566955 -0.07215823 -0.012215866 -0.12813593 -0.0026394022 0.10960377 0.15068893 0.07334041 0.15323286 -0.03392203 -0.16045818
커피 -0.020545928 0.15914106 0.22854947 -0.0024217367 -0.18079582 0.08440297 0.014645418 -0.22125156 0.02699767 0.2796424 -0.04228351 -0.16462219 0.054907195 0.30439088 0.18870255 0.28086737 0.16339913 0.12151469 0.024468092 0.18116365 0.007233842 -0.07295901 -0.10692693 -0.12883371 -0.04334147 -0.20083539 0.08880147 0.16060963 -0.26056337 0.08545529 -0.15221943 0.13361782 -0.13489032 0.21497338 -0.119321644 0.036083736 0.1473657 0.20326805 -0.02357605 0.0040285853 0.04762304 0.0007489872 0.18735144 -0.12339356 0.21363038 -0.1476496 -0.19976287 -0.014859432 -0.1807696 0.16496375 0.20706433 -0.15193924 -0.087731004 -0.1731878 0.07376912 0.082763106 -0.1310293 -0.210958 -0.03305893 -0.050074838 -0.29276565 0.018855257 -0.020823756 -0.0023078714 0.05103432 -0.26796213 0.14552929 -0.11243473 0.04308372 0.16550614 -0.013928352 -0.037933577 0.21381646 0.117558636 0.109076574 0.111625254 -0.056766827 -0.11405784 -0.010889142 -0.16978134 0.20945506 0.004685264 0.15314965 0.06158865 -0.19059968 -0.037744813 0.084689245 -0.05099103 -0.020292414 0.18531261 -0.069592334 -0.02744116 -0.123139985 0.018716292 0.12414867 0.16341865 0.09771312 0.16732337 -0.048355445 -0.14223321
아이스 -0.02868882 0.17393221 0.17334469 -0.038156644 -0.19588421 0.033883482 -0.029567815 -0.1863965 -0.016083494 0.29677805 -0.03811588 -0.15181918 0.021136774 0.34196112 0.22071183 0.2948353 0.18573418 0.14079644 0.049579058 0.1597343 -0.023573274 -0.11402096 -0.039014634 -0.15862724 -0.052635107 -0.22352847 0.092040814 0.18563527 -0.25168335 0.11656368 -0.12742731 0.111699656 -0.08992789 0.1698163 -0.07523512 -0.00052483956 0.13928701 0.17434524 -0.03445697 0.0032589536 0.05954357 -0.019835599 0.18593366 -0.092444606 0.22772914 -0.12720871 -0.18045223 -0.031070461 -0.13348374 0.08028916 0.21442857 -0.15528886 -0.10494335 -0.13455328 0.015668027 0.08872992 -0.12491341 -0.20684196 -0.010019371 -0.04782798 -0.31776989 0.06313637 -0.033610266 0.041626923 0.0061766985 -0.24889782 0.11884089 -0.09782838 0.07381224 0.1298406 -0.038426757 -0.03598049 0.24507283 0.11884873 0.12207432 0.13866705 -0.012266245 -0.12845322 -0.007804078 -0.15126392 0.24364772 0.032272127 0.13611844 0.058182314 -0.17008929 -0.012480637 0.07864719 -0.056057706 -0.07129534 0.17664328 -0.07803577 -0.00801626 -0.07537539 0.025969518 0.100217044 0.17180997 0.09094113 0.13633792 -0.069910325 -0.12282089
들어가다 -0.005495445 0.1851851 0.22875115 -0.013448055 -0.21024814 0.08701113 0.018081656 -0.2395652 0.020046132 0.29569507 -0.016433842 -0.18654989 0.047167115 0.3273737 0.20056662 0.312663 0.15002231 0.10369553 0.017280517 0.1989795 0.0048248516 -0.07698137 -0.08205192 -0.1488644 -0.07040353 -0.21414979 0.09294472 0.1766026 -0.27341518 0.05655606 -0.17188863 0.12888333 -0.12027685 0.23109996 -0.12233155 0.028056197 0.13262346 0.20047835 -0.028039983 -0.0012638111 0.05118704 -0.00281854 0.2008477 -0.11680703 0.2387205 -0.14884149 -0.2092776 -0.008354037 -0.19554554 0.15447398 0.20360877 -0.15382951 -0.09595367 -0.15787885 0.060555354 0.065279245 -0.1287939 -0.23792988 -0.058894616 -0.049577117 -0.30098307 0.03700494 -0.018625382 -0.002474295 0.047238246 -0.25667214 0.15300877 -0.116986744 0.072292864 0.1756255 -0.037024505 -0.03429508 0.20401359 0.104502454 0.1140812 0.113961175 -0.057915296 -0.10897295 -0.009470083 -0.18529786 0.22113958 0.030724306 0.14288312 0.05911143 -0.18200506 -0.034710187 0.083558746 -0.057140876 -0.024933381 0.2008885 -0.09264522 -0.05139375 -0.116932675 0.028852867 0.116953224 0.18775587 0.08973663 0.16634548 -0.07492874 -0.12608632
라떼 -0.01954068 0.20430806 0.21888286 -0.035545867 -0.20508277 0.06257467 0.012983682 -0.20209569 0.005784578 0.31885794 -0.036015265 -0.17324801 0.030585408 0.33109617 0.20614165 0.3154352 0.18175434 0.1293904 0.02815997 0.16013585 -0.0016803272 -0.08518962 -0.08106004 -0.14569363 -0.063407086 -0.20559955 0.07640665 0.17685546 -0.26979613 0.120026365 -0.1525667 0.1288925 -0.10255923 0.18971522 -0.08987385 0.017459253 0.15882061 0.19745149 -0.01391013 -0.0024644171 0.070160024 -0.014874094 0.19370957 -0.10080091 0.21863854 -0.1418421 -0.18613139 -0.032105796 -0.16662037 0.12469278 0.21869789 -0.1515051 -0.10004461 -0.1464646 0.033374306 0.09667415 -0.14565857 -0.22404884 -0.010998147 -0.053790975 -0.31404546 0.044058952 -0.028468408 0.036650702 0.038494907 -0.27044183 0.14602837 -0.09069165 0.05528849 0.12711579 -0.010582443 -0.03819847 0.2301339 0.12701204 0.14418773 0.12939505 -0.042181835 -0.1345323 -0.0014829396 -0.15713838 0.24479316 0.032075718 0.15243848 0.0580368 -0.16044973 -0.019356923 0.07848425 -0.03636537 -0.050749164 0.17086732 -0.08522137 -0.043878388 -0.08732328 0.029858945 0.11134052 0.17259769 0.09819191 0.14666171 -0.060954105 -0.13127956
하나 -0.023408076 0.1617715 0.1828771 -0.030422337 -0.17932491 0.043749135 -0.03187549 -0.17793901 -0.0071772346 0.29137668 -0.04156045 -0.13960597 0.031338457 0.30406198 0.19437195 0.26922727 0.16811372 0.13455555 0.06213362 0.1446077 -0.006632925 -0.09383773 -0.05672996 -0.13756445 -0.04432487 -0.20333242 0.06334377 0.16076386 -0.2606808 0.09995978 -0.11487375 0.10850527 -0.0911332 0.18407191 -0.07973495 0.0030668871 0.14554976 0.1666829 -0.030970074 0.008753749 0.045202475 -0.01177549 0.18295197 -0.1082566 0.21562077 -0.1286156 -0.16407996 -0.030574793 -0.14364398 0.11511001 0.20376153 -0.15244763 -0.08384664 -0.14644182 0.02968676 0.087254815 -0.112641476 -0.20025875 -0.014300284 -0.03735966 -0.3049539 0.04665038 -0.029727107 0.0254777 0.022438005 -0.24544278 0.10791698 -0.10369966 0.06466936 0.1411145 -0.029231422 -0.037692916 0.23588875 0.11597243 0.099541165 0.12852818 -0.012692168 -0.124466695 -0.00024948208 -0.15762077 0.21575037 0.022475757 0.14131686 0.06015486 -0.16255364 -0.018900415 0.09363584 -0.05354506 -0.056951683 0.18015648 -0.070812315 -0.023041459 -0.08817949 0.0043702214 0.1251108 0.16933154 0.085749775 0.13745062 -0.05947355 -0.1237817
사이즈 -0.024052719 0.16336538 0.21139151 -0.018247075 -0.15699308 0.04796532 -0.027766414 -0.17532407 -0.036861073 0.28125235 -0.06280695 -0.14429082 0.0140665695 0.32547605 0.19676657 0.23234083 0.2099528 0.16991116 0.037986487 0.15079997 -0.0066288495 -0.12692502 -0.07366873 -0.12767656 -0.014183347 -0.22366522 0.113243945 0.1892746 -0.23904528 0.16127974 -0.086722165 0.1274072 -0.1411955 0.13033018 -0.09831466 0.027720846 0.14358185 0.19304384 -0.032515083 0.04900214 0.05783895 -0.038558733 0.15901971 -0.12131855 0.2265669 -0.13433559 -0.18089205 -0.07341281 -0.10571789 0.09170714 0.24663545 -0.18221702 -0.093169324 -0.1513493 0.072730996 0.124201134 -0.107230306 -0.20600352 0.036146402 -0.07105093 -0.39420637 0.024256486 0.0020360674 0.040933352 -0.0007737448 -0.26575342 0.08968766 -0.10747257 0.06355153 0.14185086 0.022388127 -0.05237354 0.2577607 0.18045603 0.14550996 0.13627893 0.014350156 -0.15513311 -0.0085238265 -0.14567396 0.22809608 -0.00590595 0.16730918 0.058661282 -0.22303058 -0.030619292 0.11285842 -0.038843185 -0.087184474 0.14834225 -0.07181962 0.00412767 -0.111934036 0.036502063 0.1288467 0.15724163 0.10697274 0.11544688 -0.011192365 -0.14698026
드릴 -0.026974741 0.15294118 0.1451165 0.07021657 -0.0871439 0.0191599 -0.09226573 -0.06893758 -0.120223396 0.3297237 -0.08335877 -0.10929922 -0.06341752 0.3284585 0.21852827 0.14254934 0.190746 0.2625062 0.12567769 0.09396896 0.07168908 -0.1919811 0.06199983 -0.011158824 0.11168047 -0.18784551 0.084085755 0.22948799 -0.27656603 0.28669 0.02072909 0.044706713 -0.1284956 -0.059857443 -0.06991107 0.07173522 0.15019247 0.15430497 0.069575526 0.16642833 0.08748585 -0.13346395 0.1598449 -0.109193616 0.32888862 -0.18279593 -0.16002467 -0.1112806 0.012791838 0.03377415 0.34827816 -0.20195173 -0.050737485 -0.23266318 0.15313312 0.17636612 0.011274689 -0.16868596 0.058908563 -0.040084504 -0.5787761 0.056331877 0.025492352 0.094864525 -0.10021119 -0.22465084 -0.009927339 -0.117511965 0.102308065 0.0629557 0.0630307 0.001031113 0.42061394 0.25866967 0.14012209 0.1411951 0.15043078 -0.2332253 -0.041573435 -0.008378834 0.17719355 -0.018416576 0.26113212 0.0194196 -0.21874793 -0.06421073 0.06860357 0.038020864 -0.2557496 0.16009402 -0.13713612 0.046519045 -0.15831184 0.0046335645 0.13978231 0.16796309 0.100341454 0.006030739 0.051416095 -0.06370568
없다 -0.0375086 0.12798433 0.16550672 -0.01978114 -0.19373162 0.12825392 -0.028835725 -0.20360157 0.039911397 0.2826162 -0.058152568 -0.17547257 0.09020434 0.3096472 0.17079492 0.2731267 0.12981606 0.13975589 0.015880628 0.17138784 -0.01679522 -0.025877887 -0.12089323 -0.12941891 -0.011009324 -0.18073794 0.0888367 0.18560876 -0.2218436 0.11822551 -0.18849266 0.104345106 -0.11558739 0.24199435 -0.10195118 0.034057952 0.13362204 0.17434408 -0.06333836 0.014765411 0.03771803 0.0032062843 0.20162353 -0.16381562 0.20189531 -0.11709964 -0.20504771 0.00838318 -0.17931256 0.19287571 0.17491072 -0.12949295 -0.08780901 -0.17461635 0.05032399 0.095967606 -0.12305029 -0.24646573 -0.07284948 -0.032309335 -0.30713612 -0.019795876 -0.0034817674 -0.009570982 0.06210865 -0.24959894 0.14599498 -0.10483415 0.05844969 0.2120581 0.015180358 -0.06812568 0.22766776 0.06154612 0.118436225 0.14598171 -0.023438748 -0.09541595 0.004841132 -0.18976106 0.1746784 0.023633653 0.1589399 0.08107212 -0.23778108 -0.060527973 0.067623325 -0.030857857 -0.01572806 0.18184075 -0.073719464 -0.047143724 -0.1212023 0.006265632 0.14761552 0.14614907 0.07136294 0.15780063 -0.0015295686 -0.1630963
추가 -0.011857818 0.1653249 0.19349058 -0.026126232 -0.19338396 0.085857764 -0.00010223447 -0.2099476 -0.0032466403 0.2777765 -0.0010504456 -0.17117913 0.050996386 0.29990497 0.19746575 0.2747067 0.1238256 0.09922464 0.023158558 0.18225083 0.0075488277 -0.077204496 -0.06841734 -0.12938774 -0.036751118 -0.20058295 0.08686258 0.19132924 -0.254531 0.07152975 -0.17254607 0.095422 -0.12059178 0.19521454 -0.10215143 0.015011665 0.1136843 0.15617484 -0.05602742 -0.0034034736 0.03757175 -0.015481024 0.18587382 -0.10703224 0.24219248 -0.13165742 -0.18734151 -0.016146457 -0.17204891 0.13089368 0.19322173 -0.15690096 -0.104023404 -0.16020216 0.055935275 0.0720181 -0.10779756 -0.21281026 -0.06190379 -0.063495904 -0.31527856 0.016619077 -0.0009823254 -0.0010234338 0.041238494 -0.23522368 0.12699433 -0.12183428 0.09552398 0.17271362 -0.044709776 -0.036852963 0.19086364 0.10099303 0.10153239 0.123077035 -0.019784285 -0.103728525 -0.01134088 -0.18974407 0.18983534 0.035509195 0.14737187 0.0654076 -0.19194973 -0.055334523 0.08131707 -0.046612907 -0.06326508 0.18931994 -0.09044299 -0.02458162 -0.12106196 0.017499072 0.11612018 0.17610273 0.10052182 0.15171704 -0.06403678 -0.117798805
끄다 -0.05136716 0.20816441 0.19841704 0.05551953 -0.04063809 -0.059079483 -0.054759204 -0.11335334 -0.18885925 0.31789178 0.0069016954 -0.06335263 -0.07481184 0.3090149 0.20410742 0.16894008 0.2747157 0.21859728 0.066710934 -0.0029780883 0.06404061 -0.16850947 -0.06295941 -0.032701157 0.07041051 -0.15155882 0.15554772 0.25600964 -0.2959504 0.23877412 0.06612675 0.10842709 -0.09917879 -0.057318922 -0.03839828 0.0643651 0.0942912 0.15204847 0.023076585 0.11601626 0.043757066 -0.064310074 0.14525333 -0.1005769 0.29254374 -0.060759645 -0.17126726 -0.13054994 0.02679722 0.025953144 0.33183184 -0.23557147 -0.06981811 -0.18107182 0.11933433 0.16155224 -0.04998626 -0.2316913 0.16718695 -0.04883275 -0.5169232 0.006360977 -0.0006751625 0.09644102 -0.048942443 -0.29460025 -0.0043200804 -0.14141096 0.08691606 0.08185055 0.09987467 0.03218994 0.3818148 0.26210886 0.056975897 0.1508203 0.08594467 -0.19462553 0.01454754 -0.11483851 0.25115106 -0.089231476 0.27739328 0.07288989 -0.31321916 -0.09125199 0.13756607 0.036155466 -0.19935405 0.1815015 -0.086365476 0.08480403 -0.05516623 0.050718114 0.040509526 0.16495122 0.09304858 0.10868679 0.030059136 -0.12223647
음료 -0.020930985 0.14986245 0.21797846 -0.014147051 -0.16710848 0.07970301 -0.00044861404 -0.2037179 0.0253997 0.2838258 -0.04748627 -0.15740028 0.048007414 0.29781997 0.18323131 0.2688495 0.16686082 0.12852989 0.03990457 0.15843527 0.0077275294 -0.08506593 -0.09500876 -0.120655335 -0.035981487 -0.19377592 0.0825974 0.17232567 -0.25784397 0.101313956 -0.14908883 0.11853238 -0.12773788 0.19335553 -0.11062054 0.038007308 0.14257039 0.19364503 -0.028167553 0.00801084 0.051908918 -0.011167553 0.18623357 -0.119754426 0.21675551 -0.13944986 -0.20489302 -0.021028658 -0.16844994 0.15145244 0.2014859 -0.15903549 -0.08407171 -0.16855377 0.069949836 0.08777856 -0.11566579 -0.21719402 -0.026502427 -0.048229996 -0.30664274 0.019532133 -0.028109163 0.005838664 0.053897753 -0.26145384 0.1296823 -0.11550427 0.055545807 0.16301805 -0.019745896 -0.049046148 0.2223875 0.11802386 0.104750305 0.12116553 -0.0398236 -0.11309482 -0.011620402 -0.16394909 0.20805773 0.005561567 0.14869572 0.063840695 -0.19204107 -0.03380847 0.08042181 -0.043110795 -0.03413395 0.17560165 -0.06966694 -0.02034613 -0.12347923 0.018519431 0.12611523 0.16200176 0.09726912 0.16074173 -0.05530806 -0.14071667
시럽 -0.013849583 0.18823127 0.20282216 -0.03782826 -0.20324999 0.07035658 0.009442502 -0.21276642 -0.011387736 0.32691222 -0.03514664 -0.18115436 0.039694745 0.3373883 0.20361426 0.3008261 0.1733812 0.11736594 0.030811101 0.16220702 -0.007931482 -0.08530575 -0.072270446 -0.14087957 -0.056094237 -0.22729896 0.084277995 0.20136137 -0.27483532 0.10896168 -0.1596576 0.10920985 -0.1001772 0.18274952 -0.09203506 0.03570878 0.13603441 0.19127981 -0.026405348 0.005656206 0.04938585 -0.018661844 0.1979755 -0.121493466 0.22079208 -0.13486414 -0.19198507 -0.033316452 -0.16332245 0.13478108 0.22545786 -0.15175602 -0.090457484 -0.1502956 0.04476155 0.10374313 -0.1262051 -0.23360488 -0.025344457 -0.06416675 -0.3299198 0.030481124 -0.029004294 0.028359056 0.039789934 -0.2705259 0.13291833 -0.090144545 0.07045577 0.14540815 -0.019958802 -0.03858319 0.2330546 0.10696724 0.12816678 0.13552323 -0.02196275 -0.1323457 -0.011978021 -0.16287766 0.22728364 0.019654924 0.1572724 0.05763808 -0.18797772 -0.04140814 0.081972145 -0.046377163 -0.062199906 0.1788067 -0.08462815 -0.04130059 -0.10233659 0.021628033 0.11987738 0.17192613 0.092452995 0.16579379 -0.044988737 -0.12528752
해주다 -0.02833045 0.11779707 0.1818898 -0.017618377 -0.15888521 0.08215978 -0.010900957 -0.19560726 0.026237665 0.2641511 -0.042729992 -0.13738322 0.059945904 0.2856122 0.16319388 0.23023726 0.14125559 0.11298693 0.036514144 0.14917672 -0.0071609947 -0.07144949 -0.09231247 -0.11060428 -0.023165978 -0.18699901 0.08155662 0.16180721 -0.23976943 0.09734226 -0.13801233 0.096138224 -0.11106811 0.19314972 -0.085618205 0.019458141 0.13870646 0.17473045 -0.03500738 0.0028970314 0.03276069 -0.017181596 0.17892241 -0.12674338 0.20863087 -0.121062815 -0.186141 -0.00886429 -0.15733089 0.14238742 0.15778744 -0.13502502 -0.074435815 -0.1625016 0.05725421 0.09831357 -0.08973661 -0.20276149 -0.033217818 -0.036112417 -0.27758345 0.0033809529 -0.019731201 0.0065701716 0.037266452 -0.24701917 0.124275304 -0.095289916 0.051857304 0.16523507 -0.011358591 -0.05424185 0.20600119 0.09713463 0.078462504 0.10682827 -0.022305423 -0.105046704 -0.016459923 -0.16279301 0.1790264 0.022799356 0.13278778 0.05212204 -0.19538034 -0.035364453 0.07798478 -0.041376106 -0.037905924 0.17024836 -0.0700134 -0.027212743 -0.12065718 0.016799597 0.12448755 0.15891698 0.088541955 0.1522975 -0.041843988 -0.12178644
어떻다 -0.017435392 0.1669902 0.21954471 0.021012262 -0.14821744 0.056594085 -0.008972191 -0.16389066 -0.022497853 0.28992048 -0.061980028 -0.13991378 0.03411624 0.29883927 0.1810739 0.23989953 0.20005892 0.1702899 0.05292527 0.13128518 0.012957571 -0.11012561 -0.084108986 -0.09600295 -0.006486071 -0.17656007 0.098800585 0.19722584 -0.27473554 0.16229387 -0.091299534 0.12033603 -0.1410217 0.13961689 -0.106167085 0.02994687 0.16059986 0.190514 -0.0008959088 0.06145393 0.068830356 -0.031517807 0.17140155 -0.12682556 0.24110012 -0.13701539 -0.17991622 -0.052030638 -0.12263572 0.13157612 0.24939378 -0.19030353 -0.07766428 -0.18805885 0.109286144 0.10730192 -0.105438456 -0.19745155 0.021634664 -0.044166062 -0.39085314 0.023681838 -0.021830669 0.03237361 0.0098334 -0.27669364 0.10559084 -0.103100464 0.054657172 0.14945677 0.029390957 -0.027832128 0.28059065 0.15551734 0.103028916 0.12436645 -0.01729765 -0.16131373 -0.012548408 -0.13153826 0.21434261 -0.02301721 0.2015212 0.05361317 -0.22574621 -0.02919101 0.0837182 -0.0090281 -0.074710116 0.18153366 -0.08068363 -0.014935845 -0.1265754 0.034447618 0.12841234 0.15453684 0.10196743 0.124978185 -0.012898942 -0.13713107
만 -0.0052888226 0.15744798 0.1917775 -0.0409747 -0.18873571 0.07342518 0.008753434 -0.20532447 0.035849623 0.29297248 -0.038105454 -0.16847944 0.049244154 0.3149913 0.18228064 0.271832 0.14941056 0.119045615 0.04769246 0.1463473 -0.009551077 -0.054074705 -0.07532117 -0.123024546 -0.024374492 -0.18988015 0.08535285 0.15355104 -0.24392937 0.07894479 -0.15598361 0.10728869 -0.10351154 0.190028 -0.09186076 0.046682768 0.13118014 0.19500408 -0.05010103 0.010574625 0.029852323 0.0038670783 0.18510075 -0.13519885 0.22052272 -0.13381748 -0.20038912 -0.009637262 -0.18140589 0.16551504 0.17515412 -0.1403344 -0.08143225 -0.17306462 0.0519698 0.09153051 -0.12383647 -0.2146759 -0.049632434 -0.033677157 -0.28733712 0.02441758 -0.046539772 0.0074777566 0.060860984 -0.23809162 0.12181253 -0.10723457 0.043288 0.1652215 -0.029858733 -0.024295716 0.19565544 0.08203313 0.09323242 0.11222894 -0.03868193 -0.109347746 -0.025887571 -0.16617319 0.17709328 0.041949812 0.14387497 0.07649789 -0.194626 -0.021612955 0.06754667 -0.052560795 -0.030702427 0.17316066 -0.08389094 -0.029412793 -0.113247015 0.0006102633 0.13018326 0.1630282 0.07885228 0.17283963 -0.048764855 -0.11820783
결제 -0.041481614 0.11372628 0.17932913 -0.017856335 -0.14975668 0.07366737 -0.004328505 -0.16909708 0.035292532 0.23918349 -0.03619165 -0.13685372 0.0711778 0.25255466 0.13435502 0.19199792 0.13301148 0.10086609 0.021781046 0.143924 -0.0029905387 -0.041626733 -0.10395509 -0.103217185 -0.007521532 -0.17615815 0.10287632 0.16222884 -0.21768603 0.09878296 -0.15159486 0.08551614 -0.13578956 0.17602801 -0.07201571 0.025462713 0.12411135 0.16657348 -0.05679713 0.018220566 0.03326846 -0.018278798 0.16806762 -0.11571937 0.1873581 -0.12841882 -0.16188708 0.0013851308 -0.15570214 0.16228166 0.15931897 -0.1250219 -0.051297102 -0.16668816 0.065842345 0.09084684 -0.096890785 -0.18786998 -0.043889347 -0.047253426 -0.2660303 0.014313933 -0.0136178825 -0.0032234178 0.0564411 -0.22307661 0.10557033 -0.08405122 0.06045256 0.17944026 -0.008166657 -0.047663983 0.17842211 0.08944549 0.09822616 0.1164617 -0.029836167 -0.106872275 -0.025570568 -0.15130042 0.14594458 0.008028847 0.146566 0.058511578 -0.21947844 -0.04795915 0.07259802 -0.022933254 -0.029448476 0.14041159 -0.041514326 -0.006174208 -0.1380185 0.011673438 0.12324097 0.13590916 0.10070281 0.1492075 -0.019458199 -0.123453096
들다 -0.0064782654 0.12718305 0.21727185 -0.006168257 -0.14101796 0.10569878 0.005829474 -0.18842795 0.04575392 0.2818708 -0.058442917 -0.1396245 0.057347365 0.2677329 0.18495345 0.22828133 0.14934336 0.124393776 0.024763435 0.1822528 -0.0007616308 -0.08329608 -0.11380843 -0.11759244 -0.033194963 -0.19747363 0.0707831 0.15149875 -0.22913675 0.07761083 -0.15767361 0.10880381 -0.14779909 0.20808347 -0.12549818 0.05121086 0.14270124 0.18456763 -0.02858858 -0.00537585 0.045564402 -0.008028591 0.20546153 -0.122537956 0.1780893 -0.123030074 -0.18465745 0.0017860075 -0.15978254 0.16701898 0.19705346 -0.13304816 -0.09725182 -0.16588965 0.089385875 0.080431886 -0.121728145 -0.22588414 -0.024918955 -0.030816179 -0.25767916 -0.00013825225 -0.045638118 0.009850603 0.05337347 -0.24061564 0.14159046 -0.1011465 0.030636542 0.17028551 -0.01944017 -0.03163831 0.19142309 0.108760744 0.090815954 0.118699916 -0.0746888 -0.08746325 -0.030259352 -0.1512029 0.17233287 -0.016872875 0.15045151 0.07402209 -0.17649439 -0.030266233 0.07540279 -0.05300666 -0.011632373 0.15910745 -0.058143876 -0.024697462 -0.15214743 0.0049460917 0.11468464 0.14070699 0.07058866 0.17442805 -0.04455109 -0.14317323
에요 -0.030260878 0.16601348 0.23586991 -0.0046791174 -0.1876067 0.09338652 0.013422924 -0.23095843 0.023194319 0.29753995 -0.028032428 -0.15502301 0.042162705 0.28890648 0.19388935 0.28781405 0.15412313 0.107543394 0.03583981 0.19011322 0.009431366 -0.08606877 -0.09290385 -0.12866022 -0.047549993 -0.18808806 0.08846228 0.15724082 -0.27336186 0.08737586 -0.1408703 0.12458372 -0.13357444 0.24287769 -0.1228396 0.018104257 0.1563201 0.18407863 -0.031125251 0.002801528 0.061721146 -0.005410978 0.20981221 -0.099712834 0.20456591 -0.14951551 -0.18373328 -0.025724657 -0.16174117 0.15572692 0.20284162 -0.14462419 -0.08827312 -0.16227971 0.052860353 0.06674961 -0.13541526 -0.21192098 -0.039691575 -0.025514387 -0.29490355 0.021052696 -0.028985906 -0.0068573933 0.037225213 -0.27095795 0.13893814 -0.1156601 0.0485149 0.16497529 -0.01590378 -0.052404273 0.20878388 0.12143559 0.10049346 0.120770685 -0.072117396 -0.11950789 0.008022735 -0.17265292 0.21239112 0.022442274 0.1517372 0.06391485 -0.16786687 -0.02624052 0.06954902 -0.060225815 -0.02806562 0.1902807 -0.07367349 -0.039430257 -0.118241526 0.0030418313 0.13529155 0.17414811 0.083297364 0.1540186 -0.07541473 -0.13306652
뭐 -0.009110944 0.17155032 0.2295125 0.0012427658 -0.19033897 0.08315979 0.030657081 -0.21188556 0.04467087 0.28558674 -0.07022315 -0.17129315 0.0481661 0.29023293 0.18445927 0.26892763 0.18114969 0.116302975 0.026712839 0.17609188 0.013064575 -0.079021156 -0.11018681 -0.13249038 -0.063586496 -0.18955553 0.06541732 0.13909547 -0.25794816 0.09245851 -0.1511854 0.14197503 -0.13440545 0.22141182 -0.11152417 0.021650828 0.15216786 0.20646055 -0.015022662 0.007157681 0.0597791 0.0061193462 0.20091438 -0.11601748 0.2027461 -0.13551679 -0.18499307 -0.00035005278 -0.17386933 0.16266069 0.18713732 -0.15638883 -0.08052148 -0.1493221 0.06267533 0.09697745 -0.14395186 -0.1913176 -0.016125763 -0.04198064 -0.26853752 0.010410235 -0.028125465 0.018352188 0.045064628 -0.25206164 0.15344584 -0.09845546 0.035945915 0.16126761 -0.00540261 -0.03910135 0.20668112 0.11178059 0.1186384 0.12014462 -0.06467129 -0.100945346 -0.0037671207 -0.16904518 0.22598064 0.0064523006 0.14892472 0.046477534 -0.16134693 -0.020832457 0.077205375 -0.043991875 -0.001509397 0.17458312 -0.067321084 -0.03708781 -0.1190402 0.02132907 0.10875028 0.16058055 0.08575362 0.15862308 -0.061158165 -0.16331707
주문 -0.017438507 0.14129509 0.20049408 -0.013632491 -0.17388086 0.08155509 -0.003923656 -0.19866735 0.02526383 0.2725957 -0.037012223 -0.16526356 0.062838875 0.28482714 0.17119433 0.25112012 0.14309998 0.12823413 0.026482007 0.1561805 0.0006963886 -0.079300836 -0.08605108 -0.13134634 -0.048128325 -0.18909511 0.09198522 0.17878096 -0.24595721 0.10052189 -0.15836146 0.113847695 -0.12667881 0.1978304 -0.09248421 0.029191768 0.14657697 0.18312994 -0.044441286 -0.0004603773 0.044154856 -0.016013188 0.18173741 -0.1203589 0.21636622 -0.12685184 -0.18910539 -0.019021763 -0.17086338 0.13794062 0.1858869 -0.1507114 -0.0749814 -0.15630595 0.05147821 0.07400011 -0.11023969 -0.20426202 -0.04147565 -0.046299756 -0.29101166 0.018295003 -0.024234949 0.009710285 0.05435902 -0.24751201 0.13748994 -0.10490676 0.054700576 0.16129999 -0.025230696 -0.052019734 0.20695795 0.10187001 0.111554645 0.119134665 -0.047282282 -0.11561122 -0.01859044 -0.16610152 0.18229377 0.00872259 0.14178051 0.058457434 -0.18210234 -0.039000053 0.07865446 -0.044409405 -0.031849485 0.167472 -0.067970246 -0.02783239 -0.12557024 0.023051715 0.117887266 0.16273409 0.10040844 0.16025215 -0.037375327 -0.1381219
예요 -0.027678631 0.16189736 0.22811885 -0.0028556774 -0.17534652 0.093485355 0.010090474 -0.2183586 0.030506998 0.29368207 -0.047494847 -0.14163181 0.051395055 0.2841468 0.18581058 0.27081153 0.15211593 0.11170718 0.027771566 0.19391623 0.007208342 -0.070804834 -0.09879435 -0.11982766 -0.029541489 -0.1875219 0.07294286 0.1532259 -0.2631639 0.09077787 -0.15042569 0.11365259 -0.13380831 0.23877586 -0.1282404 0.0152196465 0.15163024 0.17722157 -0.030138638 -0.00034175004 0.0695794 -0.0068017654 0.21793228 -0.10588883 0.18553641 -0.1345559 -0.18109132 -0.014193781 -0.15421785 0.16659123 0.20214264 -0.1328341 -0.08357783 -0.16090317 0.054041192 0.06404 -0.13867019 -0.21912773 -0.031518012 -0.020743867 -0.27827162 0.017838895 -0.041139625 -0.0033683497 0.049815904 -0.265462 0.15043284 -0.0997229 0.03905481 0.16982925 -0.011718377 -0.039453994 0.21222606 0.11186154 0.108672306 0.11747886 -0.07542936 -0.104119696 -0.003276762 -0.16173832 0.20756595 0.018262519 0.14931774 0.07237543 -0.17528525 -0.028321156 0.07067095 -0.051319364 -0.018470926 0.17678261 -0.068407856 -0.04280237 -0.11925728 -0.0032080729 0.1398928 0.15461768 0.08140784 0.15055393 -0.053494927 -0.12769099
적립 -0.042963326 0.09018808 0.17996608 -0.01816775 -0.145484 0.11019857 -0.024848223 -0.1783326 0.053476214 0.23147027 -0.056612372 -0.15299807 0.09043524 0.28260612 0.14819615 0.18850006 0.12650439 0.115640044 0.020931354 0.14904746 -0.026694791 -0.026430845 -0.12201422 -0.100883424 0.0062374924 -0.18590799 0.11581233 0.18045387 -0.21919398 0.10959651 -0.16139734 0.082757525 -0.13837247 0.21855281 -0.06599816 0.04242773 0.13669343 0.19014522 -0.056178264 0.025980001 0.032398276 0.0037044135 0.18862602 -0.15587504 0.20991848 -0.12338212 -0.18638456 0.0018210986 -0.17404144 0.20133859 0.16374281 -0.11146212 -0.049084608 -0.1834907 0.06795729 0.08131673 -0.08477808 -0.2206482 -0.046458207 -0.0488334 -0.26596642 -0.011473087 0.008974663 -0.021745658 0.057544753 -0.257493 0.1373821 -0.0692923 0.04013033 0.19148208 0.01812312 -0.07092702 0.18269041 0.061921377 0.0767625 0.11577382 -0.02515019 -0.09384108 -0.032975044 -0.17587803 0.14623213 -0.003942149 0.16798928 0.046162494 -0.23696083 -0.05566612 0.075123765 -0.020005872 -0.01902582 0.14491014 -0.047563262 -0.03949382 -0.1538924 0.012208539 0.14732963 0.15658402 0.0963798 0.16795819 -0.022809051 -0.14971611
할인 -0.037227925 0.11774269 0.1873218 -0.024912352 -0.15782215 0.096715525 -0.012878772 -0.19156472 0.0487948 0.25304416 -0.044666562 -0.15200782 0.09712906 0.25252515 0.14513406 0.21407972 0.11711467 0.12204629 0.022174353 0.15864736 -0.018428197 -0.028933402 -0.120601594 -0.119934626 -0.015320254 -0.16502537 0.10441742 0.16704443 -0.21831912 0.105037645 -0.1786985 0.10772526 -0.12944873 0.21945669 -0.07988621 0.04682601 0.13931721 0.16045928 -0.05658688 -0.0017711773 0.04339343 -0.011498171 0.19269893 -0.14436634 0.21684413 -0.11861018 -0.17284337 0.01497371 -0.18654968 0.1889071 0.16280237 -0.11025414 -0.06934948 -0.16578843 0.05343062 0.07876179 -0.09160372 -0.21669337 -0.072364986 -0.03540522 -0.254304 -0.009610792 -0.01890229 -0.0019721393 0.058132045 -0.23809972 0.13826233 -0.08693886 0.056681942 0.19508022 -0.010772129 -0.06200802 0.17828992 0.063572384 0.095410295 0.11907483 -0.043497674 -0.09769456 -0.01580654 -0.1727973 0.15321247 0.0091652395 0.15419729 0.060832378 -0.22517106 -0.059593722 0.061459716 -0.023537235 -0.017322734 0.14869252 -0.04582767 -0.025389973 -0.13909285 0.0046906956 0.14381327 0.13899073 0.100911684 0.15312521 -0.031070357 -0.12871137
카드 -0.03477815 0.09248342 0.17525288 -0.02652819 -0.16153648 0.10368625 -0.018104045 -0.18296164 0.047912966 0.24555816 -0.061993428 -0.15604666 0.084322624 0.2765462 0.14346544 0.21668766 0.12743337 0.12479497 0.033887155 0.1426988 -0.021115933 -0.0293043 -0.1248347 -0.09763257 -0.010405517 -0.1673039 0.09085469 0.17121427 -0.22589098 0.11437471 -0.16205105 0.09913104 -0.13814275 0.21103327 -0.07590616 0.026931293 0.12355743 0.17870174 -0.06273595 0.01651211 0.038887482 0.00065620214 0.16618025 -0.15631758 0.20957641 -0.1255995 -0.1782924 -0.0010066725 -0.16227432 0.18853444 0.13963999 -0.11768593 -0.062758386 -0.17888235 0.053727392 0.09881374 -0.09534793 -0.21606678 -0.0483884 -0.03392198 -0.2643789 -0.00882173 -0.0009853509 -0.014966309 0.054186597 -0.25459078 0.12747183 -0.06908821 0.03790992 0.20139702 0.015221226 -0.06727397 0.1915644 0.07549686 0.08283198 0.10486607 -0.018982122 -0.083163835 -0.021543255 -0.17533019 0.14311118 -0.00079394656 0.15742761 0.04975912 -0.22588882 -0.047844708 0.07413223 -0.04432982 -0.019404558 0.14509195 -0.047926284 -0.038888 -0.12403452 -7.648837e-05 0.14667153 0.15082578 0.10644252 0.15785576 -0.019228276 -0.14302221
여기 -0.023947667 0.12847821 0.21148375 -0.0068080877 -0.17078532 0.09209067 0.014462234 -0.21490954 0.038005795 0.2603202 -0.030217143 -0.15058412 0.069605164 0.28356352 0.16613221 0.2364761 0.1540445 0.11566653 0.03168304 0.16758004 0.0005419617 -0.06941903 -0.12332472 -0.10650153 -0.04350836 -0.19586353 0.0920795 0.15378052 -0.23775503 0.06287644 -0.16770583 0.12214652 -0.14058502 0.22537275 -0.11666992 0.03952934 0.13658208 0.18150048 -0.04465004 -0.01367331 0.04163191 0.00074486993 0.1994039 -0.12437803 0.21042752 -0.13577007 -0.19686203 0.0033149058 -0.19191632 0.1849834 0.17461944 -0.14826795 -0.07621423 -0.17238633 0.06993406 0.078303576 -0.12192159 -0.22163972 -0.035634235 -0.03433047 -0.28006235 0.0083552 -0.032189023 -0.011950774 0.060199633 -0.25044093 0.1294755 -0.09854964 0.053535923 0.19151725 -0.02145008 -0.039607454 0.18817835 0.10316313 0.08999423 0.09681706 -0.06507109 -0.09555236 -0.015209809 -0.17224129 0.17972992 0.011769703 0.14393215 0.06304905 -0.19617766 -0.027518531 0.08767227 -0.060841575 -0.01260871 0.17696618 -0.061685696 -0.022133863 -0.14223543 0.005720269 0.13209717 0.15283321 0.08656861 0.1809757 -0.05023635 -0.14552313
영수증 -0.026377745 0.122822575 0.16103686 -0.02412275 -0.15196666 0.067255594 -0.004082937 -0.1600889 0.014853316 0.23751344 -0.03749887 -0.1372691 0.039091345 0.25176233 0.1555011 0.21245092 0.141861 0.10609912 0.040453736 0.12420931 -0.000212565 -0.06553665 -0.07652729 -0.112268135 -0.030354196 -0.1722979 0.07249538 0.1621856 -0.2160608 0.095411316 -0.12474118 0.10046771 -0.09802224 0.16423663 -0.07556521 0.032000262 0.11117787 0.1464613 -0.034716632 0.011532837 0.038028546 -0.009063353 0.162303 -0.100249834 0.1758318 -0.103788614 -0.16277736 -0.026362866 -0.13699897 0.13269746 0.16391805 -0.12518871 -0.05453605 -0.13745402 0.04563089 0.085467584 -0.095820636 -0.17961785 -0.02611108 -0.031091029 -0.26359856 0.013325143 -0.026642188 0.010317572 0.04699115 -0.21983473 0.09746172 -0.090650894 0.047403034 0.14844404 -0.011126173 -0.032030616 0.1929367 0.095616445 0.09040256 0.10382475 -0.026730036 -0.0972734 -0.017814973 -0.13405822 0.16034457 0.015292027 0.12922843 0.05536718 -0.1709669 -0.026894953 0.075264774 -0.03669164 -0.032065026 0.14701258 -0.059127618 -0.018175932 -0.104613684 0.007234722 0.11203504 0.1324613 0.066323824 0.14467919 -0.02857673 -0.12018269
안 -0.019327678 0.13885705 0.2052039 -0.024105422 -0.1731088 0.09676045 0.008767124 -0.20934716 0.04629714 0.2892336 -0.044566408 -0.16626732 0.07779588 0.30475375 0.16862835 0.27265367 0.14678332 0.121767014 0.02531207 0.16841643 0.00597377 -0.06382718 -0.11376949 -0.122237496 -0.032522984 -0.19103529 0.08567401 0.1719661 -0.25396186 0.096541844 -0.17096347 0.112598054 -0.13732965 0.21122503 -0.11831401 0.0361033 0.13871525 0.19299714 -0.050802674 0.0053743687 0.036956515 0.0010182643 0.19184206 -0.14534953 0.21401791 -0.13841768 -0.20655797 -0.00076927134 -0.18015231 0.1731845 0.18100324 -0.15264006 -0.08014041 -0.17340672 0.076860264 0.0787852 -0.11676688 -0.21858321 -0.04559634 -0.051942036 -0.29620293 0.0054793563 -0.024706203 -0.0038707978 0.06317896 -0.25601012 0.14277798 -0.10085527 0.059599824 0.18409584 -0.018087424 -0.048457377 0.20199838 0.09831779 0.11519227 0.12410055 -0.0485624 -0.099629395 -0.01327202 -0.18167059 0.19440533 0.00487191 0.15839602 0.056778863 -0.21238023 -0.040433858 0.075576216 -0.042789955 -0.017026398 0.16842787 -0.07122223 -0.03671373 -0.13935633 0.01901732 0.1274456 0.15189078 0.09913891 0.17605487 -0.040992472 -0.13762856
샷 -0.011768001 0.15135173 0.20658435 -0.0238583 -0.19887552 0.09345405 0.023263356 -0.2333411 0.0015086458 0.27647638 0.016255219 -0.17212345 0.039627194 0.2973091 0.19630206 0.27942652 0.118655935 0.09733815 0.033567403 0.18033637 0.027014056 -0.10341813 -0.056313314 -0.1330032 -0.071326755 -0.22165419 0.10556372 0.18998238 -0.25859907 0.034862928 -0.1721017 0.12871177 -0.13203764 0.21619503 -0.103015795 0.040753476 0.09985695 0.16676114 -0.06981874 -0.030000716 0.042909782 -0.004475978 0.17312439 -0.10952584 0.23986915 -0.15483998 -0.19541252 -0.00085340755 -0.1871987 0.12062026 0.19867495 -0.13893521 -0.105929986 -0.1500445 0.043606356 0.048613068 -0.095012814 -0.21610121 -0.0631121 -0.07745204 -0.2906429 0.03700832 -0.016701436 -0.023324905 0.0511758 -0.22157064 0.1278509 -0.1282949 0.10210204 0.16636795 -0.053231973 -0.034736745 0.19983372 0.08097815 0.06383702 0.10141883 -0.029172298 -0.11074649 -0.030414706 -0.19088702 0.19429192 0.037650205 0.13725917 0.0348064 -0.16441593 -0.042881027 0.106736764 -0.078555755 -0.04430954 0.19859888 -0.08446274 -0.018942257 -0.12185406 0.025671493 0.11277924 0.17461394 0.08914337 0.16447929 -0.09037379 -0.11649977
해드리다 -0.019400936 0.12927572 0.18518381 -0.004518248 -0.16198054 0.072540104 0.0004773746 -0.19745792 0.025644645 0.25841677 -0.05176971 -0.13192017 0.06484683 0.2894239 0.15423806 0.22207257 0.14761648 0.12205866 0.046339262 0.13771756 -0.016078934 -0.07726632 -0.10860079 -0.09881791 -0.022340365 -0.19179292 0.07572327 0.16568114 -0.22555609 0.09523816 -0.15206574 0.109034725 -0.11474522 0.18072893 -0.078101605 0.022523299 0.14664465 0.18309012 -0.03326626 0.011413212 0.041045606 -0.005638379 0.16527084 -0.13573337 0.21812673 -0.12873268 -0.18381609 -0.02315874 -0.16861266 0.14930087 0.16085595 -0.14217524 -0.07024074 -0.16782834 0.06431475 0.10682997 -0.09515704 -0.18879597 -0.034513947 -0.03323332 -0.2744005 0.010903799 -0.022093311 0.008721328 0.028372778 -0.23997411 0.111502826 -0.07937215 0.059753925 0.18242119 -0.0031304664 -0.042355478 0.18735418 0.08509352 0.07387713 0.10879775 -0.034450196 -0.10512837 -0.030565064 -0.1614447 0.16930315 0.0061751083 0.14543797 0.06595394 -0.20335081 -0.025037702 0.07083193 -0.042928815 -0.018477974 0.16153769 -0.06695911 -0.030257963 -0.12797101 0.018060561 0.13032714 0.15878461 0.099066384 0.15642022 -0.04984478 -0.13264737
랑 -0.014652928 0.17327777 0.20826204 -0.023702899 -0.19809613 0.06740195 0.0004250591 -0.19985862 0.020254482 0.29509312 -0.039607827 -0.16872637 0.038355984 0.31265426 0.20171532 0.2949869 0.16767588 0.112688735 0.042209588 0.17321408 -0.011133305 -0.08636424 -0.06775676 -0.14839543 -0.056155875 -0.20467663 0.07405273 0.16732037 -0.26774073 0.1001438 -0.14086758 0.12558857 -0.1088603 0.21069792 -0.094789095 0.0065556676 0.15694486 0.18701598 -0.024753775 0.0044547315 0.05890982 -0.014960019 0.19479243 -0.102103144 0.20910855 -0.13761358 -0.17447685 -0.016588667 -0.16724932 0.12026082 0.20547882 -0.14327417 -0.08682512 -0.13833836 0.035953484 0.07444408 -0.12560809 -0.20760183 -0.03130502 -0.04148512 -0.29786322 0.0471961 -0.024152422 0.023069054 0.031696755 -0.2648311 0.14621143 -0.10365097 0.054246105 0.14400914 -0.021023205 -0.05185886 0.22385976 0.112230815 0.12103957 0.1353248 -0.05101171 -0.124794714 -0.006294963 -0.16579366 0.22318624 0.02383003 0.15001214 0.06014641 -0.16396445 -0.013741826 0.079529166 -0.041836504 -0.041779965 0.18182743 -0.07858191 -0.027897464 -0.10156641 0.018147048 0.12381838 0.17288487 0.0893463 0.14708368 -0.06291008 -0.14291504
티 -0.044269707 0.20125794 0.20944856 -0.037931167 -0.21367535 0.055678997 -0.00053288136 -0.1872643 0.005741824 0.3076557 -0.04919376 -0.18038547 0.053474758 0.3275847 0.21016711 0.32571328 0.18559602 0.11461162 0.029447379 0.15153761 -0.0026000743 -0.109630086 -0.09121607 -0.13496666 -0.06947163 -0.23015043 0.08145778 0.20966856 -0.27582446 0.14299792 -0.15975292 0.120335415 -0.124274105 0.19201232 -0.10877984 0.013138855 0.16300888 0.19683261 -0.018737111 -0.008367788 0.07424036 -0.024893256 0.20495458 -0.10313726 0.22353196 -0.14208841 -0.2073813 -0.04260455 -0.18220116 0.13160387 0.21169187 -0.18135901 -0.08278534 -0.12646735 0.06960513 0.110353805 -0.12459164 -0.21809351 -0.021142446 -0.049867865 -0.31726578 0.056371104 -0.031630393 0.04019263 0.019926671 -0.27495253 0.15334572 -0.08806713 0.07801038 0.14380303 -0.0038541683 -0.03138263 0.26170826 0.14015132 0.13276634 0.13293096 -0.04154231 -0.12752649 -7.4580304e-05 -0.1725821 0.26122558 0.021266118 0.15724368 0.07409867 -0.19750528 -0.03188755 0.06843723 -0.04811395 -0.039841626 0.16218744 -0.10867712 -0.03529521 -0.10551627 0.05232443 0.107136324 0.18804094 0.10769313 0.1495416 -0.0363536 -0.15782829
우유 -0.03336135 0.19226664 0.2148975 -0.027131848 -0.22138484 0.07557352 0.023794618 -0.22282773 0.008990743 0.32362527 -0.030192217 -0.18919837 0.04696269 0.34522733 0.21076219 0.32243514 0.1707429 0.11168988 0.020813951 0.1765706 0.0020812275 -0.090246625 -0.08717788 -0.14681417 -0.058614455 -0.21861278 0.09028122 0.19415371 -0.28370038 0.11599163 -0.18225193 0.124050714 -0.113227546 0.21690859 -0.10936435 0.015493002 0.14310805 0.21318921 -0.026468983 -0.008079965 0.055719923 -0.015607547 0.20502199 -0.12702115 0.2269 -0.13580395 -0.21304244 -0.02701071 -0.19683611 0.13879122 0.22327103 -0.16683082 -0.10377053 -0.15563148 0.06363052 0.1000412 -0.1447887 -0.24396299 -0.03272489 -0.06290359 -0.3251208 0.03452291 -0.031476427 0.020364527 0.062145073 -0.27644324 0.15600577 -0.09509974 0.06306212 0.15811558 -0.030894168 -0.04625715 0.2333245 0.11818928 0.14696419 0.13884084 -0.049292594 -0.115152724 0.004137793 -0.17800577 0.23548365 0.027801735 0.15335116 0.071855076 -0.18691432 -0.025959495 0.08232609 -0.032326743 -0.04266524 0.18163514 -0.09137546 -0.050858237 -0.112099476 0.033654626 0.12473834 0.17364316 0.09459133 0.1763032 -0.061325118 -0.14687452
걸 -0.03309688 0.14838876 0.16765456 0.01868555 -0.08023653 -0.011858155 -0.07223323 -0.090155445 -0.123686045 0.29922748 -0.06298774 -0.10748821 -0.04511294 0.30631512 0.20103137 0.16619511 0.22978769 0.21650739 0.06934909 0.05190218 0.033991486 -0.1587973 -0.00801904 -0.05571303 0.06800505 -0.18378602 0.10441608 0.22046365 -0.25085112 0.24711299 0.022435643 0.075872906 -0.108953886 -0.025810337 -0.052922063 0.039666686 0.11948619 0.1737717 0.029158764 0.11235055 0.057221927 -0.08948958 0.14688464 -0.09299363 0.26678485 -0.11558242 -0.1459971 -0.11416275 0.0006914672 0.036934286 0.2878431 -0.20238736 -0.08168998 -0.18766086 0.10405674 0.16907689 -0.04774996 -0.17946796 0.11240583 -0.04980776 -0.48624796 0.030584363 0.0024464317 0.09178997 -0.05913483 -0.24274124 0.011491907 -0.10937043 0.06963117 0.07086404 0.05691493 -0.017149799 0.35309765 0.23992518 0.11042125 0.1378783 0.09547691 -0.1849103 -0.00096671254 -0.08510617 0.2062057 -0.03425297 0.22047871 0.041292526 -0.24516459 -0.06468835 0.10716116 0.016857142 -0.1798782 0.1510915 -0.08417554 0.05060968 -0.095095865 0.028665435 0.09301488 0.16634722 0.10736436 0.070221506 0.025576683 -0.10720231
돼다 -0.027656203 0.13392662 0.20733967 -0.012911094 -0.17124003 0.09856395 0.014127945 -0.21300626 0.0295003 0.27206224 -0.045395326 -0.15970595 0.07319527 0.3025085 0.1648658 0.24234755 0.14434883 0.12254788 0.030539574 0.15938969 -0.0044643013 -0.054422915 -0.106501505 -0.11216422 -0.033057425 -0.19463058 0.09018357 0.16773643 -0.2561146 0.088009134 -0.15851255 0.1220032 -0.12989597 0.21585217 -0.1100837 0.041431632 0.13654827 0.19246458 -0.045057345 0.012700962 0.042080864 0.0062982207 0.18623511 -0.1362277 0.22047567 -0.13938762 -0.2012917 -0.003950281 -0.17262174 0.18080802 0.17026353 -0.14175904 -0.07811052 -0.16953203 0.07444063 0.08191667 -0.11330654 -0.2180376 -0.048746224 -0.040482014 -0.2858761 -0.0024644006 -0.014067318 -0.0011804946 0.05093425 -0.26249647 0.13397951 -0.092026964 0.05636858 0.19149315 -0.021716071 -0.04080042 0.20451322 0.09994722 0.107732244 0.11027724 -0.0459604 -0.107777074 -0.013857969 -0.182165 0.18336956 0.014310935 0.15155934 0.06519675 -0.21547563 -0.033606492 0.08494118 -0.055997156 -0.023068286 0.17251207 -0.06422893 -0.025011942 -0.14117761 0.015132889 0.13293435 0.15688851 0.092109144 0.1774804 -0.05139274 -0.14703274
개 -0.014239465 0.16093403 0.25159124 -0.009939058 -0.17769584 0.10702709 0.012605662 -0.24487819 0.008339033 0.25502843 0.026896583 -0.16631237 0.034820095 0.29662493 0.18359186 0.26609462 0.124009654 0.08340459 0.05350062 0.189263 0.036970627 -0.09097961 -0.088212095 -0.13531117 -0.07212258 -0.22300851 0.09551529 0.16831382 -0.2522374 0.005049618 -0.16005822 0.14681233 -0.13389641 0.23538491 -0.13349259 0.02891266 0.12669748 0.16459553 -0.055652045 -0.0146920895 0.02922166 -0.0032861088 0.21379699 -0.11304844 0.2720197 -0.14672357 -0.20468532 0.0047337483 -0.2022278 0.13522433 0.21881275 -0.14960904 -0.08931076 -0.16766296 0.052135807 0.036907382 -0.08605066 -0.24461311 -0.06655942 -0.058523007 -0.3241261 0.03627803 -0.013885238 -0.039288573 0.0631993 -0.22303054 0.12510523 -0.16453487 0.09114062 0.18809561 -0.07129506 -0.017601846 0.19463755 0.082414374 0.055110004 0.08216845 -0.035672788 -0.118551426 -0.04854321 -0.20089714 0.17499283 0.035289295 0.13760492 0.04101766 -0.16083016 -0.027500251 0.12333417 -0.10377945 -0.02448233 0.20592375 -0.10124952 -0.025452811 -0.1542183 4.2758962e-05 0.09694364 0.19421797 0.08690509 0.17805254 -0.10515644 -0.105881184
더 -0.029173486 0.14480309 0.15993623 -0.028729612 -0.17955105 0.1035838 -0.017310703 -0.1880819 0.014079108 0.30256638 -0.04103864 -0.17338291 0.06169896 0.30570352 0.18956482 0.28557104 0.14884774 0.13125579 0.030186044 0.15361215 -0.014427836 -0.0641794 -0.09332588 -0.12885335 -0.021929916 -0.20112287 0.07103755 0.19132574 -0.24420744 0.11454528 -0.16745743 0.107105665 -0.09457079 0.20578086 -0.09590135 0.036011677 0.11831788 0.1739273 -0.052655537 0.0046031587 0.034284525 0.00030706893 0.1862196 -0.14292626 0.20220141 -0.11993055 -0.19791318 -0.0022882137 -0.15302943 0.16375117 0.19615972 -0.13617459 -0.088647716 -0.14958642 0.04742176 0.0934529 -0.123918384 -0.2381293 -0.043819226 -0.03633367 -0.31770074 -0.0063090394 -0.030067723 -0.0030050818 0.04515023 -0.24733697 0.13009079 -0.11870969 0.053044427 0.1697318 0.0059214286 -0.041969188 0.2432857 0.08710664 0.11732948 0.14877793 -0.01185359 -0.09548127 0.003575075 -0.17836466 0.19443975 0.033799406 0.16521294 0.08304575 -0.2127979 -0.049276166 0.07157202 -0.035214934 -0.03483338 0.17548972 -0.08538238 -0.021620896 -0.10938553 0.005922695 0.1318997 0.15556163 0.06762384 0.17228968 -0.013803768 -0.14335665
그렇다 -0.020623764 0.163524 0.20351852 -0.022625007 -0.17793846 0.064624995 -0.0004381662 -0.19662961 0.013918962 0.2887683 -0.040532023 -0.16269892 0.052548826 0.31714132 0.1879888 0.27490687 0.1690101 0.12713397 0.044505134 0.168779 -0.011919262 -0.08437478 -0.09037367 -0.12909637 -0.04307296 -0.20165552 0.07950215 0.17610252 -0.25899267 0.099562004 -0.14471039 0.11329815 -0.11127291 0.19480515 -0.092995696 0.02724364 0.14755848 0.18123671 -0.040486403 0.003604413 0.0533216 -0.0040290332 0.18844455 -0.1224155 0.21803734 -0.1429752 -0.1959432 -0.021189328 -0.17291903 0.13951826 0.1996066 -0.15899897 -0.09122577 -0.15576771 0.05000785 0.08480097 -0.12040108 -0.21618797 -0.038452126 -0.038150795 -0.3129167 0.026931401 -0.019840539 0.009630519 0.036002237 -0.25675288 0.13123275 -0.099715196 0.063813485 0.16737993 -0.016902313 -0.051342078 0.22930291 0.111498445 0.10733168 0.12565729 -0.03653512 -0.12404922 -0.0077465503 -0.16494124 0.21042946 0.013362344 0.14993696 0.070512556 -0.19237643 -0.026331108 0.08354544 -0.051947318 -0.03432183 0.1853908 -0.07272124 -0.01921075 -0.11935779 0.020177381 0.12608197 0.17090413 0.09845058 0.15945467 -0.059471097 -0.14243771
얼마 -0.017613376 0.14565885 0.20481826 -0.020466903 -0.16433387 0.06420846 0.006434529 -0.1912399 0.037584223 0.27639216 -0.027931035 -0.14861576 0.04431651 0.28553125 0.19317278 0.26167798 0.15807807 0.11839089 0.032234542 0.16006339 0.006212824 -0.077585004 -0.09452779 -0.13815804 -0.059523087 -0.1966947 0.06459471 0.144286 -0.23097183 0.06283294 -0.15442845 0.13470234 -0.12810211 0.20652373 -0.083258525 0.034596644 0.12365334 0.16752172 -0.04292968 -0.026761457 0.0660652 -0.0039595715 0.1922819 -0.09448692 0.21344566 -0.14351611 -0.17939468 0.013446083 -0.16662142 0.13666207 0.16964638 -0.14830612 -0.085789576 -0.14008196 0.02760006 0.087996274 -0.1272897 -0.19841819 -0.029385567 -0.032945827 -0.25188783 0.015662344 -0.014086364 0.014533422 0.04363518 -0.22664228 0.13241255 -0.095969364 0.05873734 0.1591117 -0.029513694 -0.043359753 0.19042185 0.0936785 0.10580195 0.10679882 -0.03363657 -0.09208705 -0.02179057 -0.15833086 0.21067213 0.0041869613 0.12873998 0.04230139 -0.15770905 -0.03517717 0.08861877 -0.055554643 -0.018210642 0.17884436 -0.07479649 -0.008162461 -0.10888379 0.007464045 0.104890436 0.15391947 0.07460933 0.1631154 -0.07986411 -0.15125807
테이크아웃 -0.020672977 0.12446855 0.18564583 -0.011474412 -0.15837443 0.07955129 0.0052446816 -0.18806744 0.036609404 0.2584668 -0.034687735 -0.14026172 0.06574927 0.27838308 0.15949817 0.22580594 0.13175236 0.12471333 0.03995838 0.1589158 -0.0088006 -0.061300464 -0.10917758 -0.12149865 -0.034891464 -0.18332332 0.084487535 0.15146671 -0.22441414 0.09027282 -0.14990604 0.117971145 -0.13309923 0.20285419 -0.09208747 0.039023973 0.13451368 0.17346327 -0.05228197 -7.081247e-05 0.04719214 -0.0070552146 0.1804345 -0.13118671 0.20453487 -0.13428615 -0.17660546 -5.535885e-05 -0.16836628 0.16112643 0.1685848 -0.13500254 -0.08142133 -0.16121623 0.062269747 0.0772572 -0.11357871 -0.21483314 -0.041722294 -0.0386796 -0.2774343 0.00077179336 -0.022908391 -0.005401863 0.05660029 -0.24755314 0.12555219 -0.09715881 0.052805025 0.1729222 -0.017616969 -0.052930772 0.19424579 0.08333664 0.0917672 0.115672074 -0.042620093 -0.09313633 -0.020780897 -0.16756533 0.17016628 0.010421861 0.14140303 0.06709955 -0.18825375 -0.034109868 0.064598344 -0.043550707 -0.016345464 0.16489577 -0.06264954 -0.0200381 -0.13317662 0.0016896375 0.12963054 0.14597099 0.08596333 0.1700783 -0.045933466 -0.12793604
케이크 -0.001732988 0.16421874 0.22066331 -0.024558824 -0.18244803 0.07323726 0.01085944 -0.20682898 0.04104714 0.27914917 -0.059664 -0.1802263 0.04908634 0.30504125 0.18708512 0.28247374 0.17936523 0.1057337 0.046885252 0.16326289 -0.013444958 -0.077864766 -0.08961239 -0.14705172 -0.04286925 -0.19747256 0.06774231 0.15985066 -0.27224004 0.08626743 -0.16499539 0.11200926 -0.111544415 0.22011018 -0.09949941 0.007921242 0.16868241 0.18607092 -0.021189949 -0.00039232624 0.07219083 -0.02049386 0.19916332 -0.11790098 0.19835135 -0.15659271 -0.20459197 -0.0049474537 -0.16988954 0.15167052 0.18748643 -0.16349629 -0.087264076 -0.16612339 0.045965 0.071351424 -0.13561344 -0.19873622 -0.04211532 -0.0316409 -0.30220187 0.020789241 -0.03706167 0.019480415 0.052878544 -0.2765778 0.15083532 -0.11334271 0.060202487 0.18761438 -0.027601514 -0.06598988 0.23373732 0.1050883 0.120018944 0.12447749 -0.04802699 -0.13278835 -0.0043179085 -0.17747022 0.19993067 0.005935611 0.15706353 0.06677051 -0.17656183 -0.04240929 0.07801521 -0.03872033 -0.031964142 0.1920837 -0.0578254 -0.037608135 -0.12268776 0.0039811525 0.13259882 0.1733975 0.09077994 0.16380565 -0.06858199 -0.13601202
쿠폰 -0.031873494 0.13535838 0.20469128 -0.013296214 -0.14393583 0.08116744 8.4470186e-05 -0.19024204 0.023845466 0.26200017 -0.03448885 -0.15147088 0.055633552 0.28240716 0.16263823 0.22849782 0.14372933 0.12794402 0.04100781 0.14263034 0.0046985215 -0.056406517 -0.09250047 -0.09400755 -0.0246296 -0.17443003 0.094478585 0.17451057 -0.23167272 0.09638519 -0.13885157 0.10775554 -0.13453259 0.18652263 -0.090042174 0.037504714 0.12298799 0.16807573 -0.0522562 0.016432296 0.038144242 -0.011857083 0.17052558 -0.1332781 0.22177766 -0.12270826 -0.1912338 -0.013524136 -0.15267903 0.15734862 0.18318635 -0.13296017 -0.06657829 -0.1756339 0.06983866 0.08558382 -0.09843714 -0.21518546 -0.02819037 -0.032257866 -0.309363 0.0043940926 -0.011068049 -0.01202229 0.051157456 -0.25068092 0.116319925 -0.10868111 0.04988125 0.18076552 0.0006746161 -0.036951818 0.21262008 0.09356468 0.0850711 0.10594252 -0.027742617 -0.104455404 -0.027390854 -0.16417079 0.16700293 0.0045567895 0.16064768 0.045439832 -0.20092836 -0.051742867 0.088351995 -0.036603875 -0.032431085 0.16887103 -0.06637026 -0.024618713 -0.1281785 0.0024893153 0.12499949 0.14680836 0.08939817 0.15333745 -0.046045993 -0.12313023
아니다 -0.030910725 0.13812993 0.19941926 -0.016747225 -0.1727701 0.083657764 0.0010210604 -0.20681602 0.02570983 0.28660583 -0.044123203 -0.15596662 0.0570235 0.28872457 0.18137199 0.2500494 0.15936877 0.114714146 0.034468394 0.1712014 -0.0062958132 -0.07517534 -0.10093523 -0.12030537 -0.03346321 -0.19981438 0.08942415 0.16188075 -0.24560978 0.08872853 -0.15431325 0.11318922 -0.12905549 0.21320878 -0.10041501 0.040836085 0.142121 0.18636979 -0.038769253 -0.0036383918 0.048623927 0.0018840752 0.19727215 -0.128699 0.2171685 -0.1355063 -0.2010537 -0.008304404 -0.17170618 0.15665111 0.18915386 -0.15168035 -0.08771563 -0.16483602 0.067600586 0.09096246 -0.1217244 -0.22052203 -0.036043245 -0.03928178 -0.292138 0.009152806 -0.020716932 0.010085378 0.050332878 -0.25612807 0.13591732 -0.10115073 0.058185145 0.16965185 -0.021595383 -0.043620292 0.20791808 0.099658206 0.10082607 0.122339554 -0.051891517 -0.1097433 -0.007719861 -0.1671889 0.19300729 0.016793525 0.14398865 0.07359907 -0.19536437 -0.036606032 0.07758304 -0.039059732 -0.019451134 0.17316258 -0.07083631 -0.03055351 -0.13316897 0.011265883 0.1247516 0.1637662 0.08620002 0.16776174 -0.05610943 -0.13860385
주다 -0.018039223 0.15916733 0.1967481 -0.01695424 -0.1758425 0.075952224 -0.0006069742 -0.19992383 0.021225825 0.29657093 -0.035446193 -0.15623586 0.038925 0.31062046 0.1986823 0.26849815 0.16319986 0.123775795 0.034498543 0.16140759 -0.0029511729 -0.08422981 -0.0828154 -0.12867752 -0.035465725 -0.20314062 0.086293235 0.16335283 -0.26218495 0.09934884 -0.15348095 0.12375791 -0.114258796 0.19473004 -0.08855124 0.030764326 0.14040317 0.18978 -0.03545728 0.0063444874 0.051637556 -0.0051141093 0.19310158 -0.119822435 0.22257584 -0.14214723 -0.20131299 -0.018289765 -0.17211697 0.14035043 0.19331874 -0.15063412 -0.092265785 -0.1526091 0.05967356 0.09774651 -0.12568395 -0.22587696 -0.032453008 -0.039527763 -0.31717345 0.01720814 -0.02795742 0.01637495 0.036264084 -0.2685527 0.12810048 -0.10576181 0.057857007 0.15654056 -0.022651866 -0.041024104 0.22936994 0.11337658 0.11151933 0.12059239 -0.03883522 -0.11785387 -0.007755471 -0.15983659 0.20057684 0.018414991 0.14847863 0.07031205 -0.1957827 -0.031973027 0.07225955 -0.049603183 -0.03597987 0.18041533 -0.08304122 -0.024757588 -0.11809658 0.00669184 0.11652063 0.16748142 0.08516623 0.16300431 -0.053606115 -0.14168729
갈다 -0.026066285 0.138679 0.21723145 0.009824853 -0.15060423 0.10687215 0.03525663 -0.20235334 0.05432384 0.26872894 -0.065746084 -0.1414443 0.05153834 0.26801965 0.17657496 0.23170844 0.16242115 0.10250138 0.040909793 0.17532234 0.0037154055 -0.08544456 -0.12160324 -0.11057378 -0.016189378 -0.20598514 0.0715527 0.12737761 -0.23966442 0.0713852 -0.16136721 0.1288778 -0.14148773 0.21620399 -0.13127829 0.054846358 0.1466119 0.18817563 -0.043638065 0.00831 0.04150442 0.004594388 0.21184936 -0.13180071 0.19476122 -0.121172756 -0.19281836 0.0008851595 -0.17323448 0.19246691 0.19106875 -0.14962235 -0.09143834 -0.16905862 0.07908671 0.07887934 -0.12043399 -0.22993138 -0.03026693 -0.04123351 -0.2828445 -0.003351926 -0.032840833 0.0014503145 0.06940001 -0.26003596 0.14288288 -0.09896548 0.04752238 0.1806598 -0.041161478 -0.01734066 0.17148493 0.08411636 0.09932654 0.0995666 -0.082643405 -0.090777986 -0.010245698 -0.14503032 0.20741232 0.00092522614 0.14979795 0.074279346 -0.18347801 -0.019032098 0.059249848 -0.053564977 0.0060441103 0.16172399 -0.048539627 -0.013568615 -0.14137062 -0.0050359317 0.116256684 0.13636719 0.06758965 0.17692673 -0.05740465 -0.1566568
다 -0.0155586405 0.1513424 0.22715111 0.004633401 -0.16998163 0.08433158 0.011695633 -0.20520239 0.037710924 0.28138724 -0.03857371 -0.174446 0.06508424 0.2946754 0.16976722 0.2568773 0.16509926 0.11498037 0.041819338 0.1705957 0.0031224524 -0.072225764 -0.118827365 -0.12373687 -0.03966494 -0.1924729 0.09546868 0.18066266 -0.26133347 0.084943555 -0.16010742 0.12266005 -0.14590211 0.21768844 -0.11629128 0.040216863 0.1484187 0.19134006 -0.04495683 0.0061212787 0.04192508 -0.003105347 0.19106953 -0.12658852 0.22865017 -0.14450753 -0.2087748 -0.017048318 -0.18209104 0.17550835 0.19882794 -0.15349957 -0.08448394 -0.1688543 0.0861911 0.07485891 -0.11752798 -0.2176983 -0.035419565 -0.038908653 -0.31243023 0.0132025685 -0.018367883 -0.0016786021 0.060721572 -0.2601593 0.12646943 -0.1179229 0.05189285 0.18516082 -0.023211617 -0.047212224 0.21139187 0.099452704 0.10519525 0.1173439 -0.04755874 -0.114087485 -0.021011 -0.1802135 0.18626513 0.00012702949 0.1623898 0.069039136 -0.19869557 -0.02984194 0.089060105 -0.0449318 -0.029710896 0.17126635 -0.07796015 -0.03264966 -0.1433536 0.009008641 0.12620866 0.1603422 0.09509507 0.18246642 -0.052728016 -0.14129016
먹다 -0.012854177 0.12623508 0.20870706 -0.012094572 -0.1574061 0.09102837 0.011321583 -0.2040841 0.040758602 0.28357303 -0.04324189 -0.13973103 0.05025921 0.27541465 0.18822108 0.23811634 0.15131949 0.12205194 0.023833983 0.18510437 0.00894742 -0.08292041 -0.10959265 -0.11344214 -0.032040674 -0.19089013 0.07167757 0.1563654 -0.2460236 0.07890116 -0.15685739 0.11818646 -0.13555203 0.22370411 -0.11158091 0.0405785 0.13267693 0.18103749 -0.039824333 -0.0084333755 0.054290324 -0.004309401 0.21421736 -0.110306494 0.19979477 -0.12219495 -0.19652471 -0.008381486 -0.16323562 0.17745586 0.1863185 -0.13779779 -0.08771213 -0.16781442 0.07683797 0.08259695 -0.13589804 -0.2248115 -0.022564374 -0.021767806 -0.26663598 0.0034969796 -0.047087908 0.008200469 0.054742225 -0.25474954 0.14254196 -0.108375534 0.041310675 0.16800638 -0.02336218 -0.03129377 0.2072783 0.10954535 0.0853002 0.120682105 -0.070640564 -0.097403936 -0.026658155 -0.15832812 0.18785761 0.0014372756 0.14542598 0.07181435 -0.18426985 -0.038563445 0.06293639 -0.049322363 -0.014927171 0.16365579 -0.053489145 -0.017821193 -0.14459771 0.0032864565 0.121312454 0.14464377 0.066239454 0.17314224 -0.051721778 -0.14322
인가요 -0.030013857 0.16392027 0.23177294 -0.006427174 -0.18807174 0.08771582 0.011035753 -0.23540731 0.030342052 0.29815024 -0.021311764 -0.1633143 0.042271424 0.31395006 0.19765598 0.29422367 0.15380205 0.11205308 0.04489999 0.18907452 -0.003978734 -0.086755656 -0.09416391 -0.13763133 -0.0619031 -0.19683677 0.09723869 0.18043718 -0.2787768 0.07516668 -0.15668602 0.124250345 -0.14481483 0.24056073 -0.12255004 0.012738839 0.15718378 0.1788376 -0.040869 -0.000504135 0.05605891 0.009329097 0.21116482 -0.109608024 0.22552079 -0.15567449 -0.19843185 -0.026423344 -0.17846836 0.14629729 0.1883551 -0.16528894 -0.09566802 -0.17263153 0.04804922 0.062253114 -0.13238074 -0.2236435 -0.05436557 -0.034001604 -0.29728988 0.029896023 -0.01954707 -0.019971348 0.04502312 -0.2633424 0.12697627 -0.11807648 0.06301586 0.17683938 -0.039991163 -0.056857288 0.20740886 0.11710837 0.109571576 0.11464487 -0.05872487 -0.11597186 0.0026536004 -0.18096285 0.21834022 0.015814673 0.13589399 0.058195185 -0.1722371 -0.027378242 0.081372365 -0.070371814 -0.03682726 0.18956381 -0.08485149 -0.0397487 -0.13069986 0.0003069681 0.13561204 0.18016799 0.09580929 0.1739066 -0.089850314 -0.13500619
시 -0.017750531 0.07121231 0.4014008 0.16482213 -0.1608477 0.24033603 0.14692903 -0.36748102 0.08274682 0.12411497 0.19418453 -0.25984696 0.11751207 0.21567172 0.15547134 0.21864456 0.06428965 -0.006559818 -0.022954013 0.17194934 0.15069251 -0.16626608 -0.14647351 -0.05602858 -0.1553684 -0.27595404 0.2232328 0.24353887 -0.24811864 -0.18892227 -0.23247546 0.23540474 -0.26077047 0.399372 -0.30582523 0.12931564 0.08238579 0.067446716 -0.16899 -0.059218742 0.005487315 0.0684575 0.26911598 -0.068142176 0.38013926 -0.26560724 -0.29024985 -0.009948886 -0.31879762 0.25715423 0.22852118 -0.15659975 -0.112569235 -0.17919016 0.14653756 -0.12002125 -0.029112156 -0.30072916 -0.10013892 -0.115376264 -0.34501302 -0.04474757 -0.004062871 -0.20061389 0.14199965 -0.20587444 0.09015971 -0.2701066 0.22392417 0.30072874 -0.09712923 -0.043608923 0.09666469 0.11898544 -0.029763063 -0.016126806 -0.13701 -0.115448974 -0.06716908 -0.3069852 0.11648568 -0.02359992 0.13939175 0.032233138 -0.16816862 -0.08747438 0.24480292 -0.23803845 0.044045504 0.26728976 -0.17974511 -0.041671503 -0.33558154 -0.026513021 0.10001709 0.23113485 0.0005535608 0.27322283 -0.26780197 -0.15336178
만들다 -0.023164717 0.14382032 0.20851363 -0.002130295 -0.1786344 0.07839604 -0.00011352445 -0.206181 0.027608844 0.28378096 -0.04735475 -0.16525641 0.06123315 0.29230574 0.18318965 0.24538557 0.1714209 0.1246391 0.02750789 0.16954267 0.00854414 -0.06855103 -0.10496336 -0.10806232 -0.024846891 -0.19042821 0.082217835 0.16398287 -0.25516662 0.09160488 -0.14698839 0.11186401 -0.14018251 0.20742051 -0.09847623 0.027660385 0.15443785 0.19182749 -0.0340853 0.0009635811 0.045469694 0.001318381 0.20131989 -0.13052127 0.20919949 -0.1260616 -0.19278808 -0.018714843 -0.17517424 0.17548837 0.20011654 -0.1466046 -0.08335192 -0.1665896 0.071280286 0.10617672 -0.13228439 -0.22434561 -0.017475525 -0.033866104 -0.30030864 0.014418958 -0.024629159 0.01394912 0.041384574 -0.2640451 0.12759425 -0.09533829 0.038711317 0.17597461 -0.0102130575 -0.043107484 0.2249185 0.1044503 0.0964005 0.11671129 -0.046768963 -0.10110872 -0.010648209 -0.15287253 0.2013127 0.0033487475 0.15529062 0.064661756 -0.20255625 -0.036409937 0.084308766 -0.043213222 -0.017646873 0.1742705 -0.07052943 -0.026022905 -0.13844971 0.014800997 0.14206813 0.15503491 0.08595578 0.16899718 -0.051115043 -0.15687609
몇 -0.004922502 0.16121407 0.37026638 0.1285935 -0.16711885 0.17181018 0.1090436 -0.3257211 0.034698427 0.16818976 0.1491337 -0.23910084 0.0591222 0.26620346 0.16952987 0.23943776 0.05806256 0.039504964 -0.0055989255 0.20301096 0.09856234 -0.12826796 -0.1087996 -0.091139264 -0.11817417 -0.21597031 0.1663316 0.19978973 -0.25410268 -0.14070107 -0.2163574 0.17090476 -0.2279833 0.34626603 -0.23867732 0.09808481 0.096879505 0.100681424 -0.11128645 -0.054251388 0.024332268 0.07014616 0.22639564 -0.08988467 0.35146523 -0.24664421 -0.3005254 -0.005658437 -0.2957244 0.23297241 0.2381334 -0.1724983 -0.12899281 -0.13280495 0.1238669 -0.08506703 -0.068026334 -0.26763383 -0.07528592 -0.05615668 -0.35349914 -0.018731952 0.017425368 -0.15955928 0.07165865 -0.2223238 0.11587836 -0.21582161 0.18202735 0.238312 -0.08965443 -0.016611585 0.122476585 0.109594524 -0.01636264 0.0056315316 -0.10483307 -0.0967315 -0.07524726 -0.28604978 0.14221014 0.0008291558 0.103007644 0.031429064 -0.16125314 -0.07353995 0.1757201 -0.15879206 0.030534623 0.24430457 -0.16262124 -0.026828172 -0.2459772 0.011538216 0.102734126 0.19576135 0.05297521 0.23574951 -0.22726725 -0.13656719
밀크 -0.03794523 0.19565617 0.21978673 -0.042255867 -0.2327187 0.08154402 0.02191008 -0.22543967 0.008259483 0.34405696 -0.05286306 -0.19176318 0.044142354 0.3561462 0.23011175 0.34580448 0.1880603 0.124102436 0.018320384 0.17660256 -0.030417388 -0.07783691 -0.08501301 -0.16057828 -0.082946025 -0.21160099 0.08947121 0.19037548 -0.29098383 0.108871676 -0.18399385 0.14165391 -0.12929714 0.20378597 -0.10542776 0.040084794 0.15639019 0.21892998 -0.017193193 -0.030706199 0.065078996 -0.0030327751 0.19303735 -0.10335609 0.22379008 -0.13861126 -0.22419696 -0.034348607 -0.19512057 0.1425468 0.2418143 -0.16503502 -0.11203302 -0.15173575 0.0672741 0.10519429 -0.15427789 -0.24869134 -0.02697511 -0.055601794 -0.34298757 0.039807133 -0.02551874 0.035371967 0.033920098 -0.27497953 0.15434426 -0.07778041 0.059911918 0.13218424 -0.009191333 -0.054907452 0.22789338 0.11076414 0.16608092 0.12727237 -0.04881832 -0.1421966 0.0073488 -0.16712888 0.26070306 0.039369814 0.1350678 0.06171082 -0.17704432 -0.016562717 0.08131579 -0.041149773 -0.028802076 0.17757723 -0.10055175 -0.055574577 -0.08392379 0.026838183 0.11966095 0.16175595 0.08634011 0.17891864 -0.06259604 -0.16164334
종류 -0.027687185 0.16491619 0.2316075 0.0041795354 -0.18285075 0.086867735 0.019323243 -0.21686606 0.023114566 0.28708813 -0.047143124 -0.16520286 0.063781075 0.3098682 0.18596368 0.27002576 0.16833943 0.13724224 0.024554575 0.17102726 -0.0009941832 -0.077536464 -0.109073766 -0.12574302 -0.044147883 -0.19210725 0.08219761 0.16509806 -0.26016617 0.10221932 -0.15353431 0.1232623 -0.132561 0.21608993 -0.12022093 0.028509915 0.15114115 0.20009656 -0.017998992 0.013046698 0.053267065 -0.0043218266 0.19199552 -0.11910266 0.21140693 -0.1482538 -0.20653851 -0.020002073 -0.17449038 0.16378134 0.20177938 -0.16160381 -0.07649885 -0.17107728 0.06368806 0.09360059 -0.119868435 -0.20844996 -0.032333452 -0.047122743 -0.29922125 0.018695071 -0.017355647 0.004888156 0.039237257 -0.28200963 0.14265959 -0.10276552 0.04811093 0.16872913 -0.01325877 -0.051708087 0.21330415 0.116505876 0.12539765 0.11728768 -0.061803125 -0.12332042 -0.016468514 -0.17624961 0.21582627 0.010000986 0.1448129 0.069571674 -0.19645932 -0.025148878 0.075769745 -0.04758755 -0.024165265 0.18645093 -0.07446415 -0.027018866 -0.12529561 0.024990525 0.13815992 0.17564633 0.09265676 0.16214636 -0.050574984 -0.14440529
에서 -0.024191929 0.12572747 0.26283112 0.013026217 -0.16226932 0.10900204 0.046447065 -0.24280506 0.05488393 0.2546774 -0.016593352 -0.1593467 0.064777076 0.27774185 0.15982325 0.24706002 0.12882611 0.10902039 0.018197283 0.19249 0.016462129 -0.083232276 -0.13526069 -0.10047076 -0.036601067 -0.20880404 0.11478979 0.15978551 -0.25826105 0.024058025 -0.1977091 0.13911422 -0.18192974 0.26853582 -0.1580184 0.0672244 0.14487138 0.18732964 -0.07764795 -0.011993598 0.02790119 0.027413007 0.22339977 -0.12503769 0.23310453 -0.15073952 -0.23784825 -0.010062042 -0.2011467 0.21477081 0.20565945 -0.1581112 -0.08977722 -0.18336998 0.086555175 0.043724075 -0.117464155 -0.24321371 -0.053204022 -0.0394958 -0.29552928 0.0009531269 -0.020774344 -0.028280167 0.08334479 -0.24846528 0.14087898 -0.13327509 0.075878374 0.18845959 -0.04681993 -0.027994428 0.16391982 0.09193959 0.092748575 0.08031672 -0.077082776 -0.08848463 -0.025361842 -0.16044857 0.20248586 -0.0053459406 0.1389274 0.06776182 -0.18251881 -0.04716915 0.085794486 -0.0757085 0.014466516 0.17361307 -0.063271955 -0.008768467 -0.1883263 0.0025527684 0.13753073 0.15856689 0.0607038 0.20476303 -0.08397473 -0.15301512
바닐라 -0.0325442 0.20016362 0.21058165 -0.030525178 -0.22101277 0.05927199 0.018537432 -0.22176254 -0.0057199514 0.3339357 -0.036265645 -0.17052928 0.047311593 0.32494673 0.2205851 0.31656858 0.16647224 0.12708196 0.029423898 0.17688683 -0.014514672 -0.08318713 -0.074184954 -0.15378235 -0.049962915 -0.2269842 0.088218085 0.19979781 -0.27784988 0.11441265 -0.1639892 0.12171916 -0.101053126 0.21431714 -0.10553682 0.007055524 0.15523092 0.20224433 -0.027722703 0.0074847 0.05522 -0.0068115704 0.21534774 -0.10206046 0.22713003 -0.14427337 -0.19372056 -0.026683036 -0.17580064 0.12726395 0.23284194 -0.16861473 -0.10258986 -0.14963482 0.041142877 0.089577906 -0.13791598 -0.23184039 -0.038707808 -0.059356797 -0.308699 0.042009864 -0.0352295 0.025841199 0.05245654 -0.2708205 0.15264969 -0.097229056 0.07453814 0.1401315 -0.041015778 -0.044312943 0.22731346 0.11841172 0.14537777 0.133059 -0.038742464 -0.11216813 -0.0011117565 -0.16862436 0.25348228 0.022200016 0.15778266 0.06988905 -0.17026451 -0.014854531 0.09605883 -0.04427519 -0.049730655 0.17501639 -0.08452133 -0.02910621 -0.10638672 0.033748124 0.11947831 0.18109684 0.099239476 0.16052704 -0.066526316 -0.1420132
많이 -0.010106215 0.16574183 0.21780603 -0.01523435 -0.18620121 0.09113429 0.023996744 -0.21968806 0.03485531 0.29956523 -0.041827798 -0.1693173 0.054839894 0.31403393 0.18692912 0.28922245 0.17201613 0.117651924 0.023442 0.17348637 -0.0070687346 -0.081942 -0.1071312 -0.1383267 -0.049186125 -0.20290646 0.07898658 0.17567101 -0.25662726 0.07827061 -0.1577588 0.12160843 -0.115278475 0.21071061 -0.11919794 0.03154116 0.14597964 0.19890511 -0.037172686 0.00062884047 0.051884606 -0.00065672444 0.20197529 -0.13604397 0.20851335 -0.13804874 -0.204499 -0.010142206 -0.18790281 0.16143727 0.19935375 -0.16213469 -0.07793533 -0.16231678 0.070016235 0.08066454 -0.13307951 -0.21359055 -0.046985626 -0.049496874 -0.29729682 0.029482108 -0.024768231 -0.00038372635 0.056910116 -0.26228037 0.13687441 -0.104706906 0.05173051 0.17800328 -0.0257581 -0.04112271 0.20414744 0.09959798 0.118658416 0.11805043 -0.050158095 -0.11412045 -0.008130642 -0.16576132 0.2051139 0.0154161155 0.15356538 0.06349734 -0.1869825 -0.021678044 0.0775407 -0.05615717 -0.025024975 0.18084419 -0.06763547 -0.039269887 -0.13525462 0.018794598 0.13513643 0.16369794 0.09621542 0.18226434 -0.053873256 -0.13724975
포인트 -0.043477774 0.09503868 0.18824755 -0.0082052145 -0.1577556 0.10329249 -0.005016837 -0.17779529 0.031646043 0.24498312 -0.06530899 -0.16191314 0.07832401 0.27869466 0.13949756 0.21307777 0.13136104 0.12340398 0.03320179 0.13456821 0.0013289342 -0.029690897 -0.11439317 -0.08644428 -0.007579476 -0.181246 0.099087134 0.16763312 -0.23807442 0.093650214 -0.14956224 0.093268596 -0.13757564 0.21548587 -0.08032303 0.015746959 0.1312079 0.18179539 -0.06755547 0.0072779628 0.039317552 0.008650452 0.15700105 -0.15856293 0.2191478 -0.11544959 -0.18428728 -0.010426841 -0.17051415 0.19077319 0.14408287 -0.12161891 -0.07292235 -0.18422602 0.071543984 0.0992467 -0.10032153 -0.21224079 -0.0350438 -0.028871413 -0.278062 -0.016528917 0.008040276 -0.018588232 0.041639045 -0.25127771 0.1294492 -0.07413818 0.037223037 0.19633682 0.017930433 -0.043857846 0.19163015 0.06671707 0.09271056 0.09212756 -0.018020744 -0.08637064 -0.013074709 -0.18154895 0.16253461 0.0075653577 0.14896885 0.047194995 -0.22232768 -0.040893376 0.09446192 -0.03981019 -0.016932258 0.15109415 -0.060331877 -0.034118995 -0.11857907 0.0056382013 0.15188861 0.14889514 0.10073627 0.15010053 -0.04428991 -0.14741665
라테 -0.010803906 0.18832786 0.19421564 -0.041938234 -0.18674074 0.046649635 -0.006517399 -0.20370987 -0.0020626946 0.31307197 -0.03140543 -0.16331248 0.023862522 0.3354193 0.2193584 0.30309424 0.16701233 0.1332681 0.050539315 0.15332991 -0.009843808 -0.09892455 -0.06434489 -0.14331691 -0.067348145 -0.20718679 0.08804907 0.1786854 -0.2703866 0.11299341 -0.13419631 0.11228352 -0.09428356 0.18432565 -0.06988887 0.024630086 0.1521053 0.18147056 -0.023716742 -0.011010403 0.065674484 -0.022750117 0.19952343 -0.097383216 0.21520184 -0.14961025 -0.17677057 -0.029574327 -0.15980555 0.11032762 0.21388836 -0.16056982 -0.10478679 -0.13743435 0.015009902 0.08646316 -0.12690662 -0.22425352 -0.0174551 -0.048649907 -0.32456616 0.040751383 -0.028635997 0.021719746 0.023293994 -0.27024126 0.12369627 -0.089319825 0.05588643 0.13015553 -0.022178283 -0.050629023 0.23318079 0.103022546 0.11870157 0.1395883 -0.024784029 -0.14255615 0.0029893166 -0.14838217 0.23736078 0.028920723 0.14799672 0.06894751 -0.16085713 -0.017504074 0.07243068 -0.04840205 -0.05504423 0.17666127 -0.08519262 -0.026159344 -0.08462716 0.007927355 0.111554645 0.17874078 0.097139485 0.14584562 -0.07629348 -0.13172743
어디 -0.018864049 0.124303244 0.19499272 0.0023436463 -0.155558 0.09290329 0.022706058 -0.19334957 0.025227405 0.25362298 -0.04312999 -0.15485413 0.06926692 0.26183227 0.16446483 0.24319945 0.13320668 0.09812697 0.036274526 0.16306052 0.0051753656 -0.06316716 -0.111840494 -0.12221216 -0.047355067 -0.17870457 0.09335116 0.15871243 -0.24334535 0.06723647 -0.14754981 0.11281075 -0.12630184 0.19695137 -0.10182509 0.0379619 0.13161051 0.1860256 -0.041052133 -0.0031780405 0.035063967 0.014516675 0.1894123 -0.12680371 0.1886009 -0.12407244 -0.189879 -0.009584515 -0.16760224 0.15748051 0.17089802 -0.13494919 -0.07698391 -0.15418555 0.07403734 0.08697886 -0.11443906 -0.20695697 -0.048589572 -0.041809034 -0.25988358 0.00087474496 -0.025944788 0.011653929 0.04231638 -0.234918 0.11883448 -0.097482815 0.04523226 0.15343627 -0.024010422 -0.038076542 0.18970416 0.099302806 0.09103041 0.109384336 -0.06241885 -0.10992425 -0.0073192306 -0.15657763 0.17871666 0.018244565 0.13690056 0.06804201 -0.18957679 -0.023034327 0.067360036 -0.035189252 -0.020653063 0.15442064 -0.07698558 -0.019810235 -0.11435337 0.004377443 0.1255791 0.13701129 0.08001753 0.15846753 -0.033601448 -0.12342728
자다 0.0015544654 0.1903469 0.23947634 -0.025846003 -0.21204765 0.07305917 0.030605841 -0.22910073 0.051769253 0.30566108 -0.047988243 -0.17420237 0.03764497 0.33633843 0.19062859 0.30272081 0.18226916 0.12298573 0.03326589 0.18936265 -0.0036981413 -0.09517408 -0.10394309 -0.16747054 -0.047458105 -0.18499447 0.09144201 0.15385516 -0.2859191 0.10559779 -0.1537634 0.14042942 -0.124261394 0.24479003 -0.13680154 3.6007965e-05 0.16338773 0.19787496 -0.016452651 0.014768889 0.057988897 0.0018919676 0.21922995 -0.123009406 0.1964594 -0.15760075 -0.1986215 -0.0068775755 -0.16152713 0.18223692 0.19185966 -0.17176025 -0.0740589 -0.17648996 0.06927731 0.058359105 -0.15286833 -0.19362602 -0.030679211 -0.022048911 -0.29729828 0.044924453 -0.028555548 0.005989692 0.05044839 -0.28489944 0.16060138 -0.115365766 0.04477689 0.18160056 -0.045887943 -0.06254981 0.24305744 0.099794924 0.13767518 0.13910653 -0.054511614 -0.1263376 -0.0042368667 -0.19496122 0.20872286 0.006836515 0.17225079 0.050481495 -0.19217713 -0.037694383 0.06311075 -0.059980214 -0.038630296 0.20257182 -0.066781946 -0.038749315 -0.1311002 0.02672039 0.15085359 0.1601325 0.09135166 0.18950926 -0.08985243 -0.14050768
저희 -0.02706094 0.13057183 0.2306511 -0.016707374 -0.17676449 0.09142254 0.016482988 -0.2133482 0.03998038 0.27646297 -0.036184646 -0.16704798 0.06719237 0.30187115 0.16925392 0.25771347 0.14737707 0.12057169 0.031969108 0.18800384 -0.0040528 -0.068289876 -0.12466665 -0.11772771 -0.028558757 -0.19778837 0.106900014 0.1791468 -0.26028836 0.06265968 -0.18406747 0.1299268 -0.1572105 0.23926133 -0.11480138 0.051760696 0.14949569 0.20216697 -0.06602263 0.0036482408 0.034936253 0.008568853 0.20012884 -0.13267438 0.21929201 -0.13842861 -0.22213906 -0.008243964 -0.18576178 0.19326885 0.19887096 -0.15356845 -0.08703239 -0.17532866 0.07710638 0.080990955 -0.12626888 -0.22655044 -0.045364372 -0.038982052 -0.29347163 0.01332581 -0.021306492 0.00017800111 0.062252566 -0.26121718 0.13984482 -0.11410466 0.0545309 0.18683001 -0.02564473 -0.04224161 0.19251753 0.10001163 0.10151723 0.10524818 -0.063156374 -0.09925907 -0.022941835 -0.1650338 0.20402142 -0.00068026263 0.14719819 0.06497148 -0.20888034 -0.040345427 0.07573424 -0.059767656 -0.006571747 0.17115192 -0.06587921 -0.027575621 -0.15315323 0.004130765 0.13587444 0.15784515 0.078614436 0.18975115 -0.06829657 -0.15513776
주스 -0.01362863 0.17508473 0.2176582 -0.0166661 -0.17491308 0.06975728 0.0305092 -0.19891739 0.04403874 0.28961578 -0.03687868 -0.18800369 0.059440278 0.3232618 0.18949144 0.2830726 0.18620087 0.13263144 0.012738533 0.18143621 -0.019632045 -0.0886776 -0.110376425 -0.13400473 -0.05881457 -0.19352315 0.067840874 0.16983603 -0.2881846 0.08718832 -0.16399662 0.12784773 -0.12857056 0.22844742 -0.110631905 0.017350854 0.170892 0.20516863 -0.015512313 0.018170277 0.06454379 0.010292872 0.20479648 -0.121339 0.20341642 -0.13975348 -0.21436836 -0.011507514 -0.17629033 0.15572833 0.1694597 -0.17258911 -0.07513393 -0.1825105 0.049197845 0.08623061 -0.13937753 -0.20838799 -0.039094906 -0.023049999 -0.285621 0.041397292 -0.022708919 -0.010365356 0.04272095 -0.29356447 0.13698629 -0.094481945 0.034451287 0.20842288 -0.018426226 -0.048106514 0.21772294 0.120697536 0.11893 0.13614132 -0.06455697 -0.10979985 0.009035022 -0.16578136 0.21904752 0.012083638 0.13185671 0.069103114 -0.17330763 -0.03332465 0.06999202 -0.049922038 -0.015290569 0.1777704 -0.06257919 -0.04470053 -0.1316914 0.020499766 0.15965058 0.18584184 0.09343397 0.17449687 -0.07468137 -0.1623662
사용 -0.03866534 0.11828705 0.20080541 -0.0077231247 -0.16488656 0.097250395 -0.0041296957 -0.19618651 0.046136938 0.2517784 -0.04497636 -0.17132448 0.07833597 0.28379315 0.1626879 0.22647132 0.1463085 0.11481219 0.030772021 0.17201884 -0.0100891525 -0.057974797 -0.11311948 -0.11136676 -0.035048507 -0.1901578 0.11095899 0.18242146 -0.24037665 0.07829961 -0.16342819 0.10643988 -0.15338022 0.23364618 -0.10194713 0.03279094 0.15124884 0.1912824 -0.0633192 0.009335668 0.034351394 0.0034119175 0.19562215 -0.13918886 0.21270172 -0.13077864 -0.1920175 -0.0030114297 -0.19197851 0.18898956 0.17869359 -0.13105544 -0.070805475 -0.17144027 0.065647215 0.07635398 -0.11764962 -0.21611609 -0.053782884 -0.0514528 -0.27976504 -0.005968536 -0.016045144 -0.016243154 0.072007045 -0.2484997 0.13988057 -0.08537809 0.043380216 0.18158223 -0.02111346 -0.056437284 0.17887521 0.076756194 0.08998742 0.11660531 -0.04921945 -0.10919011 -0.025191462 -0.17862251 0.1753639 -0.0019119065 0.15034789 0.05877819 -0.20565358 -0.032729298 0.07030635 -0.038844183 -0.017882118 0.1599201 -0.06213284 -0.041400608 -0.15274517 0.0073063103 0.14374416 0.15780741 0.09174837 0.17711756 -0.05462964 -0.15319195
면 -0.03061196 0.11566463 0.2128544 -0.0232645 -0.17238662 0.10526775 -0.006802409 -0.20997639 0.035860147 0.29395142 -0.05197061 -0.15758446 0.08179413 0.29816708 0.17864496 0.24457476 0.14092262 0.14043985 0.035015456 0.17570665 0.0008349859 -0.07563632 -0.11749466 -0.12395911 -0.032033782 -0.19638154 0.099934645 0.17723714 -0.26356032 0.09657437 -0.17735615 0.12308213 -0.12656073 0.21763928 -0.119525775 0.031731978 0.1321594 0.20815858 -0.053936046 0.012286078 0.037941385 -0.0006058156 0.21393737 -0.15286623 0.21079235 -0.13713573 -0.2151844 -0.0039914316 -0.19250523 0.1728451 0.17085607 -0.14412902 -0.08270206 -0.19166622 0.08369589 0.105076864 -0.10464661 -0.2224372 -0.037397683 -0.04641458 -0.28864685 -0.005586478 -0.015642405 0.0045665773 0.04900979 -0.26069206 0.13978948 -0.085470505 0.07057164 0.19484232 -0.032131698 -0.060202006 0.20938765 0.094537154 0.10989536 0.12617643 -0.07124968 -0.11416877 -0.018720703 -0.19326068 0.1815868 0.0018302724 0.16850747 0.054891538 -0.23060551 -0.020554595 0.09559313 -0.0350353 -0.004636384 0.17167021 -0.07171394 -0.024414457 -0.14155301 -0.009640748 0.14249885 0.15855046 0.08729939 0.18162161 -0.053207513 -0.13990058
알다 -0.026637927 0.13891438 0.18513675 -0.02116087 -0.15187463 0.086443745 -0.00020776015 -0.1787109 0.014991819 0.26787144 -0.054554272 -0.14391193 0.052992046 0.27295154 0.16106549 0.23257726 0.16661038 0.10921159 0.030878393 0.13739508 0.0029782094 -0.06684917 -0.09228894 -0.10769298 -0.021775862 -0.19545105 0.09259766 0.1782276 -0.24243797 0.1154436 -0.14065668 0.1021609 -0.114380926 0.16523276 -0.09496284 0.03824541 0.13281271 0.18266027 -0.03958288 0.011483996 0.042887613 -0.006355942 0.17489193 -0.11234723 0.20002209 -0.12677081 -0.18234581 -0.032838758 -0.16378605 0.15008956 0.17105386 -0.14769906 -0.06218705 -0.15467502 0.07384657 0.097443774 -0.08822387 -0.20341152 -0.021381903 -0.028435804 -0.30227748 0.02248817 -0.028797343 0.004289812 0.051722076 -0.23659323 0.10161341 -0.11238102 0.06654394 0.17615606 -0.020083288 -0.04762657 0.20914488 0.09851173 0.107981734 0.115823954 -0.025417859 -0.10564 -0.02211268 -0.1590568 0.15935063 0.008212874 0.1589533 0.07303245 -0.18587893 -0.036016114 0.06992968 -0.03978952 -0.04232617 0.14485548 -0.073844366 -0.022387395 -0.1312118 0.019794056 0.12211886 0.15897448 0.07760941 0.14454404 -0.029216338 -0.14332978
초코 -0.00943134 0.18260193 0.21045616 -0.02496822 -0.19438812 0.06609581 0.00029609812 -0.20508622 0.020182896 0.30613002 -0.04591199 -0.1718487 0.04988095 0.3248929 0.20472962 0.29075003 0.16595237 0.11440391 0.046951286 0.17020842 -0.015115219 -0.089403294 -0.06929689 -0.15654543 -0.04810535 -0.21092486 0.07037502 0.16649987 -0.27411345 0.106340416 -0.16038416 0.12473895 -0.10288272 0.21042079 -0.104605645 0.014666786 0.1597813 0.18829517 -0.026235914 0.0057118093 0.066150256 -0.014712717 0.20605473 -0.10921286 0.21425827 -0.15045023 -0.1917831 -0.008642068 -0.16913374 0.13217005 0.21377045 -0.16891915 -0.0825152 -0.1496463 0.052221544 0.08441081 -0.12522416 -0.21538238 -0.04036396 -0.053748332 -0.30140254 0.040213153 -0.02749786 0.023974784 0.04237654 -0.2707145 0.1422077 -0.09962669 0.062271517 0.15827592 -0.033905666 -0.050107993 0.23684677 0.11980983 0.1267322 0.13249676 -0.042875957 -0.12721679 -0.015187968 -0.17668642 0.22148865 0.023988409 0.15465641 0.058361195 -0.17951374 -0.019501124 0.083236836 -0.04098951 -0.03125229 0.17667048 -0.07567373 -0.02776946 -0.11211623 0.020158496 0.115790926 0.1696853 0.106557354 0.16740415 -0.06828056 -0.14317752
텀블러 -0.039242953 0.11503096 0.18489115 -0.016756477 -0.15711842 0.09152982 -0.006224598 -0.21548648 0.031241326 0.27840742 -0.03644408 -0.13457547 0.07896749 0.26839438 0.1643657 0.2398549 0.13670203 0.12717907 0.05199071 0.15910855 -0.0019774146 -0.049215574 -0.11896192 -0.120910585 -0.033500385 -0.18477301 0.09353799 0.17198429 -0.23746783 0.101399064 -0.17709586 0.13363141 -0.1335148 0.21352708 -0.094792515 0.030114757 0.1481438 0.18744507 -0.040735178 0.00031435632 0.05560982 -0.019038945 0.19021745 -0.14626007 0.20983051 -0.1414245 -0.18137147 0.010339552 -0.20286483 0.16576216 0.15971595 -0.123101294 -0.07653757 -0.15524845 0.07114621 0.07831948 -0.10743736 -0.22462985 -0.06863513 -0.04891957 -0.2629787 -0.01468231 -0.014952068 0.007504981 0.062110588 -0.26278496 0.11448588 -0.09146855 0.056658935 0.18729074 -0.015901366 -0.059487652 0.18938912 0.09655414 0.096430436 0.10380477 -0.043787476 -0.07880048 -0.024213832 -0.17503172 0.15579271 0.0044383164 0.16210574 0.056565296 -0.2006521 -0.043447603 0.0646692 -0.027755234 -0.0018405017 0.14472148 -0.07318069 -0.019506399 -0.1322255 0.014194932 0.13209295 0.15353607 0.10467002 0.16038811 -0.03611299 -0.123126104
맛 -0.015953513 0.17130765 0.2239656 -0.020273233 -0.196301 0.09902529 0.00883161 -0.22717085 0.041308813 0.29290423 -0.047246687 -0.16660103 0.05621334 0.3229473 0.19215015 0.28684467 0.17402703 0.1162857 0.033976026 0.18142475 -0.0117244655 -0.08299834 -0.09831312 -0.13780355 -0.05907602 -0.20926309 0.07586553 0.16887434 -0.2722155 0.086588405 -0.16323717 0.13616222 -0.1278785 0.23424013 -0.121086106 0.037692513 0.15511571 0.19782718 -0.030423732 0.0023711037 0.059677046 -0.005340526 0.20017493 -0.1230279 0.21095984 -0.14641741 -0.20741662 -0.01707346 -0.19727696 0.16712922 0.20324323 -0.15559176 -0.08069818 -0.15754056 0.05526013 0.07794118 -0.1376451 -0.23149213 -0.03538694 -0.046034668 -0.28991264 0.025231473 -0.03239175 0.006533075 0.041768957 -0.27280113 0.15948321 -0.09642085 0.058516946 0.17942975 -0.021259893 -0.054810267 0.22217442 0.11561613 0.12102866 0.11745768 -0.050023872 -0.120353565 -0.0013303092 -0.17226249 0.21398635 0.017562905 0.16527995 0.064230815 -0.19610403 -0.033896137 0.06663357 -0.06210584 -0.013624491 0.18209927 -0.06552439 -0.040381197 -0.119871974 0.027187167 0.1304072 0.17150311 0.10014685 0.1732588 -0.047641687 -0.15365137
데 -0.017313112 0.24597663 0.20421806 -0.07712447 -0.2623213 0.06004661 0.03370936 -0.21980277 -0.045200717 0.34568763 -0.028694583 -0.18609107 0.07284624 0.38151416 0.21471037 0.3071806 0.17907938 0.13780609 0.002520185 0.1702415 -0.035554875 -0.115488105 -0.09894118 -0.1467556 -0.06436662 -0.2789739 0.11247533 0.24548715 -0.30265293 0.14127754 -0.16919585 0.12032965 -0.11255279 0.17702325 -0.101697326 0.017050464 0.14874394 0.19194782 -0.061492544 0.025277846 0.07347695 -0.06600269 0.18634312 -0.12737271 0.24615994 -0.13924313 -0.23810081 -0.098487 -0.17930949 0.08823736 0.24936336 -0.13956176 -0.11982234 -0.1381961 0.03129309 0.103436165 -0.12203322 -0.26296303 -0.017737594 -0.0794499 -0.40187946 0.041046888 -0.021556718 0.059992053 0.038221058 -0.3305394 0.1192928 -0.09057056 0.059337318 0.106352866 -0.01261174 -0.039917216 0.29045385 0.13149926 0.19779314 0.14320737 -0.04514342 -0.16784465 0.011429009 -0.18327698 0.29007545 0.07011408 0.19280764 0.0421464 -0.18384945 -0.055654883 0.118995026 -0.06817895 -0.07022721 0.14010563 -0.11221633 -0.030333934 -0.1358434 0.07350461 0.10966371 0.16268364 0.103668 0.18299441 -0.02387099 -0.14766015
메뉴 -0.017895047 0.14974096 0.21594758 -0.010206419 -0.17852193 0.089606956 0.0069651413 -0.2105311 0.037653293 0.28040183 -0.044623666 -0.1707371 0.06142066 0.2959689 0.18928573 0.27351242 0.15980983 0.121818006 0.034224335 0.17314088 -0.0062954375 -0.07657338 -0.10478881 -0.1338078 -0.05287605 -0.20047243 0.08556101 0.16794102 -0.25950477 0.08224974 -0.1633631 0.12505908 -0.12736759 0.22628245 -0.10606441 0.037592877 0.14641133 0.19488952 -0.042157143 0.0075501204 0.042395595 -0.001887769 0.19734097 -0.13166903 0.2077698 -0.14873427 -0.1976918 -0.0034067046 -0.1806713 0.16126983 0.18977061 -0.1547966 -0.08153972 -0.16328803 0.060987737 0.08007834 -0.1261665 -0.22328782 -0.0363422 -0.04564336 -0.29925805 0.017395752 -0.014074924 0.0025011024 0.052883357 -0.26479462 0.14234701 -0.10710531 0.053219974 0.17980547 -0.02180994 -0.0559868 0.2116235 0.09850313 0.11572981 0.113010064 -0.05555014 -0.11096249 -0.018591197 -0.17200845 0.20703621 0.009001101 0.15353563 0.063198216 -0.18935527 -0.040680405 0.08244202 -0.04962354 -0.019759184 0.17925335 -0.068134926 -0.01996368 -0.13797525 0.0116572045 0.13808672 0.17400242 0.09849426 0.17207056 -0.060647655 -0.1327413
조금 -0.014305635 0.15051368 0.19347373 -0.028309582 -0.19719759 0.08796463 0.004440243 -0.21155715 0.02667575 0.27367383 -0.044120062 -0.15069024 0.052654415 0.30148074 0.17131847 0.2775593 0.14767547 0.1095169 0.028689714 0.16540022 -0.001904616 -0.050024644 -0.088652566 -0.14569493 -0.04598007 -0.19499785 0.060186557 0.15564801 -0.24612916 0.08199743 -0.15573068 0.11105895 -0.10717624 0.22026755 -0.103331596 0.030725367 0.13371031 0.19874613 -0.040106077 -0.0014260206 0.04070674 -0.003554275 0.1959227 -0.14209811 0.22719978 -0.14031158 -0.20265599 -0.01520185 -0.17165881 0.17097649 0.19514082 -0.15055327 -0.07731368 -0.178283 0.054041125 0.08337031 -0.13036527 -0.22527112 -0.053908512 -0.036201797 -0.29238293 0.01897223 -0.035447273 -0.004056295 0.065868296 -0.24236427 0.13409528 -0.09916526 0.06019024 0.17010805 -0.02983944 -0.02890661 0.21346088 0.10062002 0.11178419 0.12017008 -0.041955784 -0.115856215 -0.012661607 -0.16081968 0.18081369 0.03573668 0.15104799 0.081817746 -0.19897626 -0.017496081 0.07458352 -0.050281554 -0.029935211 0.17533673 -0.073242284 -0.04101011 -0.13429943 0.019132612 0.13302909 0.16463533 0.09153674 0.18164863 -0.04270151 -0.11561113
에스프레소 -0.020542037 0.1836986 0.21106128 -0.03386707 -0.2161292 0.07015481 -0.0048067216 -0.22485219 0.011548316 0.31792802 -0.025927123 -0.17899054 0.041184787 0.34595662 0.22465596 0.3257908 0.17479144 0.12210912 0.027632724 0.18095434 -0.0054764515 -0.098440684 -0.07785997 -0.14902371 -0.06260807 -0.22809547 0.08970586 0.19229914 -0.28494433 0.10168121 -0.17626815 0.13179992 -0.109273165 0.20193313 -0.091752775 0.016495246 0.14675003 0.20112346 -0.034827136 -0.006714959 0.052616127 -0.012135019 0.20838982 -0.11528001 0.23593839 -0.14658044 -0.21620014 -0.023836466 -0.18403369 0.12996145 0.2113256 -0.16444547 -0.10197071 -0.15265271 0.05302126 0.103670724 -0.12962396 -0.23079984 -0.039175358 -0.04914086 -0.32040754 0.036951892 -0.019700438 0.011651165 0.05269239 -0.27365333 0.14695862 -0.107213035 0.07683884 0.16017331 -0.038008824 -0.04247532 0.23305692 0.10896786 0.12999903 0.13428085 -0.02474539 -0.13080972 -0.0030718192 -0.18071018 0.23760356 0.041754883 0.14684021 0.07186208 -0.19100079 -0.04059738 0.08109869 -0.043169677 -0.050044592 0.19925407 -0.09622048 -0.04299507 -0.10913962 0.016464913 0.12472401 0.18429716 0.09855129 0.16029315 -0.058823165 -0.13897225
하고 -0.032591097 0.16626194 0.21493846 -0.016414052 -0.18662846 0.07011926 0.0075928196 -0.21531765 0.022141274 0.28961924 -0.035438206 -0.17982642 0.04919596 0.3206203 0.18963794 0.28726315 0.16620153 0.11954865 0.029347308 0.16354053 -0.0048703467 -0.078588426 -0.09639718 -0.13066845 -0.053328656 -0.20870459 0.095075265 0.16984786 -0.26143593 0.10331019 -0.16152808 0.12081541 -0.11914446 0.22435923 -0.08962952 0.016660972 0.16547705 0.19356975 -0.03572697 -0.0014278917 0.04956588 -0.007194498 0.18511622 -0.1174495 0.22505154 -0.14279361 -0.1975615 -0.010566032 -0.1886963 0.14645086 0.1921589 -0.15160276 -0.08591719 -0.16734321 0.06020066 0.08662852 -0.11943233 -0.2105574 -0.033529732 -0.03889382 -0.2974801 0.030882113 -0.018511705 0.0029152022 0.042502362 -0.27096704 0.15028605 -0.09666417 0.04451977 0.16509926 -0.013902436 -0.044507425 0.21450569 0.1148509 0.11822937 0.11953732 -0.04036961 -0.1187714 -0.011266693 -0.17021249 0.21748109 0.022126766 0.14276063 0.056646787 -0.19588669 -0.027395533 0.08230527 -0.046986062 -0.025045648 0.18327917 -0.07842599 -0.035084743 -0.11856712 0.026487613 0.13984902 0.1722688 0.102260485 0.16350956 -0.056439973 -0.13861088
두 -0.0078175375 0.17386428 0.20677885 -0.02171522 -0.173303 0.06971194 -0.0077936538 -0.22038922 0.015276884 0.28913462 -0.01671079 -0.16684334 0.017543951 0.32788655 0.20608084 0.2884995 0.13958369 0.11604688 0.05443686 0.18664405 0.0063047223 -0.088365786 -0.059643853 -0.14500013 -0.054949585 -0.19921887 0.08189461 0.1575359 -0.25028446 0.052710496 -0.15671544 0.11383041 -0.12066044 0.19439311 -0.08562902 0.038067892 0.122483775 0.18829829 -0.04973677 -0.014247621 0.049317744 -0.009868366 0.17438285 -0.10909349 0.2526052 -0.15602575 -0.20630561 -0.004953309 -0.17891318 0.13695717 0.2066321 -0.15973955 -0.10475535 -0.1455451 0.04854567 0.059112396 -0.118422285 -0.2304634 -0.05497271 -0.04099666 -0.31878567 0.04406768 -0.030097894 -0.011476737 0.03460092 -0.25621042 0.13667947 -0.12366095 0.07896355 0.15908664 -0.050951928 -0.033831228 0.21792047 0.09658847 0.07703509 0.11721072 -0.036323324 -0.13201763 -0.02131664 -0.19219595 0.19845252 0.03491036 0.12940897 0.057964984 -0.16591983 -0.028150223 0.08634138 -0.05209763 -0.031302266 0.20874496 -0.077394634 -0.024454065 -0.10067019 0.019147204 0.10747363 0.16924295 0.100805 0.1561949 -0.091241255 -0.12291488
